svm_type epsilon_svr
kernel_type rbf
gamma 0.333333
nr_class 2
total_sv 1713
rho -84.4019
SV
1 1:-0.671078 2:-0.146186 3:-0.681898 
1 1:-0.613611 2:-0.197474 3:-0.59913 
1 1:-0.648393 2:-0.305668 3:-0.616333 
1 1:-0.649905 2:-0.387883 3:-0.664118 
1 1:-0.677883 2:-0.423761 3:-0.694343 
1 1:-0.743667 2:-0.431476 3:-0.746571 
1 1:-0.751985 2:-0.530673 3:-0.776059 
-1 1:-0.79206 2:-0.567006 3:-0.861978 
1 1:-0.807183 2:-0.59633 3:-0.794025 
1 1:-0.817013 2:-0.706541 3:-0.795368 
-1 1:-0.861626 2:-0.728462 3:-0.828846 
1 1:-0.624953 2:-0.199919 3:-0.666895 
1 1:-0.618904 2:-0.255608 3:-0.63125 
-1 1:-0.637051 2:-0.291621 3:-0.648032 
1 1:-0.622684 2:-0.364069 3:-0.65366 
1 1:-0.547826 2:-0.450589 3:-0.575668 
1 1:-0.6 2:-0.484385 3:-0.607901 
1 1:-0.712665 2:-0.463076 3:-0.719005 
1 1:-0.67259 2:-0.56545 3:-0.690429 
1 1:-0.741399 2:-0.60074 3:-0.753412 
1 1:-0.819282 2:-0.620855 3:-0.815534 
1 1:-0.823819 2:-0.736082 3:-0.815355 
-1 1:-0.851796 2:-0.759042 3:-0.808356 
1 1:-0.110019 2:0.0841977 3:-0.180372 
1 1:-0.10397 2:0.0541762 3:-0.123623 
-1 1:-0.287713 2:-0.00872812 3:-0.438106 
-1 1:-0.574291 2:-0.0549084 3:-0.341104 
-1 1:-0.618147 2:-0.121842 3:-0.358726 
-1 1:-0.575047 2:-0.1779 3:-0.41004 
1 1:-0.675614 2:-0.458655 3:-0.725868 
1 1:-0.752741 2:-0.552883 3:-0.775004 
-1 1:-0.850284 2:-0.604353 3:-0.856075 
-1 1:-0.844234 2:-0.625521 3:-0.827911 
-1 1:-0.863894 2:-0.739642 3:-0.865031 
1 1:-0.84121 2:-0.773428 3:-0.837165 
1 1:-0.65293 2:-0.198553 3:-0.6349 
1 1:-0.626465 2:-0.255572 3:-0.577998 
1 1:-0.631758 2:-0.287597 3:-0.623165 
1 1:-0.660491 2:-0.365132 3:-0.706172 
1 1:-0.62949 2:-0.44539 3:-0.652847 
1 1:-0.584877 2:-0.478812 3:-0.637888 
-1 1:-0.770132 2:-0.496738 3:-0.794078 
1 1:-0.769376 2:-0.601077 3:-0.728049 
1 1:-0.763327 2:-0.634878 3:-0.775127 
1 1:-0.836673 2:-0.652302 3:-0.793814 
-1 1:-0.843478 2:-0.771897 3:-0.857212 
-1 1:-0.838185 2:-0.791771 3:-0.809958 
1 1:-0.635539 2:-0.168877 3:-0.668336 
1 1:-0.532703 2:-0.219947 3:-0.504513 
1 1:-0.634026 2:-0.255149 3:-0.622959 
-1 1:-0.689225 2:-0.326354 3:-0.648829 
1 1:-0.61966 2:-0.40423 3:-0.615862 
1 1:-0.649149 2:-0.442356 3:-0.701148 
1 1:-0.676371 2:-0.482156 3:-0.697151 
1 1:-0.728544 2:-0.578698 3:-0.711847 
1 1:-0.718715 2:-0.606498 3:-0.676238 
1 1:-0.744423 2:-0.624454 3:-0.713629 
1 1:-0.708885 2:-0.738289 3:-0.722908 
1 1:-0.751229 2:-0.762938 3:-0.828747 
1 1:-0.69225 2:-0.180099 3:-0.707873 
1 1:-0.589414 2:-0.223372 3:-0.579374 
1 1:-0.535728 2:-0.25522 3:-0.537576 
1 1:-0.626465 2:-0.324846 3:-0.621881 
1 1:-0.538752 2:-0.401929 3:-0.596286 
1 1:-0.53724 2:-0.442541 3:-0.595987 
1 1:-0.530435 2:-0.446823 3:-0.548546 
1 1:-0.616635 2:-0.541399 3:-0.586345 
-1 1:-0.713422 2:-0.573414 3:-0.788924 
1 1:-0.716446 2:-0.583022 3:-0.717282 
1 1:-0.727788 2:-0.691201 3:-0.749614 
1 1:-0.685444 2:-0.720282 3:-0.603424 
-1 1:-0.708 2:-0.211375 3:-0.759477 
1 1:-0.718843 2:-0.260744 3:-0.711387 
1 1:-0.696786 2:-0.289008 3:-0.628441 
1 1:-0.694518 2:-0.346152 3:-0.685623 
1 1:-0.699819 2:-0.42098 3:-0.731736 
1 1:-0.672272 2:-0.443893 3:-0.654196 
1 1:-0.516068 2:-0.325631 3:-0.557057 
1 1:-0.634783 2:-0.407795 3:-0.637732 
1 1:-0.719471 2:-0.444331 3:-0.715653 
1 1:-0.638563 2:-0.466941 3:-0.626254 
1 1:-0.745936 2:-0.564564 3:-0.767531 
-1 1:-0.73535 2:-0.599953 3:-0.748746 
1 1:-0.648393 2:-0.13398 3:-0.652115 
1 1:-0.630246 2:-0.184168 3:-0.648024 
-1 1:-0.665784 2:-0.226477 3:-0.649207 
1 1:-0.646125 2:-0.291909 3:-0.650821 
1 1:-0.635539 2:-0.373127 3:-0.630403 
1 1:-0.65293 2:-0.410351 3:-0.663457 
1 1:-0.671078 2:-0.46986 3:-0.685458 
1 1:-0.709641 2:-0.571559 3:-0.669877 
1 1:-0.795085 2:-0.603578 3:-0.796265 
1 1:-0.808696 2:-0.6301 3:-0.798861 
-1 1:-0.824575 2:-0.742571 3:-0.819834 
1 1:-0.833648 2:-0.760578 3:-0.826365 
1 1:-0.60983 2:-0.157877 3:-0.574402 
1 1:-0.667297 2:-0.209991 3:-0.689613 
1 1:-0.595463 2:-0.25035 3:-0.536461 
1 1:-0.590926 2:-0.318893 3:-0.576778 
1 1:-0.567486 2:-0.402456 3:-0.55827 
1 1:-0.627221 2:-0.441361 3:-0.698351 
1 1:-0.616635 2:-0.437499 3:-0.658942 
1 1:-0.540265 2:-0.53011 3:-0.550129 
1 1:-0.646125 2:-0.561325 3:-0.722795 
1 1:-0.825331 2:-0.581523 3:-0.744537 
-1 1:-0.857089 2:-0.685857 3:-0.862163 
-1 1:-0.908507 2:-0.705708 3:-0.901794 
1 1:-0.106238 2:0.065401 3:-0.128416 
1 1:-0.106994 2:0.0552423 3:-0.0647424 
1 1:-0.208318 2:0.0123678 3:-0.339296 
1 1:-0.205293 2:-0.019824 3:-0.333202 
1 1:-0.150095 2:-0.0538142 3:-0.192978 
1 1:-0.121361 2:-0.0933796 3:-0.0941762 
1 1:-0.721739 2:-0.419633 3:-0.894832 
1 1:-0.72552 2:-0.501359 3:-0.706563 
1 1:-0.723251 2:-0.545609 3:-0.838904 
1 1:-0.827599 2:-0.568657 3:-0.815162 
1 1:-0.851796 2:-0.6681 3:-0.817754 
1 1:-0.882042 2:-0.696715 3:-0.953686 
1 1:-0.691493 2:-0.20332 3:-0.701318 
1 1:-0.683176 2:-0.253494 3:-0.65845 
1 1:-0.65293 2:-0.280684 3:-0.636901 
1 1:-0.673346 2:-0.352461 3:-0.667504 
1 1:-0.677127 2:-0.423678 3:-0.718664 
1 1:-0.645369 2:-0.45084 3:-0.665149 
1 1:-0.767108 2:-0.475209 3:-0.810557 
1 1:-0.787524 2:-0.578207 3:-0.78609 
1 1:-0.775425 2:-0.614553 3:-0.806428 
-1 1:-0.838941 2:-0.634449 3:-0.774941 
1 1:-0.826087 2:-0.752986 3:-0.811365 
-1 1:-0.833648 2:-0.775049 3:-0.800593 
1 1:-0.654442 2:-0.160322 3:-0.681902 
-1 1:-0.625709 2:-0.210705 3:-0.576933 
1 1:-0.660491 2:-0.246739 3:-0.650233 
1 1:-0.617391 2:-0.3172 3:-0.607763 
1 1:-0.586389 2:-0.394397 3:-0.612857 
1 1:-0.603025 2:-0.433562 3:-0.607338 
-1 1:-0.293006 2:-0.14295 3:-0.309587 
-1 1:-0.241588 2:-0.215423 3:-0.28373 
1 1:-0.0495274 2:-0.279312 3:-0.0552707 
1 1:0.0124764 2:-0.319826 3:-0.0370511 
1 1:0.144802 2:-0.411557 3:0.0942933 
1 1:0.063138 2:-0.46678 3:0.0974357 
1 1:0.651418 2:0.358709 3:0.481738 
1 1:0.541777 2:0.378759 3:0.492343 
1 1:0.568242 2:0.308454 3:0.364523 
1 1:0.88431 2:0.31114 3:0.750518 
1 1:0.878261 2:0.307719 3:0.748146 
1 1:0.79811 2:0.226453 3:0.721084 
1 1:0.218904 2:-0.0784671 3:0.213839 
1 1:0.00415879 2:-0.121457 3:-0.080417 
-1 1:-0.189414 2:-0.170102 3:-0.278384 
-1 1:-0.265028 2:-0.19381 3:-0.16036 
-1 1:-0.347448 2:-0.248606 3:-0.302098 
-1 1:-0.266541 2:-0.295765 3:-0.33793 
1 1:0.640832 2:0.0904903 3:0.364856 
1 1:0.743667 2:0.0798457 3:0.625895 
1 1:0.954631 2:0.0348009 3:1 
1 1:1 2:0.0359133 3:0.939776 
1 1:0.985633 2:0.00926035 3:0.825735 
1 1:0.621172 2:-0.0324687 3:0.480618 
1 1:0.0691871 2:-0.231682 3:0.14047 
1 1:-0.0533081 2:-0.285707 3:-0.104016 
1 1:-0.193195 2:-0.311812 3:-0.300696 
-1 1:-0.271078 2:-0.332478 3:-0.259761 
1 1:-0.193195 2:-0.398984 3:-0.234703 
1 1:-0.452552 2:-0.430903 3:-0.400534 
1 1:0.249905 2:0.0193596 3:0.18134 
1 1:0.423819 2:0.0010719 3:0.358464 
1 1:0.45482 2:-0.0401464 3:0.435446 
-1 1:-0.0986767 2:-0.0649481 3:-0.0277928 
1 1:0.382987 2:-0.108284 3:0.277785 
1 1:0.399622 2:-0.146808 3:0.26107 
1 1:-0.0487713 2:-0.342415 3:0.0818386 
1 1:-0.162949 2:-0.412442 3:-0.249946 
1 1:-0.163705 2:-0.439028 3:-0.274772 
1 1:-0.323251 2:-0.466886 3:-0.209758 
1 1:-0.352741 2:-0.542048 3:-0.284076 
1 1:-0.382987 2:-0.560716 3:-0.431036 
1 1:0.209074 2:0.00349009 3:0.212548 
1 1:0.448771 2:-0.0155347 3:0.331599 
1 1:0.573535 2:-0.0553629 3:0.534319 
1 1:0.466919 2:-0.0817068 3:0.699502 
1 1:0.599244 2:-0.125816 3:0.396663 
1 1:0.677883 2:-0.169993 3:0.613006 
1 1:0.403403 2:0.143628 3:0.412453 
1 1:0.423819 2:0.11738 3:0.297188 
1 1:0.390548 2:0.0470208 3:0.162704 
1 1:-0.03138 2:0.00147852 3:-0.0896868 
-1 1:-0.10397 2:-0.0364224 3:-0.32548 
-1 1:-0.110775 2:-0.0949432 3:-0.203382 
-1 1:0.122873 2:-0.00877275 3:0.0265296 
1 1:0.390548 2:-0.0280521 3:0.317713 
1 1:0.370888 2:-0.0643134 3:0.288682 
1 1:0.275614 2:-0.0935002 3:0.252932 
1 1:0.398866 2:-0.14209 3:0.2559 
1 1:0.21966 2:-0.168682 3:0.0654416 
1 1:0.277127 2:0.12256 3:0.162356 
1 1:0.294518 2:0.0971928 3:0.261682 
1 1:0.460113 2:0.0192042 3:0.394524 
1 1:0.321739 2:-0.0267331 3:0.402261 
1 1:0.304348 2:-0.0671448 3:0.255917 
-1 1:-0.0691871 2:-0.00128347 3:-0.0857781 
1 1:0.0517958 2:-0.0270059 3:0.0444656 
1 1:0.258979 2:-0.0579101 3:0.233482 
1 1:0.182609 2:-0.0969498 3:0.23058 
1 1:0.349716 2:-0.12953 3:0.274971 
1 1:0.299055 2:-0.171598 3:0.26318 
1 1:0.363327 2:-0.0407794 3:0.36502 
1 1:0.172023 2:-0.0846738 3:0.147352 
1 1:0.141777 2:-0.142933 3:-0.0121461 
1 1:0.12741 2:-0.177844 3:-0.0850718 
1 1:0.00491493 2:-0.235401 3:-0.149866 
1 1:0.0759924 2:-0.281192 3:-0.141878 
-1 1:-0.181853 2:0.0479117 3:-0.159639 
1 1:-0.106238 2:0.0150769 3:-0.158521 
1 1:-0.138752 2:-0.0404538 3:-0.285551 
1 1:0.0782609 2:-0.0915515 3:-0.0442218 
1 1:0.0555766 2:-0.150902 3:0.0190519 
1 1:0.0449905 2:-0.214593 3:-0.0992083 
1 1:0.308129 2:0.0480753 3:0.195653 
-1 1:-0.0147448 2:0.0152736 3:-0.178344 
1 1:0.0200378 2:-0.0454522 3:-0.168696 
-1 1:-0.293762 2:-0.0867944 3:-0.225459 
-1 1:-0.304348 2:-0.133466 3:-0.217193 
-1 1:-0.386767 2:-0.185509 3:-0.476951 
-1 1:-0.770132 2:-0.213826 3:-0.776441 
1 1:-0.718715 2:-0.25939 3:-0.714271 
1 1:-0.750473 2:-0.287354 3:-0.680621 
1 1:-0.755009 2:-0.359572 3:-0.768904 
1 1:-0.767108 2:-0.43883 3:-0.781374 
1 1:-0.746692 2:-0.475597 3:-0.752531 
1 1:-0.745936 2:-0.497852 3:-0.75776 
-1 1:-0.832136 2:-0.595649 3:-0.811194 
1 1:-0.819282 2:-0.621902 3:-0.832794 
-1 1:-0.838185 2:-0.627602 3:-0.857153 
1 1:-0.795085 2:-0.738538 3:-0.834021 
-1 1:-0.850284 2:-0.76277 3:-0.864358 
1 1:-0.708 2:-0.211375 3:-0.716893 
1 1:-0.718843 2:-0.260744 3:-0.722324 
-1 1:-0.696786 2:-0.289008 3:-0.691375 
1 1:-0.694518 2:-0.346152 3:-0.65763 
1 1:-0.699819 2:-0.42098 3:-0.709108 
-1 1:-0.672272 2:-0.443893 3:-0.686069 
1 1:-0.761059 2:-0.469959 3:-0.790706 
-1 1:-0.795841 2:-0.561819 3:-0.782285 
1 1:-0.780718 2:-0.582093 3:-0.791501 
-1 1:-0.838941 2:-0.594741 3:-0.816487 
1 1:-0.804915 2:-0.701004 3:-0.824383 
-1 1:-0.835161 2:-0.72267 3:-0.799749 
1 1:-0.664272 2:-0.170363 3:-0.70029 
-1 1:-0.644612 2:-0.223628 3:-0.685909 
1 1:-0.600756 2:-0.262206 3:-0.58736 
1 1:-0.649149 2:-0.331107 3:-0.678796 
1 1:-0.6862 2:-0.414903 3:-0.733008 
1 1:-0.606049 2:-0.447878 3:-0.733717 
1 1:-0.747448 2:-0.54411 3:-0.780413 
-1 1:-0.829112 2:-0.650364 3:-0.843542 
-1 1:-0.848771 2:-0.673779 3:-0.902813 
1 1:-0.818526 2:-0.811191 3:-0.850333 
1 1:-0.869943 2:-0.821438 3:-0.841361 
1 1:-0.643856 2:-0.11099 3:-0.636285 
1 1:-0.655198 2:-0.159026 3:-0.64793 
-1 1:-0.69603 2:-0.204155 3:-0.683991 
1 1:-0.677127 2:-0.268221 3:-0.645324 
1 1:-0.650662 2:-0.348345 3:-0.641946 
1 1:-0.674102 2:-0.392868 3:-0.666607 
1 1:-0.749716 2:-0.489435 3:-0.754882 
1 1:-0.786011 2:-0.59346 3:-0.760075 
-1 1:-0.823062 2:-0.625779 3:-0.831378 
1 1:-0.816257 2:-0.643964 3:-0.802386 
1 1:-0.789792 2:-0.760603 3:-0.805422 
1 1:-0.678639 2:-0.152783 3:-0.682996 
1 1:-0.666541 2:-0.203509 3:-0.607865 
1 1:-0.644612 2:-0.242711 3:-0.591632 
-1 1:-0.674858 2:-0.310628 3:-0.626234 
1 1:-0.637807 2:-0.395822 3:-0.662929 
-1 1:-0.69603 2:-0.422637 3:-0.720989 
1 1:-0.702079 2:-0.449741 3:-0.714341 
-1 1:-0.764839 2:-0.54348 3:-0.775368 
1 1:-0.789792 2:-0.595811 3:-0.841772 
1 1:-0.812476 2:-0.617627 3:-0.821905 
1 1:-0.832892 2:-0.731272 3:-0.828714 
-1 1:-0.863894 2:-0.765875 3:-0.835566 
-1 1:-0.625709 2:-0.133442 3:-0.581239 
1 1:-0.591682 2:-0.185649 3:-0.556659 
-1 1:-0.673346 2:-0.223529 3:-0.68283 
1 1:-0.610586 2:-0.295635 3:-0.540496 
1 1:-0.664272 2:-0.370451 3:-0.628454 
1 1:-0.622684 2:-0.411633 3:-0.578703 
1 1:-0.625709 2:-0.460455 3:-0.650125 
1 1:-0.67259 2:-0.562468 3:-0.671383 
1 1:-0.72552 2:-0.600316 3:-0.74287 
1 1:-0.766352 2:-0.620359 3:-0.756979 
1 1:-0.777694 2:-0.73793 3:-0.794489 
-1 1:-0.848771 2:-0.761418 3:-0.787101 
-1 1:-0.718715 2:-0.219679 3:-0.76719 
1 1:-0.595463 2:-0.274763 3:-0.592647 
1 1:-0.648393 2:-0.304978 3:-0.685948 
1 1:-0.677883 2:-0.380513 3:-0.691752 
1 1:-0.662004 2:-0.462321 3:-0.70955 
1 1:-0.67259 2:-0.494219 3:-0.683019 
-1 1:-0.616635 2:-0.400681 3:-0.645036 
1 1:-0.651418 2:-0.491967 3:-0.627787 
1 1:-0.730057 2:-0.528923 3:-0.747842 
1 1:-0.756522 2:-0.552624 3:-0.710599 
1 1:-0.792817 2:-0.661812 3:-0.80702 
1 1:-0.728544 2:-0.694216 3:-0.763196 
-1 1:-0.676371 2:-0.132657 3:-0.647665 
-1 1:-0.638563 2:-0.172608 3:-0.626023 
-1 1:-0.557656 2:-0.209836 3:-0.577398 
1 1:-0.503214 2:-0.275846 3:-0.525843 
1 1:-0.479017 2:-0.349737 3:-0.525915 
1 1:-0.575047 2:-0.395663 3:-0.657018 
1 1:-0.508507 2:-0.376765 3:-0.574175 
1 1:-0.634783 2:-0.466665 3:-0.577565 
1 1:-0.76862 2:-0.506359 3:-0.761227 
1 1:-0.774669 2:-0.521205 3:-0.751096 
1 1:-0.790548 2:-0.625292 3:-0.81241 
1 1:-0.786767 2:-0.660834 3:-0.812293 
-1 1:-0.740265 2:-0.133452 3:-0.798372 
1 1:-0.711531 2:-0.176942 3:-0.701787 
-1 1:-0.720983 2:-0.213373 3:-0.722715 
1 1:-0.649149 2:-0.262248 3:-0.627553 
1 1:-0.661248 2:-0.331367 3:-0.694393 
1 1:-0.665784 2:-0.363408 3:-0.659065 
1 1:-0.494896 2:-0.342536 3:-0.462418 
1 1:-0.604537 2:-0.425898 3:-0.580122 
1 1:-0.732325 2:-0.460584 3:-0.729551 
-1 1:-0.687713 2:-0.482063 3:-0.645689 
1 1:-0.734594 2:-0.580777 3:-0.702324 
1 1:-0.720983 2:-0.614609 3:-0.70539 
1 1:-0.646881 2:-0.0931366 3:-0.623714 
-1 1:-0.649905 2:-0.139798 3:-0.645047 
1 1:-0.611342 2:-0.186233 3:-0.575384 
-1 1:-0.66276 2:-0.247671 3:-0.640414 
1 1:-0.630246 2:-0.325883 3:-0.655738 
-1 1:-0.66276 2:-0.367817 3:-0.67474 
1 1:-0.71569 2:-0.486671 3:-0.71151 
1 1:-0.820794 2:-0.619538 3:-0.82765 
-1 1:-0.838941 2:-0.644812 3:-0.785212 
-1 1:-0.82155 2:-0.758236 3:-0.822384 
-1 1:-0.893384 2:-0.774509 3:-0.872868 
1 1:-0.100945 2:0.480627 3:-0.195335 
1 1:-0.181853 2:0.519767 3:-0.252106 
1 1:-0.125142 2:0.440792 3:-0.245831 
1 1:-0.121361 2:0.380759 3:-0.20669 
1 1:-0.0245747 2:0.388726 3:-0.157008 
1 1:-0.0283554 2:0.307679 3:-0.230025 
-1 1:-0.268809 2:0.191196 3:-0.270898 
-1 1:-0.134216 2:0.177824 3:-0.164622 
-1 1:-0.150851 2:0.112613 3:-0.140458 
-1 1:-0.463894 2:-0.00937606 3:-0.439856 
1 1:-0.311909 2:-0.0403332 3:-0.333756 
-1 1:-0.522873 2:-0.0882622 3:-0.451823 
-1 1:0.0215501 2:0.569718 3:-0.038232 
1 1:0.0548204 2:0.613123 3:-0.0077955 
-1 1:-0.0177694 2:0.5278 3:-0.0358863 
1 1:0.101701 2:0.472742 3:0.177142 
1 1:0.0336484 2:0.489916 3:-0.0294463 
1 1:0.134972 2:0.401387 3:0.123325 
1 1:-0.236295 2:0.12328 3:-0.315671 
1 1:-0.194707 2:0.102902 3:-0.317953 
1 1:-0.129679 2:0.0432125 3:-0.14665 
1 1:-0.479773 2:-0.0769382 3:-0.418972 
-1 1:-0.510019 2:-0.116034 3:-0.46002 
-1 1:-0.588658 2:-0.157889 3:-0.529815 
-1 1:-0.247637 2:0.435503 3:-0.266293 
-1 1:-0.209074 2:0.468528 3:-0.295021 
1 1:-0.122117 2:0.39585 3:-0.22229 
1 1:-0.00189036 2:0.328466 3:-0.129311 
1 1:-0.0586011 2:0.331127 3:-0.270195 
1 1:-0.153119 2:0.259646 3:-0.297426 
-1 1:-0.299811 2:0.138831 3:-0.342232 
-1 1:-0.187902 2:0.11956 3:-0.185615 
-1 1:-0.258979 2:0.0573001 3:-0.227287 
1 1:-0.51758 2:-0.0635117 3:-0.483895 
1 1:-0.404159 2:-0.102345 3:-0.454698 
1 1:-0.471456 2:-0.147507 3:-0.510966 
1 1:-0.241588 2:0.433453 3:-0.276548 
-1 1:-0.255198 2:0.460842 3:-0.311417 
-1 1:-0.121361 2:0.394213 3:-0.164357 
1 1:-0.105482 2:0.324203 3:-0.173929 
-1 1:-0.175047 2:0.331017 3:-0.289884 
1 1:-0.187902 2:0.258873 3:-0.267417 
1 1:-0.184877 2:0.196411 3:-0.272077 
-1 1:-0.222684 2:0.181669 3:-0.29867 
-1 1:-0.131191 2:0.114471 3:-0.243043 
1 1:-0.401134 2:-0.00852481 3:-0.505323 
1 1:-0.410964 2:-0.0419976 3:-0.427281 
1 1:-0.376938 2:-0.0935878 3:-0.412513 
-1 1:-0.174291 2:0.384081 3:-0.241192 
1 1:-0.0669187 2:0.416015 3:-0.133002 
-1 1:-0.133459 2:0.349354 3:-0.195374 
-1 1:-0.063138 2:0.284074 3:-0.0521672 
-1 1:-0.160681 2:0.287466 3:-0.223058 
-1 1:-0.25293 2:0.219443 3:-0.202058 
-1 1:-0.128922 2:0.188545 3:-0.23774 
-1 1:-0.148582 2:0.173988 3:-0.223813 
1 1:-0.0117202 2:0.107505 3:-0.0872682 
1 1:-0.341399 2:-0.0100868 3:-0.472363 
1 1:-0.301323 2:-0.0431728 3:-0.357522 
1 1:-0.353497 2:-0.0937482 3:-0.441545 
1 1:-0.293006 2:0.400164 3:-0.385183 
-1 1:-0.215879 2:0.430742 3:-0.28917 
1 1:-0.265784 2:0.365205 3:-0.316408 
-1 1:-0.384499 2:0.30681 3:-0.319828 
-1 1:-0.361815 2:0.314512 3:-0.368526 
-1 1:-0.355766 2:0.246573 3:-0.278832 
1 1:-0.316446 2:0.0836688 3:-0.356559 
-1 1:-0.333081 2:0.0630076 3:-0.340528 
1 1:-0.255198 2:0.0075463 3:-0.293414 
1 1:-0.445747 2:-0.0964407 3:-0.46971 
1 1:-0.48431 2:-0.137446 3:-0.489348 
1 1:-0.56673 2:-0.177456 3:-0.58557 
1 1:-0.310397 2:0.221352 3:-0.311183 
-1 1:-0.258223 2:0.234463 3:-0.337008 
1 1:-0.237807 2:0.188172 3:-0.30362 
-1 1:-0.208318 2:0.120829 3:-0.17887 
1 1:-0.240832 2:0.115646 3:-0.300942 
1 1:-0.288469 2:0.064044 3:-0.357983 
-1 1:-0.206049 2:0.174411 3:-0.145635 
-1 1:-0.178072 2:0.162682 3:-0.244204 
-1 1:-0.2862 2:0.099692 3:-0.289128 
-1 1:-0.45482 2:-0.000989259 3:-0.544339 
-1 1:-0.460113 2:-0.031348 3:-0.476481 
1 1:-0.557656 2:-0.0801614 3:-0.568202 
1 1:-0.100945 2:0.473156 3:-0.130895 
-1 1:-0.227221 2:0.511619 3:-0.261261 
-1 1:-0.131191 2:0.433486 3:-0.1726 
-1 1:-0.128166 2:0.373106 3:-0.0818933 
1 1:-0.0888469 2:0.380594 3:-0.107173 
-1 1:-0.204537 2:0.300555 3:-0.22238 
-1 1:-0.228129 2:0.143484 3:-0.231539 
-1 1:-0.123629 2:0.126219 3:-0.210878 
-1 1:-0.225459 2:0.0654853 3:-0.207734 
1 1:-0.544802 2:-0.0531034 3:-0.487691 
1 1:-0.409074 2:-0.0878043 3:-0.392534 
-1 1:-0.56856 2:-0.131672 3:-0.550148 
-1 1:-0.0979206 2:0.484015 3:-0.135483 
-1 1:-0.137996 2:0.519255 3:-0.184164 
1 1:-0.1138 2:0.442032 3:-0.0995435 
-1 1:-0.0729679 2:0.377684 3:-0.021537 
-1 1:-0.308885 2:0.387222 3:-0.201204 
-1 1:-0.433648 2:0.308086 3:-0.351973 
-1 1:-0.294518 2:0.169638 3:-0.272331 
1 1:-0.0608696 2:0.156758 3:-0.0172282 
-1 1:-0.161437 2:0.0946821 3:-0.216134 
1 1:-0.367108 2:-0.04912 3:-0.418964 
1 1:-0.533459 2:-0.0946093 3:-0.529767 
-1 1:-0.258223 2:0.266815 3:-0.326043 
-1 1:-0.242344 2:0.29277 3:-0.265138 
-1 1:-0.205293 2:0.197555 3:-0.262732 
-1 1:-0.187146 2:0.203611 3:-0.193168 
-1 1:-0.237807 2:0.154852 3:-0.186776 
-1 1:-0.338374 2:0.0263298 3:-0.39828 
1 1:-0.225709 2:0.00267356 3:-0.203237 
1 1:-0.265784 2:-0.0449067 3:-0.194272 
1 1:-0.451796 2:-0.147454 3:-0.463346 
1 1:-0.500945 2:-0.188277 3:-0.468249 
-1 1:-0.534972 2:-0.221367 3:-0.471644 
-1 1:-0.274102 2:0.295104 3:-0.354928 
-1 1:-0.257467 2:0.312747 3:-0.290882 
1 1:-0.162193 2:0.259281 3:-0.148555 
-1 1:-0.217391 2:0.190557 3:-0.275079 
1 1:-0.258979 2:0.189205 3:-0.240248 
-1 1:-0.337618 2:0.132517 3:-0.375702 
-1 1:-0.277127 2:0.0660952 3:-0.329295 
-1 1:-0.249905 2:0.0405943 3:-0.387738 
1 1:-0.057845 2:-0.0138174 3:-0.135157 
1 1:-0.500945 2:-0.128604 3:-0.439505 
1 1:-0.470699 2:-0.171889 3:-0.518302 
1 1:-0.38828 2:-0.21219 3:-0.398372 
1 1:-0.120605 2:0.391486 3:-0.220613 
-1 1:-0.134972 2:0.424131 3:-0.22965 
1 1:-0.0306238 2:0.356759 3:-0.0385277 
-1 1:-0.0306238 2:0.292162 3:0.000597938 
1 1:-0.063138 2:0.296208 3:-0.11908 
-1 1:-0.279395 2:0.227358 3:-0.274304 
-1 1:-0.436673 2:0.145854 3:-0.579871 
1 1:-0.39811 2:0.127699 3:-0.384928 
1 1:-0.358034 2:0.0653944 3:-0.306162 
-1 1:-0.808696 2:-0.0494753 3:-0.834443 
-1 1:-0.673346 2:-0.0857498 3:-0.839768 
-1 1:-0.646881 2:-0.132601 3:-0.648716 
-1 1:-0.951607 2:-0.594506 3:-0.972178 
-1 1:-0.915312 2:-0.653821 3:-0.920011 
-1 1:-0.90775 2:-0.622897 3:-0.893023 
1 1:-0.891115 2:-0.732652 3:-0.85438 
1 1:-0.885822 2:-0.807333 3:-0.843389 
-1 1:-0.932703 2:-0.766464 3:-0.93644 
-1 1:-0.944045 2:-0.839309 3:-0.921591 
-1 1:-0.949338 2:-0.924934 3:-0.897158 
-1 1:-0.988658 2:-0.882067 3:-0.971871 
-1 1:-0.955388 2:-0.889616 3:-0.943414 
-1 1:-0.967486 2:-0.989605 3:-0.965748 
-1 1:-0.946314 2:-0.939856 3:-0.926655 
1 1:-0.911531 2:-0.544199 3:-0.880764 
-1 1:-0.922117 2:-0.597705 3:-0.905267 
-1 1:-0.950851 2:-0.570756 3:-0.954301 
-1 1:-0.911531 2:-0.67165 3:-0.912899 
-1 1:-0.950851 2:-0.740424 3:-0.932957 
-1 1:-0.960681 2:-0.708936 3:-0.916681 
-1 1:-0.942533 2:-0.789196 3:-0.971258 
-1 1:-0.882798 2:-0.870595 3:-0.872079 
-1 1:-0.896408 2:-0.832524 3:-0.895345 
-1 1:-0.919093 2:-0.833803 3:-0.923303 
-1 1:-0.937996 2:-0.92592 3:-0.920332 
-1 1:-0.941777 2:-0.884208 3:-0.938204 
-1 1:-0.895652 2:-0.539111 3:-0.894575 
0.3098122370494221 1:-0.875236 2:-0.594211 3:-0.85088 
-1 1:-0.897164 2:-0.569415 3:-0.900602 
-1 1:-0.895652 2:-0.677077 3:-0.911339 
-1 1:-0.89414 2:-0.738343 3:-0.8804 
-1 1:-0.873724 2:-0.69268 3:-0.845866 
-1 1:-0.934216 2:-0.781671 3:-0.924425 
-1 1:-0.916824 2:-0.864909 3:-0.888535 
-1 1:-0.925898 2:-0.831798 3:-0.932558 
-1 1:-0.948582 2:-0.838016 3:-0.942316 
-1 1:-0.947826 2:-0.930567 3:-0.928716 
-1 1:-0.944802 2:-0.892967 3:-0.921894 
1 1:-0.844234 2:-0.538652 3:-0.833207 
-1 1:-0.850284 2:-0.594006 3:-0.854696 
1 1:-0.857089 2:-0.569037 3:-0.834336 
1 1:-0.848015 2:-0.682021 3:-0.839136 
-1 1:-0.85104 2:-0.743358 3:-0.868246 
-1 1:-0.838185 2:-0.708708 3:-0.808993 
-1 1:-0.92741 2:-0.794153 3:-0.923384 
-1 1:-0.89414 2:-0.885567 3:-0.871954 
-1 1:-0.913043 2:-0.845284 3:-0.885635 
-1 1:-0.914556 2:-0.862502 3:-0.911124 
-1 1:-0.922117 2:-0.961813 3:-0.92314 
-1 1:-0.933459 2:-0.912168 3:-0.907928 
-1 1:-0.89414 2:-0.549834 3:-0.885791 
-1 1:-0.845747 2:-0.606467 3:-0.843594 
1 1:-0.846503 2:-0.580905 3:-0.844674 
-1 1:-0.852552 2:-0.693968 3:-0.914801 
1 1:-0.820794 2:-0.769553 3:-0.809522 
1 1:-0.817013 2:-0.727816 3:-0.816584 
-1 1:-0.933459 2:-0.822005 3:-0.933451 
-1 1:-0.901701 2:-0.910349 3:-0.877247 
-1 1:-0.898677 2:-0.870858 3:-0.881194 
-1 1:-0.908507 2:-0.882995 3:-0.92053 
-1 1:-0.908507 2:-0.983656 3:-0.873049 
-1 1:-0.942533 2:-0.939068 3:-0.922818 
-1 1:-0.855577 2:-0.569574 3:-0.878797 
-1 1:-0.857089 2:-0.62767 3:-0.855706 
-1 1:-0.892628 2:-0.598611 3:-0.898345 
-1 1:-0.85104 2:-0.7153 3:-0.8999 
1 1:-0.82155 2:-0.788259 3:-0.823696 
-1 1:-0.844234 2:-0.749457 3:-0.829375 
-1 1:-0.920605 2:-0.844839 3:-0.912722 
-1 1:-0.902457 2:-0.937058 3:-0.878907 
-1 1:-0.887335 2:-0.89019 3:-0.87747 
-1 1:-0.914556 2:-0.90576 3:-0.904572 
-1 1:-0.929679 2:-1 3:-0.937967 
-1 1:-0.911531 2:-0.958397 3:-0.892665 
-1 1:-0.851796 2:0.139193 3:-0.840303 
-1 1:-0.872968 2:0.147745 3:-0.880158 
-1 1:-0.869187 2:0.105436 3:-0.868119 
-1 1:-0.857845 2:0.0207662 3:-0.862724 
-1 1:-0.814745 2:0.00370993 3:-0.809473 
-1 1:-0.829868 2:-0.0365778 3:-0.787397 
-1 1:-0.904726 2:-0.192694 3:-0.90411 
-1 1:-0.869943 2:-0.225544 3:-0.839229 
-1 1:-0.891115 2:-0.243436 3:-0.878626 
-1 1:-0.897921 2:-0.305101 3:-0.908183 
-1 1:-0.904726 2:-0.348264 3:-0.874396 
-1 1:-0.934216 2:-0.358164 3:-0.909476 
1 1:-0.30586 2:0.358147 3:-0.348849 
1 1:-0.215123 2:0.384808 3:-0.162756 
-1 1:-0.353497 2:0.323256 3:-0.345104 
1 1:-0.254442 2:0.260889 3:-0.200269 
-1 1:-0.302836 2:0.264649 3:-0.433401 
1 1:-0.133459 2:0.201211 3:-0.234931 
-1 1:-0.324764 2:0.0526125 3:-0.349502 
1 1:-0.231002 2:0.0294951 3:-0.303747 
1 1:-0.246881 2:-0.0228571 3:-0.310905 
1 1:-0.423062 2:-0.124598 3:-0.47639 
1 1:-0.481285 2:-0.167857 3:-0.489067 
1 1:-0.524386 2:-0.205054 3:-0.583063 
1 1:-0.134216 2:0.31837 3:-0.22417 
1 1:-0.110019 2:0.339965 3:-0.210829 
1 1:-0.258223 2:0.284587 3:-0.297432 
1 1:-0.0918715 2:0.22517 3:-0.0960767 
1 1:-0.364083 2:0.228983 3:-0.323184 
-1 1:-0.406427 2:0.16659 3:-0.344658 
1 1:-0.113043 2:0.150041 3:-0.17302 
1 1:-0.187146 2:0.136269 3:-0.276955 
1 1:-0.238563 2:0.075606 3:-0.298428 
-1 1:-0.564461 2:-0.0235331 3:-0.546975 
1 1:-0.459357 2:-0.0558456 3:-0.468425 
-1 1:-0.565217 2:-0.10252 3:-0.57044 
-1 1:-0.094896 2:0.565288 3:-0.169708 
-1 1:-0.165217 2:0.613073 3:-0.191898 
-1 1:-0.218147 2:0.526081 3:-0.217887 
1 1:-0.0215501 2:0.476048 3:-0.109042 
-1 1:-0.0971645 2:0.491652 3:-0.0785298 
-1 1:-0.203781 2:0.400478 3:-0.153149 
1 1:-0.228129 2:0.143484 3:-0.253982 
1 1:-0.123629 2:0.126219 3:-0.140269 
1 1:-0.225459 2:0.0654853 3:-0.242035 
-1 1:-0.544802 2:-0.0531034 3:-0.499227 
1 1:-0.409074 2:-0.0878043 3:-0.415378 
1 1:-0.56856 2:-0.131672 3:-0.476569 
1 1:-0.0646503 2:0.412098 3:-0.145724 
-1 1:-0.162949 2:0.44061 3:-0.217294 
1 1:-0.118336 2:0.370346 3:-0.114631 
-1 1:-0.0676749 2:0.299124 3:-0.0358654 
1 1:-0.204537 2:0.302567 3:-0.288347 
1 1:-0.202268 2:0.231405 3:-0.301551 
-1 1:-0.435161 2:0.15456 3:-0.354757 
-1 1:-0.289981 2:0.136806 3:-0.35863 
1 1:-0.26276 2:0.0739911 3:-0.219315 
-1 1:-0.482042 2:-0.0483051 3:-0.526527 
1 1:-0.401134 2:-0.084963 3:-0.454449 
1 1:-0.569754 2:-0.129737 3:-0.549523 
1 1:-0.181096 2:0.450263 3:-0.273446 
-1 1:-0.199244 2:0.484693 3:-0.200406 
-1 1:-0.187146 2:0.41061 3:-0.216491 
1 1:-0.0933837 2:0.344638 3:-0.202021 
-1 1:-0.111531 2:0.34861 3:-0.242568 
-1 1:-0.192439 2:0.275497 3:-0.236251 
-1 1:-0.236295 2:0.206218 3:-0.338891 
1 1:-0.0275992 2:0.192459 3:-0.174785 
1 1:-0.0298677 2:0.123644 3:-0.172428 
-1 1:-0.636295 2:-0.00169505 3:-0.476513 
1 1:-0.410208 2:-0.035229 3:-0.408815 
-1 1:-0.470699 2:-0.0863928 3:-0.465287 
-1 1:-0.204537 2:0.451933 3:-0.256823 
1 1:-0.10775 2:0.412643 3:-0.158604 
1 1:-0.122117 2:0.344347 3:-0.178666 
-1 1:-0.23327 2:0.352874 3:-0.252881 
1 1:-0.165217 2:0.278724 3:-0.241973 
1 1:-0.178828 2:0.140656 3:-0.212822 
-1 1:-0.281664 2:0.121302 3:-0.321191 
1 1:-0.157656 2:0.0596406 3:-0.152555 
-1 1:-0.584121 2:-0.0597712 3:-0.526582 
1 1:-0.472212 2:-0.0974126 3:-0.476274 
1 1:-0.444991 2:-0.144148 3:-0.454974 
-1 1:-0.203025 2:0.48028 3:-0.247538 
-1 1:-0.167486 2:0.521685 3:-0.26588 
-1 1:-0.140265 2:0.445751 3:-0.209051 
-1 1:-0.0691871 2:0.390032 3:-0.103958 
-1 1:-0.148582 2:0.402147 3:-0.217975 
1 1:-0.03138 2:0.323425 3:0.0623095 
1 1:-0.100945 2:0.192378 3:-0.185108 
1 1:-0.0593573 2:0.178147 3:-0.141403 
1 1:-0.000378072 2:0.111292 3:-0.0995449 
1 1:-0.362571 2:-0.00653638 3:-0.473126 
1 1:-0.361815 2:-0.0393298 3:-0.43774 
1 1:-0.434405 2:-0.0902374 3:-0.477519 
-1 1:-0.327788 2:0.278321 3:-0.43239 
-1 1:-0.218147 2:0.297676 3:-0.262093 
1 1:-0.144045 2:0.243749 3:-0.157469 
-1 1:-0.184121 2:0.174325 3:-0.216062 
1 1:-0.224197 2:0.170824 3:-0.338746 
-1 1:-0.123629 2:0.116014 3:-0.132483 
-1 1:-0.341399 2:0.0952457 3:-0.352991 
-1 1:-0.320227 2:0.0755101 3:-0.301975 
-1 1:-0.296786 2:0.0188984 3:-0.291445 
-1 1:-0.462382 2:-0.0859052 3:-0.506285 
1 1:-0.509263 2:-0.126056 3:-0.490342 
1 1:-0.560681 2:-0.16711 3:-0.550052 
-1 1:-0.547826 2:0.1285 3:-0.634415 
1 1:-0.472212 2:0.133662 3:-0.53052 
-1 1:-0.40794 2:0.0962143 3:-0.531112 
1 1:-0.275614 2:0.0222934 3:-0.300416 
1 1:-0.202268 2:0.00888184 3:-0.270987 
-1 1:-0.202268 2:-0.0322637 3:-0.213173 
-1 1:-0.175047 2:0.121725 3:-0.29413 
1 1:-0.0510397 2:0.105611 3:-0.186852 
-1 1:-0.175047 2:0.0476819 3:-0.218068 
1 1:-0.488847 2:-0.0495861 3:-0.431411 
-1 1:-0.444234 2:-0.0841233 3:-0.332975 
-1 1:-0.546314 2:-0.128289 3:-0.494289 
-1 1:0.00113422 2:0.5178 3:-0.0461796 
1 1:0.0480151 2:0.560743 3:-0.101751 
1 1:-0.0336484 2:0.47828 3:-0.0815278 
1 1:0.131947 2:0.422693 3:-0.00887397 
-1 1:-0.0691871 2:0.434032 3:-0.0194463 
-1 1:-0.106994 2:0.348577 3:-0.0919204 
1 1:-0.186389 2:0.147198 3:-0.25371 
1 1:-0.0835539 2:0.130234 3:-0.197722 
1 1:-0.0671682 2:0.0691481 3:-0.19277 
-1 1:-0.617013 2:-0.049715 3:-0.500385 
1 1:-0.408696 2:-0.0841283 3:-0.426245 
-1 1:-0.61941 2:-0.128315 3:-0.539145 
1 1:-0.0775047 2:0.438561 3:-0.120899 
1 1:-0.122117 2:0.41785 3:-0.194267 
-1 1:-0.249149 2:0.313554 3:-0.291036 
-1 1:-0.343667 2:0.307043 3:-0.304831 
-1 1:-0.453308 2:0.266078 3:-0.400249 
-1 1:-0.475236 2:0.151196 3:-0.490733 
-1 1:-0.382231 2:0.0864143 3:-0.376731 
-1 1:-0.408696 2:0.00865539 3:-0.434875 
-1 1:-0.558412 2:-0.0976159 3:-0.571891 
-1 1:-0.572779 2:-0.155325 3:-0.529299 
-1 1:-0.60983 2:-0.254598 3:-0.589106 
1 1:-0.655955 2:-0.335911 3:-0.618352 
-1 1:-0.163705 2:0.440412 3:-0.227449 
-1 1:-0.179584 2:0.405718 3:-0.215196 
-1 1:-0.175047 2:0.307648 3:-0.147078 
-1 1:-0.196975 2:0.294431 3:-0.262237 
1 1:-0.320983 2:0.251568 3:-0.357583 
1 1:-0.389792 2:0.136638 3:-0.415687 
-1 1:-0.353497 2:-0.0768671 3:-0.417226 
1 1:-0.40794 2:-0.169449 3:-0.488055 
1 1:-0.429112 2:-0.254863 3:-0.464215 
1 1:-0.503214 2:-0.312392 3:-0.536455 
1 1:-0.562949 2:-0.426263 3:-0.542214 
1 1:-0.645369 2:-0.490209 3:-0.641396 
-1 1:-0.568242 2:0.190517 3:-0.732927 
-1 1:-0.589414 2:0.150381 3:-0.748925 
-1 1:-0.417013 2:0.0781977 3:-0.503164 
-1 1:-0.256711 2:0.0360902 3:-0.205146 
1 1:-0.305104 2:-0.0343133 3:-0.341568 
1 1:-0.385255 2:-0.118575 3:-0.471452 
1 1:-0.357278 2:0.0753151 3:-0.420874 
-1 1:-0.374669 2:-0.00125868 3:-0.454706 
1 1:-0.404159 2:-0.103388 3:-0.416474 
-1 1:-0.556144 2:-0.166882 3:-0.516753 
1 1:-0.519849 2:-0.266111 3:-0.533752 
-1 1:-0.596219 2:-0.342969 3:-0.601858 
-1 1:-0.207561 2:0.452643 3:-0.188677 
1 1:-0.196975 2:0.442825 3:-0.254418 
-1 1:-0.206805 2:0.338894 3:-0.278617 
-1 1:-0.29603 2:0.332838 3:-0.254968 
-1 1:-0.394329 2:0.289802 3:-0.422314 
-1 1:-0.478261 2:0.185077 3:-0.50748 
-1 1:-0.470699 2:0.0842308 3:-0.492107 
1 1:-0.455577 2:0.00340249 3:-0.47627 
-1 1:-0.496408 2:-0.0981978 3:-0.450614 
1 1:-0.391304 2:-0.166537 3:-0.400436 
-1 1:-0.519849 2:-0.266878 3:-0.514023 
1 1:-0.603025 2:-0.349744 3:-0.591586 
-1 1:-0.161437 2:0.453767 3:-0.195563 
-1 1:-0.217391 2:0.445536 3:-0.261181 
1 1:-0.152363 2:0.343651 3:-0.180588 
-1 1:-0.324764 2:0.337298 3:-0.272511 
-1 1:-0.324764 2:0.298258 3:-0.303299 
-1 1:-0.417013 2:0.188633 3:-0.447641 
1 1:-0.329301 2:0.154405 3:-0.390995 
1 1:-0.324008 2:0.086606 3:-0.41734 
0.6901877629505779 1:-0.305104 2:-0.0210703 3:-0.325181 
1 1:-0.413233 2:-0.0986325 3:-0.466697 
1 1:-0.463894 2:-0.186324 3:-0.522238 
1 1:-0.413989 2:-0.275253 3:-0.60772 
-1 1:-0.39811 2:0.33294 3:-0.434885 
-1 1:-0.276371 2:0.304373 3:-0.374047 
-1 1:-0.355766 2:0.22173 3:-0.323407 
-1 1:-0.308885 2:0.197365 3:-0.329525 
1 1:-0.251418 2:0.151094 3:-0.402311 
-1 1:-0.457089 2:0.028905 3:-0.432563 
1 1:-0.377694 2:-0.0423679 3:-0.395717 
1 1:-0.436673 2:-0.134411 3:-0.500907 
-1 1:-0.748204 2:-0.194717 3:-0.584406 
-1 1:-0.929679 2:-0.35818 3:-0.693831 
-1 1:-0.481285 2:0.209904 3:-0.461797 
-1 1:-0.442722 2:0.191271 3:-0.479928 
1 1:-0.377694 2:0.116555 3:-0.340515 
-1 1:-0.405671 2:0.0789018 3:-0.494888 
1 1:-0.232514 2:0.0486919 3:-0.308622 
1 1:-0.417769 2:-0.042358 3:-0.371845 
1 1:-0.479773 2:-0.122077 3:-0.431912 
-1 1:-0.569754 2:-0.200091 3:-0.567995 
1 1:-0.528166 2:-0.252025 3:-0.580812 
1 1:-0.572023 2:-0.340593 3:-0.522356 
-1 1:-0.698299 2:-0.404921 3:-0.641231 
-1 1:-0.0979206 2:0.557189 3:-0.121219 
1 1:-0.0510397 2:0.54661 3:-0.119701 
1 1:-0.106238 2:0.431685 3:-0.171281 
-1 1:-0.0291115 2:0.438875 3:-0.158693 
1 1:-0.165217 2:0.40785 3:-0.269273 
-1 1:-0.358034 2:0.279572 3:-0.433297 
-1 1:-0.488091 2:-0.0344488 3:-0.447757 
-1 1:-0.490359 2:-0.120981 3:-0.506867 
-1 1:-0.519849 2:-0.214605 3:-0.508128 
1 1:-0.557656 2:-0.264269 3:-0.582267 
1 1:-0.615879 2:-0.371562 3:-0.627839 
1 1:-0.630246 2:-0.441362 3:-0.654104 
1 1:-0.0540643 2:0.48947 3:-0.123667 
1 1:-0.144802 2:0.458114 3:-0.22375 
1 1:-0.128922 2:0.35585 3:-0.0905037 
1 1:-0.187146 2:0.348015 3:-0.252148 
-1 1:-0.288469 2:0.309413 3:-0.372107 
1 1:-0.345936 2:0.18894 3:-0.372208 
1 1:-0.370132 2:-0.0131678 3:-0.420068 
-1 1:-0.708885 2:-0.0910953 3:-0.678607 
-1 1:-0.529679 2:-0.175482 3:-0.502851 
-1 1:-0.641588 2:-0.23521 3:-0.558476 
1 1:-0.533459 2:-0.333025 3:-0.509454 
1 1:-0.573535 2:-0.396964 3:-0.595754 
-1 1:-0.756522 2:0.0638407 3:-0.766876 
-1 1:-0.729301 2:0.0414108 3:-0.693471 
-1 1:-0.734594 2:-0.000584299 3:-0.739752 
-1 1:-0.727032 2:-0.0366472 3:-0.757094 
-1 1:-0.743667 2:-0.0778589 3:-0.846675 
-1 1:-0.779962 2:-0.126667 3:-0.88846 
-1 1:-0.555388 2:-0.056963 3:-0.611941 
1 1:-0.482798 2:-0.130679 3:-0.467614 
1 1:-0.516068 2:-0.207986 3:-0.488639 
-1 1:-0.618904 2:-0.262479 3:-0.661866 
1 1:-0.620416 2:-0.355329 3:-0.638324 
1 1:-0.624197 2:-0.411542 3:-0.622598 
-1 1:-0.22344 2:0.317162 3:-0.214881 
-1 1:-0.238563 2:0.304109 3:-0.282758 
-1 1:-0.175047 2:0.219269 3:-0.17127 
-1 1:-0.154631 2:0.202985 3:-0.174666 
1 1:-0.405671 2:0.0770192 3:-0.4282 
-1 1:-0.435161 2:0.0328207 3:-0.407485 
-1 1:-0.439698 2:-0.0518224 3:-0.45883 
-1 1:-0.466919 2:-0.148166 3:-0.462119 
1 1:-0.485822 2:-0.214195 3:-0.562458 
1 1:-0.510775 2:-0.318084 3:-0.534682 
1 1:-0.586389 2:-0.395979 3:-0.593304 
-1 1:-0.162949 2:0.45818 3:-0.195477 
-1 1:-0.206805 2:0.450329 3:-0.29636 
-1 1:-0.16673 2:0.348031 3:-0.200259 
-1 1:-0.31569 2:0.342177 3:-0.295133 
-1 1:-0.266541 2:0.303524 3:-0.339652 
-1 1:-0.435917 2:0.193396 3:-0.422773 
1 1:-0.131947 2:0.306316 3:-0.0651787 
1 1:-0.1138 2:0.251231 3:-0.082742 
-1 1:-0.256711 2:0.129193 3:-0.544073 
-1 1:-0.817769 2:0.0432175 3:-0.447812 
-1 1:-0.674102 2:-0.0323678 3:-0.599156 
-1 1:-0.75879 2:-0.134439 3:-0.593631 
-1 1:-0.921361 2:-0.31804 3:-0.907404 
-1 1:-0.916824 2:-0.379111 3:-0.910803 
-1 1:-0.939509 2:-0.388534 3:-0.914419 
-1 1:-0.925142 2:-0.452971 3:-0.927823 
-1 1:-0.924386 2:-0.52947 3:-0.917062 
-1 1:-0.953119 2:-0.524379 3:-0.923125 
-1 1:-0.931191 2:-0.612635 3:-0.924268 
-1 1:-0.950851 2:-0.707356 3:-0.933702 
-1 1:-0.972023 2:-0.711588 3:-0.977329 
-1 1:-0.96673 2:-0.715272 3:-0.952105 
-1 1:-0.972023 2:-0.820314 3:-0.959292 
-1 1:-0.98034 2:-0.816459 3:-0.968368 
-1 1:-0.901701 2:-0.117502 3:-0.910527 
-1 1:-0.892628 2:-0.150205 3:-0.862961 
-1 1:-0.924386 2:-0.194717 3:-0.863865 
-1 1:-0.940265 2:-0.221719 3:-0.98292 
-1 1:-0.953875 2:-0.25895 3:-0.908176 
-1 1:-0.940265 2:-0.598619 3:-0.921209 
-1 1:-0.949338 2:-0.700738 3:-0.9296 
-1 1:-0.978828 2:-0.700707 3:-0.966836 
-1 1:-0.990926 2:-0.702662 3:-1 
-1 1:-0.984877 2:-0.800633 3:-0.981939 
-1 1:-1 2:-0.799357 3:-0.984041 
-1 1:-0.959168 2:-0.325712 3:-0.945817 
-1 1:-0.962949 2:-0.388433 3:-0.937799 
-1 1:-0.962193 2:-0.401911 3:-0.959448 
-1 1:-0.972779 2:-0.593976 3:-0.9668 
-1 1:-0.965974 2:-0.694336 3:-0.94262 
-1 1:-0.978072 2:-0.708713 3:-0.965999 
-1 1:-0.978828 2:-0.70374 3:-0.975197 
-1 1:-0.968998 2:-0.817988 3:-0.931375 
-1 1:-0.989414 2:-0.819966 3:-0.971463 
-1 1:-0.985633 2:-0.340927 3:-0.97423 
-1 1:-0.964461 2:-0.411197 3:-0.937864 
-1 1:-0.956144 2:-0.421655 3:-0.94453 
-1 1:-0.947826 2:-0.484589 3:-0.934636 
-1 1:-0.952363 2:-0.55868 3:-0.933906 
-1 1:-0.937996 2:-0.569326 3:-0.929252 
-1 1:-0.885822 2:-0.606306 3:-0.878582 
-1 1:-0.909263 2:-0.711753 3:-0.884794 
-1 1:-0.947826 2:-0.717532 3:-0.934221 
-1 1:-0.959924 2:-0.726773 3:-0.963699 
-1 1:-0.950095 2:-0.846342 3:-0.941543 
-1 1:-0.958412 2:-0.843502 3:-0.946281 
-1 1:-0.93724 2:-0.379794 3:-0.929202 
-1 1:-0.920605 2:-0.447685 3:-0.88622 
-1 1:-0.944802 2:-0.455157 3:-0.930468 
-1 1:-0.968998 2:-0.528376 3:-0.968874 
-1 1:-0.923629 2:-0.619348 3:-0.901617 
-1 1:-0.938752 2:-0.62531 3:-0.934151 
1 1:-0.854064 2:-0.615445 3:-0.848713 
-1 1:-0.903214 2:-0.718743 3:-0.880292 
-1 1:-0.932703 2:-0.725404 3:-0.908327 
-1 1:-0.938752 2:-0.727765 3:-0.924093 
-1 1:-0.933459 2:-0.842251 3:-0.9175 
-1 1:-0.974291 2:-0.835864 3:-0.95636 
-1 1:-0.928922 2:-0.341121 3:-0.949928 
-1 1:-0.928922 2:-0.40148 3:-0.944917 
-1 1:-0.886578 2:-0.413529 3:-0.863097 
-1 1:-0.886578 2:-0.473711 3:-0.883084 
-1 1:-0.929679 2:-0.553009 3:-0.917253 
-1 1:-0.924386 2:-0.543248 3:-0.923076 
-1 1:-0.898677 2:-0.62974 3:-0.877144 
-1 1:-0.935728 2:-0.73848 3:-0.907756 
-1 1:-0.942533 2:-0.741236 3:-0.92771 
-1 1:-0.928922 2:-0.74738 3:-0.912441 
-1 1:-0.956144 2:-0.864658 3:-0.960492 
-1 1:-0.956144 2:-0.864315 3:-0.948026 
-1 1:-0.948582 2:0.0172686 3:-0.948511 
-1 1:-0.937996 2:-0.0255166 3:-0.900252 
-1 1:-0.950095 2:-0.0839696 3:-0.935835 
-1 1:-0.941021 2:-0.134553 3:-0.918239 
-1 1:-0.9569 2:-0.206127 3:-0.959736 
-1 1:-0.943289 2:-0.263044 3:-0.942641 
-1 1:-0.944802 2:-0.266975 3:-0.953597 
-1 1:-0.932703 2:-0.333902 3:-0.898332 
-1 1:-0.944045 2:-0.370172 3:-0.932705 
-1 1:-0.958412 2:-0.407139 3:-0.934763 
-1 1:-0.96673 2:-0.485516 3:-0.957096 
-1 1:-0.972023 2:-0.512219 3:-0.953141 
1 1:-0.29225 2:0.39866 3:-0.248011 
-1 1:-0.278639 2:0.374643 3:-0.363238 
-1 1:-0.34518 2:0.286192 3:-0.330073 
-1 1:-0.353497 2:0.268858 3:-0.300388 
-1 1:-0.266541 2:0.228218 3:-0.30922 
-1 1:-0.381474 2:0.138183 3:-0.345662 
1 1:-0.547826 2:-0.127294 3:-0.557303 
1 1:-0.56673 2:-0.209724 3:-0.582392 
1 1:-0.612098 2:-0.284808 3:-0.53896 
1 1:-0.640832 2:-0.334357 3:-0.653721 
1 1:-0.62949 2:-0.435726 3:-0.621891 
-1 1:-0.713422 2:-0.492356 3:-0.679147 
1 1:-0.1138 2:0.368362 3:-0.18317 
1 1:-0.152363 2:0.363304 3:-0.236844 
-1 1:-0.147826 2:0.272876 3:-0.206538 
1 1:-0.0994329 2:0.25074 3:-0.139132 
1 1:-0.344423 2:0.235469 3:-0.355324 
1 1:-0.38828 2:0.134958 3:-0.480048 
-1 1:-0.432136 2:-0.05132 3:-0.490506 
1 1:-0.436673 2:-0.131671 3:-0.566833 
1 1:-0.478261 2:-0.208715 3:-0.485246 
1 1:-0.550095 2:-0.26003 3:-0.587165 
-1 1:-0.63327 2:-0.349172 3:-0.605259 
1 1:-0.643856 2:-0.412604 3:-0.599794 
1 1:-0.0495274 2:0.513338 3:-0.147284 
-1 1:-0.0964083 2:0.498924 3:-0.18266 
-1 1:-0.159168 2:0.387883 3:-0.138394 
1 1:-0.11758 2:0.390081 3:-0.168606 
-1 1:-0.31569 2:0.355304 3:-0.311128 
1 1:-0.313422 2:0.231919 3:-0.470346 
1 1:-0.438941 2:0.00290331 3:-0.420526 
1 1:-0.508507 2:-0.0810159 3:-0.575494 
1 1:-0.595463 2:-0.178638 3:-0.608672 
1 1:-0.531191 2:-0.230838 3:-0.586841 
-1 1:-0.543289 2:-0.335772 3:-0.601699 
-1 1:-0.658979 2:-0.409194 3:-0.636006 
-1 1:-0.0933837 2:0.485073 3:-0.10689 
-1 1:-0.209074 2:0.453404 3:-0.204039 
-1 1:-0.213611 2:0.343197 3:-0.189137 
-1 1:-0.324008 2:0.3042 3:-0.317089 
-1 1:-0.400378 2:0.184219 3:-0.436393 
1 1:-0.322495 2:-0.0280621 3:-0.406693 
-1 1:-0.465406 2:-0.117309 3:-0.501624 
1 1:-0.465406 2:-0.208079 3:-0.461339 
-1 1:-0.589414 2:-0.268968 3:-0.560064 
1 1:-0.597732 2:-0.379967 3:-0.535446 
1 1:-0.63327 2:-0.448772 3:-0.616199 
1 1:-0.0638941 2:0.531354 3:-0.127452 
1 1:-0.0933837 2:0.51661 3:-0.175937 
-1 1:-0.131191 2:0.416544 3:-0.178509 
-1 1:-0.182609 2:0.411569 3:-0.202108 
-1 1:-0.192439 2:0.36899 3:-0.234503 
-1 1:-0.331569 2:0.246025 3:-0.407928 
1 1:-0.38828 2:-0.0080306 3:-0.466753 
1 1:-0.39811 2:-0.0911382 3:-0.53177 
1 1:-0.453308 2:-0.184517 3:-0.430244 
1 1:-0.555388 2:-0.242757 3:-0.578671 
1 1:-0.535728 2:-0.347706 3:-0.535017 
1 1:-0.612854 2:-0.416802 3:-0.613401 
-1 1:-0.14707 2:0.640512 3:-0.18668 
-1 1:-0.0782609 2:0.64833 3:-0.155509 
-1 1:-0.0986767 2:0.52785 3:-0.124953 
1 1:-0.057845 2:0.544759 3:-0.111216 
-1 1:-0.115312 2:0.519701 3:-0.281872 
-1 1:-0.202268 2:0.393403 3:-0.415204 
-1 1:-0.416257 2:-0.0256901 3:-0.413527 
1 1:-0.40794 2:-0.114586 3:-0.447867 
1 1:-0.435161 2:-0.20459 3:-0.454678 
1 1:-0.509263 2:-0.265638 3:-0.584755 
1 1:-0.513043 2:-0.373223 3:-0.512681 
1 1:-0.627221 2:-0.445389 3:-0.581645 
-1 1:-0.165974 2:0.475668 3:-0.211096 
1 1:-0.168998 2:0.469371 3:-0.132874 
1 1:0.0155009 2:0.36547 3:-0.0298096 
-1 1:-0.220416 2:0.361585 3:-0.207072 
1 1:-0.201512 2:0.324488 3:-0.216525 
-1 1:-0.44121 2:0.212367 3:-0.451029 
-1 1:-0.417769 2:0.0429695 3:-0.37336 
1 1:-0.361815 2:-0.0332736 3:-0.374244 
-1 1:-0.422306 2:-0.129623 3:-0.389759 
1 1:-0.455577 2:-0.20039 3:-0.507809 
1 1:-0.386767 2:-0.295892 3:-0.481623 
1 1:-0.50397 2:-0.37456 3:-0.643154 
-1 1:-0.248393 2:0.328886 3:-0.277731 
-1 1:-0.146314 2:0.300063 3:-0.159635 
-1 1:-0.250662 2:0.217798 3:-0.234034 
-1 1:-0.183365 2:0.192876 3:-0.187032 
1 1:-0.142533 2:0.146277 3:-0.175305 
-1 1:-0.293006 2:0.0637035 3:-0.339576 
-1 1:-0.46465 2:0.0383381 3:-0.45865 
1 1:-0.40189 2:-0.0322191 3:-0.424031 
-1 1:-0.511531 2:-0.125247 3:-0.522487 
-1 1:-0.69603 2:-0.186176 3:-0.595865 
-1 1:-0.671834 2:-0.27704 3:-0.581821 
1 1:-0.822306 2:-0.349888 3:-0.679634 
-1 1:-0.38828 2:0.192839 3:-0.43205 
-1 1:-0.331569 2:0.172803 3:-0.303345 
1 1:-0.314178 2:0.0998308 3:-0.303661 
-1 1:-0.2862 2:0.0605977 3:-0.295808 
1 1:-0.240832 2:0.0288587 3:-0.275248 
-1 1:-0.307372 2:-0.0512191 3:-0.401319 
1 1:-0.402647 2:-0.055801 3:-0.425762 
-1 1:-0.477505 2:-0.136464 3:-0.502323 
1 1:-0.479773 2:-0.213024 3:-0.487536 
-1 1:-0.628733 2:-0.264028 3:-0.567751 
1 1:-0.625709 2:-0.353455 3:-0.540739 
-1 1:-0.760302 2:-0.416437 3:-0.733059 
1 1:-0.0381853 2:0.529486 3:-0.127332 
1 1:-0.057845 2:0.516462 3:-0.142032 
-1 1:-0.197732 2:0.403982 3:-0.233113 
-1 1:-0.155388 2:0.408015 3:-0.185414 
-1 1:-0.231002 2:0.374593 3:-0.275143 
-1 1:-0.254442 2:0.249393 3:-0.430662 
1 1:-0.417013 2:-0.0391199 3:-0.389869 
1 1:-0.444991 2:-0.125973 3:-0.478862 
-1 1:-0.531947 2:-0.219091 3:-0.524107 
1 1:-0.57051 2:-0.268435 3:-0.578351 
1 1:-0.621172 2:-0.376017 3:-0.616584 
1 1:-0.624953 2:-0.445357 3:-0.728482 
1 1:0.100945 2:0.910182 3:0.210019 
1 1:0.163705 2:0.954711 3:0.104478 
-1 1:0.0787675 2:0.799752 3:0.0327749 
1 1:0.19231 2:0.812776 3:0.0323159 
1 1:0.0816635 2:0.792016 3:-0.0319177 
1 1:0.0719093 2:0.624759 3:-0.113398 
-1 1:-0.165974 2:0.458296 3:-0.164751 
1 1:-0.144045 2:0.412759 3:-0.196504 
-1 1:-0.265784 2:0.277982 3:-0.315766 
1 1:-0.385255 2:0.197783 3:-0.393265 
-1 1:-0.528166 2:0.13036 3:-0.449715 
1 1:-0.541777 2:0.0189827 3:-0.588561 
-1 1:0.148582 2:0.884793 3:0.185952 
1 1:0.267297 2:0.910958 3:0.0207197 
1 1:0.230246 2:0.787173 3:0.182753 
1 1:0.126654 2:0.802611 3:0.0427243 
1 1:0.0283554 2:0.78119 3:-0.0679581 
1 1:-0.0548204 2:0.613454 3:-0.0272261 
1 1:-0.119849 2:0.503238 3:-0.123699 
1 1:-0.13724 2:0.461949 3:-0.299918 
-1 1:-0.247637 2:0.320531 3:-0.324494 
-1 1:-0.333837 2:0.234117 3:-0.369297 
1 1:-0.341399 2:0.166481 3:-0.33034 
-1 1:0.13724 2:0.949487 3:0.02336 
1 1:0.19206 2:0.993405 3:0.0548332 
-1 1:0.0608696 2:0.85276 3:0.0709388 
1 1:0.0389414 2:0.869752 3:0.0142703 
-1 1:-0.0858223 2:0.85714 3:-0.124403 
1 1:-0.0741021 2:0.675735 3:-0.142552 
-1 1:-0.118336 2:0.526594 3:-0.139825 
1 1:-0.150851 2:0.482858 3:-0.216817 
-1 1:-0.255198 2:0.342213 3:-0.329899 
1 1:-0.361059 2:0.250555 3:-0.412322 
-1 1:-0.489603 2:0.184347 3:-0.425458 
-1 1:-0.599244 2:0.0693514 3:-0.514709 
1 1:0.21966 2:0.880413 3:0.232648 
1 1:0.199244 2:0.914198 3:0.0895946 
1 1:0.198488 2:0.793652 3:0.201765 
1 1:0.12741 2:0.806677 3:-0.0148586 
1 1:0.03138 2:0.791421 3:-0.123015 
-1 1:-0.187146 2:0.625983 3:-0.282094 
1 1:-0.0941399 2:0.605999 3:-0.121928 
1 1:-0.116068 2:0.573156 3:-0.214357 
1 1:-0.138752 2:0.423139 3:-0.273168 
-1 1:-0.340643 2:0.325117 3:-0.367615 
1 1:-0.384499 2:0.270884 3:-0.578472 
-1 1:-0.522873 2:0.148342 3:-0.497643 
1 1:0.197921 2:0.907702 3:0.130419 
-1 1:0.158306 2:0.971884 3:0.100515 
1 1:0.145452 2:0.826049 3:0.0193964 
1 1:0.253875 2:0.845752 3:0.281064 
1 1:0.0833043 2:0.837157 3:0.0664858 
1 1:-0.0142382 2:0.665107 3:-0.0886628 
-1 1:-0.0162571 2:0.576908 3:0.0206073 
1 1:-0.17051 2:0.548429 3:-0.31859 
1 1:-0.0623819 2:0.40742 3:-0.163864 
-1 1:-0.240076 2:0.311638 3:-0.279463 
1 1:-0.144802 2:0.267259 3:-0.208134 
1 1:-0.40794 2:0.151181 3:-0.543366 
-1 1:-0.0487713 2:0.707784 3:-0.24634 
-1 1:-0.0185255 2:0.752032 3:-0.226127 
1 1:-0.0782609 2:0.625668 3:-0.199432 
-1 1:-0.128166 2:0.628991 3:-0.195538 
1 1:-0.159168 2:0.613272 3:-0.266567 
1 1:-0.073724 2:0.475784 3:-0.151131 
1 1:0.110775 2:0.58033 3:0.140775 
1 1:-0.0344045 2:0.553172 3:-0.222243 
1 1:-0.264272 2:0.318193 3:-0.381287 
1 1:-0.269565 2:0.271015 3:-0.264101 
1 1:-0.330813 2:0.155945 3:-0.390604 
1 1:-0.171267 2:0.585371 3:-0.20851 
-1 1:-0.230246 2:0.606528 3:-0.262126 
-1 1:-0.200756 2:0.511057 3:-0.205467 
-1 1:-0.201512 2:0.50585 3:-0.186334 
1 1:-0.126654 2:0.492263 3:-0.223826 
1 1:-0.208318 2:0.369965 3:-0.353002 
-1 1:-0.0850662 2:0.498643 3:-0.0528412 
-1 1:-0.187902 2:0.471966 3:-0.19714 
1 1:-0.215123 2:0.345076 3:-0.331265 
-1 1:-0.309641 2:0.255565 3:-0.278892 
-1 1:-0.367108 2:0.208107 3:-0.405654 
1 1:-0.438185 2:0.101867 3:-0.537515 
1 1:0.177127 2:0.903834 3:0.199497 
1 1:0.200756 2:0.947735 3:0.193866 
1 1:0.183614 2:0.793454 3:0.17916 
-1 1:0.0543138 2:0.806512 3:0.0432542 
1 1:0.0962798 2:0.785371 3:0.0352465 
-1 1:-0.133762 2:0.618842 3:-0.118989 
-1 1:-0.184877 2:0.487586 3:-0.218356 
-1 1:-0.240076 2:0.347023 3:-0.288231 
1 1:-0.356522 2:0.201046 3:-0.481657 
-1 1:-0.512287 2:0.0842143 3:-0.497628 
1 1:0.269565 2:0.903868 3:0.233163 
-1 1:0.13724 2:0.931917 3:0.0421568 
1 1:0.266541 2:0.806429 3:0.203529 
1 1:0.0775047 2:0.823537 3:0.0447653 
-1 1:-0.0298677 2:0.803338 3:-0.0400676 
-1 1:-0.0775047 2:0.633388 3:0.00371297 
1 1:-0.00113422 2:0.516991 3:-0.0409255 
1 1:0.00415879 2:0.488792 3:-0.0390446 
-1 1:-0.205293 2:0.35299 3:-0.287551 
1 1:-0.391304 2:0.270696 3:-0.400968 
-1 1:-0.429868 2:0.219454 3:-0.383737 
-1 1:-0.450284 2:0.112399 3:-0.415106 
1 1:0.0238185 2:0.519784 3:0.00870221 
1 1:0.089603 2:0.547767 3:0.000958642 
1 1:0.106238 2:0.465205 3:0.0928026 
1 1:0.0638941 2:0.466461 3:0.00777989 
1 1:-0.0396975 2:0.460015 3:-0.164236 
1 1:-0.063138 2:0.353155 3:-0.203117 
-1 1:-0.149338 2:0.446329 3:-0.155363 
-1 1:-0.163705 2:0.410032 3:-0.123333 
1 1:-0.0782609 2:0.287889 3:-0.210688 
-1 1:-0.417769 2:0.203258 3:-0.368269 
1 1:-0.612854 2:0.146975 3:-0.461922 
1 1:-0.622684 2:0.0475034 3:-0.504116 
1 1:0.0865784 2:0.687536 3:0.0934435 
1 1:0.0714556 2:0.711917 3:0.034655 
1 1:0.132703 2:0.612082 3:0.0175531 
-1 1:-0.0517958 2:0.615569 3:-0.0451046 
-1 1:-0.131191 2:0.599024 3:-0.212629 
-1 1:-0.171267 2:0.463255 3:-0.251713 
-1 1:-0.199244 2:0.517437 3:-0.19809 
-1 1:-0.190926 2:0.476957 3:-0.231099 
-1 1:-0.324008 2:0.336438 3:-0.276924 
-1 1:-0.724764 2:0.240335 3:-0.4482 
-1 1:-0.900945 2:0.179451 3:-0.580303 
-1 1:-0.770888 2:0.0639878 3:-0.526353 
1 1:0.116824 2:0.851338 3:0.116321 
1 1:0.14707 2:0.909322 3:0.0830686 
-1 1:0.0181474 2:0.768859 3:0.0181621 
1 1:0.29225 2:0.783801 3:0.214853 
1 1:0.08431 2:0.77114 3:0.00552463 
-1 1:-0.165974 2:0.60666 3:-0.135773 
1 1:0.562193 2:0.732446 3:0.514613 
1 1:0.493384 2:0.720049 3:0.340338 
-1 1:0.363327 2:0.565834 3:-0.0524646 
1 1:0.0268431 2:0.460726 3:0.0432203 
1 1:-0.00113422 2:0.440263 3:-0.0138214 
-1 1:-0.0971645 2:0.31523 3:-0.14156 
-1 1:-0.118336 2:0.359188 3:-0.263912 
-1 1:0.03138 2:0.394775 3:-0.0504757 
1 1:0.0646503 2:0.323671 3:0.0410522 
1 1:0.168998 2:0.330139 3:0.158546 
1 1:0.196219 2:0.316845 3:0.137391 
-1 1:-0.063138 2:0.239072 3:-0.120805 
-1 1:-0.410964 2:0.0672357 3:-0.395719 
-1 1:-0.221172 2:0.0313596 3:-0.363929 
1 1:-0.316446 2:-0.0431993 3:-0.397249 
1 1:-0.353497 2:-0.087363 3:-0.429274 
-1 1:-0.518336 2:-0.150522 3:-0.494053 
1 1:-0.557278 2:-0.206092 3:-0.535233 
1 1:-0.0412098 2:0.178973 3:-0.0390912 
1 1:-0.0162571 2:0.180464 3:-0.113425 
1 1:0.0351607 2:0.142157 3:0.0179409 
1 1:0.181853 2:0.125348 3:0.288126 
1 1:0.187902 2:0.10728 3:0.0851722 
1 1:0.156144 2:0.0408737 3:0.00686239 
1 1:-0.301323 2:0.017591 3:-0.298633 
-1 1:-0.271078 2:-0.0210967 3:-0.276093 
1 1:-0.319471 2:-0.0883696 3:-0.298551 
1 1:-0.423819 2:-0.133279 3:-0.424983 
-1 1:-0.52741 2:-0.192317 3:-0.518402 
1 1:-0.551607 2:-0.244127 3:-0.531227 
-1 1:-0.0230624 2:0.294031 3:-0.0228282 
-1 1:0.0215501 2:0.307517 3:-0.0444284 
-1 1:0.0298677 2:0.237575 3:0.0192591 
1 1:0.375425 2:0.260461 3:0.370274 
-1 1:0.309641 2:0.237727 3:0.0367835 
1 1:0.44121 2:0.155715 3:0.374341 
-1 1:-0.253686 2:0.0464009 3:-0.353742 
-1 1:-0.266541 2:-0.00570001 3:-0.353969 
1 1:-0.307372 2:-0.0810258 3:-0.370125 
-1 1:-0.419282 2:-0.118323 3:-0.403158 
1 1:-0.426843 2:-0.191152 3:-0.449499 
1 1:-0.480529 2:-0.251112 3:-0.545248 
-1 1:-0.0563327 2:0.32016 3:-0.161554 
-1 1:0.0495274 2:0.318871 3:-0.0026061 
1 1:0.201512 2:0.279236 3:0.21968 
1 1:0.154631 2:0.282932 3:0.248464 
-1 1:0.200756 2:0.267835 3:0.0216525 
-1 1:0.0623819 2:0.183049 3:-0.260069 
-1 1:0.0124764 2:0.352329 3:-0.065687 
-1 1:-0.112287 2:0.32619 3:-0.354106 
1 1:-0.191682 2:0.232506 3:-0.249734 
1 1:-0.196219 2:0.161036 3:-0.249695 
-1 1:-0.317958 2:0.112302 3:-0.430737 
-1 1:-0.261248 2:0.0391811 3:-0.358787 
1 1:0.079017 2:0.363651 3:0.00985672 
1 1:0.104726 2:0.377503 3:0.106493 
1 1:0.194707 2:0.324102 3:0.136977 
-1 1:0.0888469 2:0.331102 3:0.165059 
1 1:0.158412 2:0.314335 3:0.124077 
-1 1:-0.141777 2:0.231385 3:-0.192542 
1 1:0.114556 2:0.377784 3:0.102542 
1 1:-0.113043 2:0.358957 3:-0.1384 
-1 1:-0.140265 2:0.255301 3:-0.235161 
-1 1:-0.188658 2:0.186353 3:-0.160506 
-1 1:-0.271078 2:0.139699 3:-0.25595 
1 1:-0.270321 2:0.0599811 3:-0.385832 
-1 1:-0.0275992 2:0.371932 3:-0.0595182 
1 1:0.020794 2:0.382197 3:-0.00487185 
-1 1:-0.0147448 2:0.338456 3:-0.0151288 
-1 1:0.0729679 2:0.349932 3:0.0894087 
1 1:0.220416 2:0.338064 3:0.145588 
1 1:0.0971645 2:0.248354 3:0.0686248 
-1 1:-0.224197 2:0.060758 3:-0.253144 
1 1:-0.240832 2:0.0115066 3:-0.292327 
-1 1:-0.215123 2:-0.0505976 3:-0.316088 
1 1:-0.37845 2:-0.118857 3:-0.375502 
1 1:-0.416257 2:-0.176329 3:-0.453352 
1 1:-0.547826 2:-0.235775 3:-0.517132 
1 1:0.0381853 2:0.799371 3:-0.00871514 
1 1:0.0495274 2:0.851851 3:-0.103919 
1 1:-0.0676749 2:0.716512 3:-0.0657409 
1 1:-0.0155009 2:0.711272 3:-0.0174163 
1 1:-0.0994329 2:0.5539 3:0.0220108 
1 1:-0.0132325 2:0.306344 3:-0.00962483 
-1 1:-0.184877 2:0.284782 3:-0.309869 
1 1:-0.0744802 2:0.194466 3:-0.109017 
1 1:-0.34896 2:0.12889 3:-0.359833 
-1 1:-0.334594 2:0.0939482 3:-0.331416 
1 1:-0.413989 2:0.019305 3:-0.559551 
1 1:0.0253308 2:0.858429 3:0.0584487 
1 1:0.063138 2:0.917967 3:-0.0169969 
1 1:0.0586011 2:0.776495 3:-0.019994 
1 1:0.113043 2:0.793223 3:0.0425214 
1 1:-0.0328922 2:0.79033 3:-0.0798373 
-1 1:-0.0739735 2:0.633867 3:-0.0483365 
-1 1:-0.265784 2:0.436511 3:-0.311786 
-1 1:-0.210586 2:0.398709 3:-0.267698 
-1 1:-0.255955 2:0.271861 3:-0.3094 
-1 1:-0.444991 2:0.185538 3:-0.426124 
-1 1:-0.536484 2:0.125051 3:-0.506033 
-1 1:-0.608318 2:0.0217067 3:-0.532075 
1 1:-0.0510397 2:0.6639 3:-0.0195589 
1 1:0.12741 2:0.692181 3:0.0342811 
1 1:0.0192817 2:0.589338 3:0.00526492 
1 1:-0.0827977 2:0.591553 3:-0.0529207 
-1 1:-0.10397 2:0.584015 3:-0.132765 
-1 1:-0.224197 2:0.452875 3:-0.290815 
1 1:-0.187146 2:0.472594 3:-0.213737 
-1 1:-0.228733 2:0.4438 3:-0.29101 
-1 1:-0.205293 2:0.318969 3:-0.381498 
1 1:-0.343667 2:0.231033 3:-0.43437 
-1 1:-0.413233 2:0.181251 3:-0.521865 
-1 1:-0.522873 2:0.077039 3:-0.541687 
1 1:0.177127 2:0.903834 3:0.164742 
1 1:0.200756 2:0.947735 3:0.0618688 
-1 1:0.183614 2:0.793454 3:0.0166678 
1 1:0.0543138 2:0.806512 3:0.107802 
1 1:0.0962798 2:0.785371 3:-0.0366825 
-1 1:-0.133762 2:0.618842 3:-0.162625 
-1 1:-0.139509 2:0.407205 3:-0.166542 
1 1:-0.139509 2:0.357519 3:-0.160494 
-1 1:-0.271834 2:0.22735 3:-0.360382 
-1 1:-0.46465 2:0.150943 3:-0.420803 
-1 1:-0.406427 2:0.0790969 3:-0.45524 
1 1:-0.531191 2:-0.0279959 3:-0.600814 
1 1:0.253686 2:0.919173 3:0.233728 
1 1:0.0865784 2:0.94876 3:0.0144092 
1 1:0.216635 2:0.821933 3:0.214764 
1 1:0.0691871 2:0.840413 3:0.0690711 
-1 1:-0.079017 2:0.821223 3:-0.0765967 
-1 1:-0.0827977 2:0.64952 3:-0.0417789 
-1 1:-0.129679 2:0.499619 3:-0.159194 
1 1:-0.126654 2:0.457982 3:-0.210163 
1 1:-0.187146 2:0.317 3:-0.269168 
1 1:-0.293762 2:0.230717 3:-0.387956 
-1 1:-0.47448 2:0.162712 3:-0.483658 
-1 1:-0.551607 2:0.0521977 3:-0.53544 
1 1:0.114934 2:0.955438 3:0.000854971 
1 1:0.0827977 2:1 3:0.00743546 
1 1:0.094896 2:0.858793 3:0.0227396 
1 1:0.0714556 2:0.876314 3:-0.000273407 
-1 1:-0.0809074 2:0.864198 3:-0.143196 
-1 1:-0.11758 2:0.681983 3:-0.113826 
1 1:-0.193195 2:0.488495 3:-0.254281 
1 1:-0.0480151 2:0.442412 3:-0.182328 
-1 1:-0.196219 2:0.304775 3:-0.3208 
1 1:-0.339887 2:0.215616 3:-0.426217 
1 1:-0.34518 2:0.145548 3:-0.476002 
-1 1:-0.571267 2:0.0341712 3:-0.559599 
1 1:0.230246 2:0.916248 3:0.151659 
1 1:0.142533 2:0.953603 3:0.0588132 
1 1:0.154631 2:0.8299 3:0.0674953 
1 1:0.104726 2:0.845834 3:-0.00531277 
1 1:0.00466541 2:0.83319 3:-0.112903 
1 1:-0.0336484 2:0.663619 3:-0.184503 
-1 1:-0.141021 2:0.616197 3:-0.168887 
1 1:-0.089603 2:0.584313 3:-0.235552 
-1 1:-0.159924 2:0.433255 3:-0.240046 
1 1:-0.387524 2:0.334944 3:-0.410678 
-1 1:-0.539509 2:0.158238 3:-0.524394 
1 1:0.197921 2:0.907702 3:0.125148 
1 1:0.158306 2:0.971884 3:0.2124 
1 1:0.145452 2:0.826049 3:0.034728 
1 1:0.253875 2:0.845752 3:0.243197 
1 1:0.0833043 2:0.837157 3:0.0127274 
1 1:-0.0142382 2:0.665107 3:-0.152022 
1 1:0.0427221 2:0.583272 3:-0.0882664 
1 1:-0.11758 2:0.555354 3:-0.232148 
1 1:-0.144045 2:0.413718 3:-0.297953 
-1 1:-0.447259 2:0.317509 3:-0.354354 
-1 1:-0.495652 2:0.273967 3:-0.480544 
-1 1:-0.544802 2:0.157451 3:-0.509627 
-1 1:-0.187146 2:0.662346 3:-0.217237 
-1 1:-0.216635 2:0.702264 3:-0.25406 
1 1:-0.103214 2:0.580693 3:-0.118159 
1 1:-0.112287 2:0.580263 3:-0.100077 
1 1:-0.144045 2:0.561123 3:-0.235233 
-1 1:-0.0918715 2:0.429536 3:-0.174944 
-1 1:-0.18034 2:0.484709 3:-0.197517 
1 1:-0.0979206 2:0.450247 3:-0.206966 
1 1:-0.234026 2:0.319268 3:-0.329494 
1 1:-0.412476 2:0.229405 3:-0.437027 
-1 1:-0.491115 2:0.173067 3:-0.378636 
1 1:-0.572023 2:0.065634 3:-0.547128 
-1 1:-0.347448 2:0.532478 3:-0.299922 
-1 1:-0.171267 2:0.549007 3:-0.190105 
-1 1:-0.264272 2:0.45861 3:-0.269506 
-1 1:-0.270321 2:0.448709 3:-0.215655 
-1 1:-0.279395 2:0.431288 3:-0.312913 
-1 1:-0.387524 2:0.315101 3:-0.439732 
1 1:-0.0797732 2:0.4759 3:-0.0847422 
1 1:-0.163705 2:0.447371 3:-0.196074 
1 1:-0.172023 2:0.322274 3:-0.212611 
-1 1:-0.258223 2:0.234135 3:-0.207963 
1 1:-0.312665 2:0.184643 3:-0.390119 
1 1:-0.438185 2:0.0801713 3:-0.476372 
1 1:0.284688 2:0.940843 3:0.20712 
1 1:0.334594 2:0.988843 3:0.22249 
1 1:0.308129 2:0.831256 3:0.152483 
-1 1:0.0563327 2:0.84633 3:0.082937 
1 1:0.073724 2:0.828099 3:0.0675501 
-1 1:-0.142911 2:0.657652 3:-0.119398 
1 1:-0.10775 2:0.384709 3:-0.200018 
1 1:-0.11758 2:0.333264 3:-0.161186 
1 1:-0.22344 2:0.205196 3:-0.36273 
1 1:-0.379206 2:0.130497 3:-0.434372 
1 1:-0.338374 2:0.0568059 3:-0.461646 
1 1:-0.52741 2:-0.0483447 3:-0.593604 
-1 1:-0.0608696 2:0.639635 3:-0.156436 
1 1:0.21966 2:0.679636 3:0.0543887 
1 1:0.209074 2:0.581123 3:0.0687002 
1 1:0.0434783 2:0.528842 3:0.00635571 
1 1:-0.108507 2:0.533437 3:-0.144924 
-1 1:-0.330813 2:0.350197 3:-0.347101 
-1 1:-0.283176 2:0.33101 3:-0.376355 
-1 1:-0.293006 2:0.240596 3:-0.338101 
-1 1:-0.454064 2:0.103973 3:-0.446175 
-1 1:-0.407183 2:0.0659481 3:-0.44459 
1 1:-0.456333 2:-0.00251984 3:-0.49841 
1 1:0.159924 2:0.715123 3:0.0854085 
1 1:0.493384 2:0.767421 3:0.216329 
1 1:0.494896 2:0.661404 3:0.454241 
1 1:0.310397 2:0.610809 3:0.116328 
1 1:0.50775 2:0.624726 3:0.28613 
1 1:0.30586 2:0.514214 3:-0.0556209 
-1 1:-0.351985 2:0.300096 3:-0.327177 
-1 1:-0.301323 2:0.277492 3:-0.3443 
-1 1:-0.191682 2:0.19014 3:-0.215253 
1 1:-0.360302 2:0.0516175 3:-0.373317 
1 1:-0.376938 2:0.00882564 3:-0.450913 
1 1:-0.373157 2:-0.0566043 3:-0.468963 
1 1:-0.0858223 2:0.617123 3:-0.196272 
1 1:-0.100189 2:0.65585 3:-0.227816 
1 1:0.0510397 2:0.550644 3:0.00719385 
1 1:-0.0465028 2:0.500726 3:-0.102397 
-1 1:-0.227977 2:0.503867 3:-0.322007 
-1 1:-0.370888 2:0.403999 3:-0.380615 
-1 1:-0.380718 2:0.319473 3:-0.379543 
-1 1:-0.313422 2:0.298418 3:-0.351819 
-1 1:-0.299811 2:0.209239 3:-0.32881 
-1 1:-0.471456 2:0.0669646 3:-0.415909 
-1 1:-0.449527 2:0.0236951 3:-0.461112 
-1 1:-0.508507 2:-0.0439794 3:-0.470375 
-1 1:-0.125142 2:0.625073 3:-0.0893241 
-1 1:-0.0797732 2:0.651536 3:-0.0568945 
1 1:-0.0238185 2:0.56304 3:-0.0215948 
-1 1:-0.150851 2:0.505354 3:-0.171586 
-1 1:-0.187902 2:0.509982 3:-0.190953 
-1 1:-0.275614 2:0.411635 3:-0.246108 
-1 1:-0.40189 2:0.262839 3:-0.455949 
1 1:-0.33913 2:0.238111 3:-0.458875 
-1 1:-0.391304 2:0.155543 3:-0.443903 
-1 1:-0.550851 2:0.0177579 3:-0.486442 
-1 1:-0.534216 2:-0.0281133 3:-0.465157 
1 1:-0.433648 2:-0.0901168 3:-0.308413 
-1 1:-0.111531 2:0.633421 3:-0.113612 
1 1:-0.00340265 2:0.682578 3:-0.0748664 
1 1:0.120605 2:0.583602 3:0.110698 
-1 1:-0.00869565 2:0.530544 3:-0.0293531 
1 1:0.00491493 2:0.537387 3:-0.023404 
-1 1:-0.25293 2:0.439899 3:-0.132059 
-1 1:-0.175047 2:0.426825 3:-0.315636 
1 1:-0.11758 2:0.319788 3:-0.167213 
1 1:-0.28242 2:0.175606 3:-0.368193 
1 1:-0.297543 2:0.145034 3:-0.437895 
1 1:-0.379206 2:0.0702473 3:-0.445738 
1 1:-0.133459 2:0.55304 3:-0.172344 
-1 1:-0.149338 2:0.599652 3:-0.248407 
-1 1:-0.188658 2:0.512957 3:-0.154962 
-1 1:-0.163705 2:0.457453 3:-0.19351 
1 1:-0.122873 2:0.462594 3:-0.116842 
1 1:-0.119849 2:0.377007 3:-0.159767 
-1 1:-0.361059 2:0.325679 3:-0.333241 
-1 1:-0.330813 2:0.310777 3:-0.370586 
-1 1:-0.34896 2:0.225552 3:-0.36959 
-1 1:-0.521361 2:0.090606 3:-0.458227 
-1 1:-0.449527 2:0.0557117 3:-0.432248 
-1 1:-0.508507 2:-0.00949506 3:-0.485676 
-1 1:-0.143289 2:0.555206 3:-0.144356 
-1 1:-0.159168 2:0.598346 3:-0.172792 
-1 1:-0.1138 2:0.511172 3:-0.143799 
-1 1:-0.111531 2:0.459172 3:-0.127774 
1 1:0.0563327 2:0.475304 3:-0.0183595 
-1 1:-0.179584 2:0.392742 3:-0.309437 
1 1:-0.225709 2:0.251514 3:-0.25378 
-1 1:-0.386011 2:0.233942 3:-0.4025 
-1 1:-0.379962 2:0.158185 3:-0.400253 
-1 1:-0.438185 2:0.0371166 3:-0.440146 
-1 1:-0.321739 2:0.000220662 3:-0.375422 
1 1:-0.475236 2:-0.0580489 3:-0.517894 
-1 1:0.0805293 2:0.735239 3:0.0146079 
1 1:0.175803 2:0.785223 3:0.294489 
1 1:0.0332703 2:0.678148 3:0.0463596 
1 1:0.0623819 2:0.637305 3:0.105153 
-1 1:0.0701928 2:0.651156 3:-0.0882235 
-1 1:-0.167486 2:0.536396 3:-0.202572 
-1 1:-0.37845 2:0.223509 3:-0.375419 
-1 1:-0.348204 2:0.195345 3:-0.341254 
-1 1:-0.385255 2:0.117318 3:-0.359815 
1 1:-0.362571 2:-0.0108852 3:-0.399572 
-1 1:-0.53724 2:-0.0584654 3:-0.502384 
1 1:-0.493384 2:-0.115514 3:-0.488878 
-1 1:-0.257467 2:0.637189 3:-0.165561 
1 1:-0.159924 2:0.681222 3:-0.182601 
1 1:0.063138 2:0.582445 3:-0.0266897 
-1 1:-0.150851 2:0.523685 3:-0.0438403 
-1 1:-0.189414 2:0.530131 3:-0.188313 
-1 1:-0.198488 2:0.428379 3:-0.205305 
-1 1:-0.419282 2:0.201066 3:-0.470587 
-1 1:-0.448015 2:0.176403 3:-0.509154 
-1 1:-0.317202 2:0.103105 3:-0.446241 
1 1:-0.428355 2:-0.0199579 3:-0.429358 
1 1:-0.413989 2:-0.062601 3:-0.433867 
1 1:-0.425331 2:-0.116537 3:-0.457405 
-1 1:-0.125142 2:0.333102 3:-0.230183 
1 1:-0.0638941 2:0.357503 3:-0.268748 
1 1:-0.0283554 2:0.292534 3:-0.119533 
1 1:0.0283554 2:0.253654 3:0.0574223 
1 1:-0.0336484 2:0.255335 3:-0.109293 
-1 1:-0.341399 2:0.194016 3:-0.325235 
1 1:-0.395841 2:0.206912 3:-0.383987 
-1 1:-0.427599 2:0.184253 3:-0.390993 
-1 1:-0.446503 2:0.111451 3:-0.355253 
-1 1:-0.492628 2:-0.0124984 3:-0.440841 
-1 1:-0.545558 2:-0.0546539 3:-0.5287 
-1 1:-0.575047 2:-0.108599 3:-0.503937 
-1 1:-0.262004 2:0.407552 3:-0.148925 
-1 1:-0.258979 2:0.421701 3:-0.185702 
1 1:-0.0986767 2:0.354577 3:-0.189512 
1 1:-0.108507 2:0.289352 3:-0.0704074 
1 1:-0.142533 2:0.283198 3:-0.318816 
1 1:-0.111531 2:0.210793 3:-0.211487 
-1 1:-0.269565 2:0.260567 3:-0.329847 
1 1:-0.214367 2:0.23559 3:-0.334066 
1 1:-0.252174 2:0.153043 3:-0.291448 
1 1:-0.458601 2:0.0145794 3:-0.446175 
-1 1:-0.48431 2:-0.0316439 3:-0.509047 
-1 1:-0.539509 2:-0.0935101 3:-0.517667 
-1 1:-0.160681 2:0.562875 3:-0.189758 
-1 1:-0.0986767 2:0.604677 3:-0.100799 
1 1:0.03138 2:0.512693 3:-0.0430946 
-1 1:-0.0964083 2:0.452594 3:-0.0915082 
1 1:-0.0880907 2:0.453255 3:-0.230631 
1 1:-0.200756 2:0.363503 3:-0.221171 
-1 1:-0.318715 2:0.322 3:-0.370216 
1 1:-0.231002 2:0.304375 3:-0.260563 
-1 1:-0.147826 2:0.217267 3:-0.192424 
-1 1:-0.565974 2:0.0782671 3:-0.501213 
-1 1:-0.688469 2:0.0393596 3:-0.518096 
-1 1:-0.662004 2:-0.0262406 3:-0.566913 
-1 1:-0.882798 2:-0.409213 3:-0.8704 
-1 1:-0.91758 2:-0.45859 3:-0.902044 
-1 1:-0.905482 2:-0.449367 3:-0.88809 
-1 1:-0.900189 2:-0.55406 3:-0.904377 
-1 1:-0.935728 2:-0.623321 3:-0.943912 
-1 1:-0.904726 2:-0.597366 3:-0.873321 
-1 1:-0.947826 2:-0.722857 3:-0.932278 
-1 1:-0.942533 2:-0.812752 3:-0.912473 
-1 1:-0.968998 2:-0.780178 3:-0.957137 
-1 1:-0.944802 2:-0.812358 3:-0.936545 
-1 1:-0.956144 2:-0.905438 3:-0.956029 
-1 1:-0.96673 2:-0.871965 3:-0.95475 
-1 1:-0.914556 2:-0.436967 3:-0.912405 
-1 1:-0.91758 2:-0.487493 3:-0.901246 
-1 1:-0.939509 2:-0.474754 3:-0.94516 
1 1:-0.885822 2:-0.577629 3:-0.826477 
-1 1:-0.872212 2:-0.645303 3:-0.866768 
-1 1:-0.919093 2:-0.618617 3:-0.904278 
-1 1:-0.941021 2:-0.665555 3:-0.956741 
-1 1:-0.891871 2:-0.750061 3:-0.868172 
-1 1:-0.946314 2:-0.726312 3:-0.938408 
-1 1:-0.949338 2:-0.747056 3:-0.959306 
-1 1:-0.90775 2:-0.838515 3:-0.89951 
-1 1:-0.973535 2:-0.813299 3:-0.968044 
-1 1:-0.897921 2:-0.37946 3:-0.898674 
-1 1:-0.879017 2:-0.430633 3:-0.870956 
-1 1:-0.86087 2:-0.426564 3:-0.868346 
-1 1:-0.85482 2:-0.527467 3:-0.867548 
1 1:-0.86465 2:-0.593738 3:-0.843875 
-1 1:-0.877505 2:-0.573629 3:-0.861908 
-1 1:-0.924386 2:-0.634469 3:-0.922584 
-1 1:-0.948582 2:-0.708525 3:-0.936432 
-1 1:-0.933459 2:-0.695305 3:-0.96136 
-1 1:-0.919093 2:-0.731414 3:-0.935254 
1 1:-0.906238 2:-0.830191 3:-0.880004 
-1 1:-0.947826 2:-0.807482 3:-0.911809 
-1 1:-0.885066 2:-0.391483 3:-0.894654 
-1 1:-0.84121 2:-0.443766 3:-0.843992 
1 1:-0.772401 2:-0.438971 3:-0.761965 
1 1:-0.829112 2:-0.546971 3:-0.811634 
1 1:-0.830624 2:-0.61611 3:-0.830096 
-1 1:-0.840454 2:-0.596016 3:-0.83491 
-1 1:-0.930435 2:-0.679956 3:-0.927335 
-1 1:-0.943289 2:-0.759097 3:-0.93712 
-1 1:-0.900189 2:-0.730627 3:-0.886131 
-1 1:-0.91758 2:-0.773666 3:-0.8984 
-1 1:-0.936484 2:-0.863408 3:-0.926848 
-1 1:-0.953119 2:-0.845948 3:-0.942468 
-1 1:-0.855577 2:-0.487809 3:-0.830716 
1 1:-0.853308 2:-0.48069 3:-0.850059 
1 1:-0.783743 2:-0.589971 3:-0.772912 
1 1:-0.786011 2:-0.664166 3:-0.765338 
-1 1:-0.855577 2:-0.645849 3:-0.859558 
-1 1:-0.950095 2:-0.718229 3:-0.920147 
-1 1:-0.912287 2:-0.805618 3:-0.855577 
-1 1:-0.933459 2:-0.778113 3:-0.909197 
-1 1:-0.937996 2:-0.811998 3:-0.938728 
-1 1:-0.962193 2:-0.917334 3:-0.954562 
-1 1:-0.960681 2:-0.890922 3:-0.919671 
-1 1:-0.869943 2:-0.427676 3:-0.833799 
-1 1:-0.870699 2:-0.482952 3:-0.859933 
1 1:-0.843478 2:-0.473764 3:-0.840814 
1 1:-0.829112 2:-0.584895 3:-0.801495 
-1 1:-0.848015 2:-0.659254 3:-0.871739 
1 1:-0.829868 2:-0.640687 3:-0.781923 
-1 1:-0.913043 2:-0.702799 3:-0.87443 
-1 1:-0.929679 2:-0.794733 3:-0.919426 
-1 1:-0.913043 2:-0.768282 3:-0.898462 
-1 1:-0.915312 2:-0.801039 3:-0.926112 
-1 1:-0.925142 2:-0.901724 3:-0.92188 
-1 1:-0.984121 2:-0.876372 3:-0.956692 
-1 1:-0.870699 2:0.324755 3:-0.843994 
-1 1:-0.813233 2:0.342974 3:-0.777391 
-1 1:-0.82155 2:0.275501 3:-0.884624 
-1 1:-0.791304 2:0.196891 3:-0.770303 
-1 1:-0.789792 2:0.178967 3:-0.802509 
-1 1:-0.800378 2:0.115899 3:-0.784006 
-1 1:-0.925142 2:-0.0550572 3:-0.907571 
-1 1:-0.916824 2:-0.0829713 3:-0.889617 
-1 1:-0.90775 2:-0.118454 3:-0.887033 
-1 1:-0.922117 2:-0.200327 3:-0.918391 
-1 1:-0.919849 2:-0.242816 3:-0.910891 
-1 1:-0.928922 2:-0.26599 3:-0.905938 
1 1:-0.0669187 2:0.584462 3:-0.0746147 
1 1:-0.0517958 2:0.634511 3:-0.0835012 
1 1:0.0661626 2:0.544792 3:-0.0547388 
-1 1:-0.0102079 2:0.492528 3:-0.0622243 
-1 1:-0.0298677 2:0.500544 3:-0.103634 
-1 1:-0.249149 2:0.411536 3:-0.235284 
-1 1:-0.346692 2:0.270959 3:-0.374842 
-1 1:-0.344423 2:0.251567 3:-0.391824 
-1 1:-0.302836 2:0.171876 3:-0.342852 
-1 1:-0.457089 2:0.0403183 3:-0.523388 
1 1:-0.471456 2:0.00135785 3:-0.531278 
1 1:-0.412476 2:-0.0589316 3:-0.529254 
-1 1:-0.164461 2:0.458594 3:-0.223688 
-1 1:-0.207561 2:0.492032 3:-0.199803 
-1 1:-0.226465 2:0.414362 3:-0.243497 
-1 1:-0.19017 2:0.353403 3:-0.188269 
-1 1:-0.25293 2:0.359949 3:-0.303253 
-1 1:-0.381474 2:0.287443 3:-0.402654 
-1 1:-0.435917 2:0.283783 3:-0.355865 
-1 1:-0.327788 2:0.268889 3:-0.378034 
-1 1:-0.330813 2:0.189942 3:-0.335871 
-1 1:-0.441966 2:0.0667167 3:-0.452289 
1 1:-0.398866 2:0.0322902 3:-0.453237 
1 1:-0.472968 2:-0.0288373 3:-0.518719 
1 1:-0.139509 2:0.564346 3:-0.120933 
-1 1:-0.172023 2:0.596958 3:-0.242928 
1 1:-0.0094518 2:0.505635 3:-0.0266737 
-1 1:-0.158412 2:0.446742 3:-0.100066 
1 1:-0.196975 2:0.444941 3:-0.269828 
1 1:-0.284688 2:0.349965 3:-0.424495 
-1 1:-0.392817 2:0.272673 3:-0.457155 
1 1:-0.33535 2:0.247869 3:-0.420082 
1 1:-0.185633 2:0.164932 3:-0.367381 
-1 1:-0.502964 2:0.0332026 3:-0.461812 
-1 1:-0.528922 2:-0.0108405 3:-0.501669 
-1 1:-0.466163 2:-0.0723795 3:-0.448321 
-1 1:-0.153875 2:0.593272 3:-0.113196 
-1 1:-0.159924 2:0.632776 3:-0.179743 
1 1:-0.0215501 2:0.538197 3:-0.138153 
-1 1:-0.130435 2:0.475371 3:-0.0628967 
1 1:-0.151607 2:0.477833 3:-0.261028 
-1 1:-0.317958 2:0.381073 3:-0.348982 
1 1:-0.298299 2:0.267306 3:-0.33599 
-1 1:-0.373157 2:0.242311 3:-0.346126 
1 1:-0.222684 2:0.158462 3:-0.187272 
-1 1:-0.396597 2:0.022067 3:-0.346008 
-1 1:-0.426087 2:-0.0229034 3:-0.460074 
1 1:-0.451796 2:-0.0855118 3:-0.457161 
-1 1:-0.200756 2:0.634379 3:-0.167283 
-1 1:-0.132703 2:0.674793 3:-0.189599 
1 1:-0.0238185 2:0.567768 3:0.017004 
-1 1:-0.195463 2:0.519718 3:-0.113038 
1 1:-0.18034 2:0.524396 3:-0.254093 
1 1:-0.231758 2:0.422594 3:-0.363401 
1 1:-0.321739 2:0.233299 3:-0.398599 
1 1:-0.354253 2:0.205773 3:-0.427092 
1 1:-0.360302 2:0.125538 3:-0.456741 
1 1:-0.401134 2:-0.0106009 3:-0.412048 
-1 1:-0.516068 2:-0.060034 3:-0.527667 
1 1:-0.406427 2:-0.11979 3:-0.382624 
-1 1:-0.119093 2:0.604082 3:-0.102917 
-1 1:-0.115312 2:0.628842 3:-0.175535 
-1 1:-0.0155009 2:0.542164 3:-0.0738841 
-1 1:-0.144045 2:0.482445 3:-0.189274 
1 1:-0.136484 2:0.485222 3:-0.225343 
-1 1:-0.305104 2:0.389172 3:-0.306919 
-1 1:-0.318715 2:0.311261 3:-0.338624 
-1 1:-0.2862 2:0.29035 3:-0.229168 
1 1:-0.246125 2:0.202795 3:-0.296616 
1 1:-0.391304 2:0.0615861 3:-0.389662 
-1 1:-0.415501 2:0.0191893 3:-0.413583 
1 1:-0.432892 2:-0.0471695 3:-0.483842 
-1 1:-0.213611 2:0.53823 3:-0.243473 
1 1:-0.0586011 2:0.57752 3:-0.0166181 
-1 1:-0.0714556 2:0.487999 3:-0.0894022 
1 1:-0.148582 2:0.425635 3:-0.0982344 
-1 1:-0.193951 2:0.424213 3:-0.271584 
-1 1:-0.190926 2:0.337192 3:-0.300574 
1 1:-0.220416 2:0.311296 3:-0.273286 
1 1:-0.199244 2:0.292909 3:-0.295648 
1 1:-0.160681 2:0.206874 3:-0.15666 
1 1:-0.226465 2:0.0684952 3:-0.328025 
-1 1:-0.516068 2:0.028791 3:-0.407935 
-1 1:-0.621172 2:-0.0358505 3:-0.557408 
-1 1:-0.406427 2:0.493883 3:-0.387458 
-1 1:-0.382987 2:0.534148 3:-0.432324 
1 1:-0.227977 2:0.453156 3:-0.187441 
-1 1:-0.284688 2:0.391949 3:-0.248689 
-1 1:-0.283932 2:0.391883 3:-0.316504 
-1 1:-0.212854 2:0.31276 3:-0.265828 
1 1:-0.290737 2:0.239253 3:-0.373556 
-1 1:-0.349716 2:0.217345 3:-0.375402 
-1 1:-0.327032 2:0.140925 3:-0.39894 
1 1:-0.398866 2:0.0115166 3:-0.407602 
1 1:-0.45104 2:-0.0296885 3:-0.440172 
1 1:-0.407183 2:-0.087087 3:-0.489882 
-1 1:-0.381474 2:0.409932 3:-0.356008 
-1 1:-0.375425 2:0.438594 3:-0.423624 
-1 1:-0.354253 2:0.365833 3:-0.381449 
-1 1:-0.227221 2:0.300954 3:-0.226336 
-1 1:-0.313422 2:0.302949 3:-0.397518 
-1 1:-0.267297 2:0.235567 3:-0.301121 
-1 1:-0.281664 2:0.264524 3:-0.27145 
1 1:-0.226465 2:0.248023 3:-0.243452 
1 1:-0.256711 2:0.170971 3:-0.329422 
-1 1:-0.293762 2:0.0490175 3:-0.253556 
-1 1:-0.194707 2:0.013105 3:-0.227506 
1 1:-0.418526 2:-0.0463216 3:-0.493633 
-1 1:-0.0495274 2:0.6419 3:-0.0677003 
-1 1:0.126654 2:0.682181 3:0.178826 
1 1:0.123629 2:0.583536 3:0.0442253 
-1 1:0.00869565 2:0.532032 3:0.0177376 
1 1:-0.0722117 2:0.536941 3:-0.14195 
-1 1:-0.173535 2:0.432891 3:-0.217089 
-1 1:-0.413233 2:0.265725 3:-0.40901 
-1 1:-0.363327 2:0.158188 3:-0.442124 
1 1:-0.443229 2:0.0269381 3:-0.422019 
1 1:-0.443478 2:-0.0176191 3:-0.458981 
1 1:-0.423819 2:-0.0785266 3:-0.42813 
