svm_type epsilon_svr
kernel_type rbf
gamma 0.1
nr_class 2
total_sv 1723
rho -71.7896
SV
-1 1:-1 2:-1 3:-0.652174 4:-1 5:-1 6:-1 7:-1 8:-1 9:-0.9 10:-0.934707 
-1 1:-1 2:-1 3:-0.652174 4:-1 5:-1 7:-1 8:-1 9:-0.9 10:-0.786974 
-1 1:-1 2:-1 3:-0.652174 4:-1 5:-1 6:1 7:-1 8:-1 9:-0.9 10:-0.665622 
-1 1:-1 2:-1 3:-0.652174 4:-1 5:-0.333333 6:-1 7:-1 8:-1 9:-0.9 10:-0.480956 
-1 1:-1 2:-1 3:-0.652174 4:-1 5:-0.333333 7:-1 8:-1 9:-0.9 10:-0.451937 
-1 1:-1 2:-1 3:-0.652174 4:-1 5:-0.333333 6:1 7:-1 8:-1 9:-0.9 10:-0.298928 
-1 1:-1 2:-1 3:-0.547826 4:-1 5:0.333333 6:-1 7:-1 8:-1 9:-1 10:-0.185491 
-1 1:-1 2:-1 3:-0.547826 4:-1 5:0.333333 7:-1 8:-1 9:-1 10:-0.138005 
-1 1:-1 2:-1 3:-0.547826 4:-1 5:0.333333 6:1 7:-1 8:-1 9:-1 10:-0.153833 
-1 1:-1 2:-1 3:-0.547826 4:-1 5:1 6:-1 7:-1 8:-1 9:-1 10:-0.330585 
-1 1:-1 2:-1 3:-0.547826 4:-1 5:1 7:-1 8:-1 9:-1 10:-0.189448 
-1 1:-1 2:-1 3:-0.547826 4:-1 5:1 6:1 7:-1 8:-1 9:-1 10:-0.293652 
-1 1:-0.666667 2:-1 3:-0.756522 4:-1 5:-1 6:-1 7:-1 8:-1 9:-1 10:-0.904369 
-1 1:-0.666667 2:-1 3:-0.756522 4:-1 5:-1 7:-1 8:-1 9:-1 10:-0.739489 
-1 1:-0.666667 2:-1 3:-0.756522 4:-1 5:-1 6:1 7:-1 8:-1 9:-1 10:-0.607585 
-1 1:-0.666667 2:-1 3:-0.756522 4:-1 5:-0.333333 6:-1 7:-1 8:-1 9:-1 10:-0.403133 
1 1:-0.666667 2:-1 3:-0.756522 4:-1 5:-0.333333 7:-1 8:-1 9:-1 10:-0.347073 
1 1:-0.666667 2:-1 3:-0.756522 4:-1 5:-0.333333 6:1 7:-1 8:-1 9:-1 10:-0.294312 
-1 1:-0.666667 2:-1 3:-0.608696 4:-1 5:0.333333 6:-1 7:-1 8:-1 9:-1 10:-0.0107172 
-1 1:-0.666667 2:-1 3:-0.608696 4:-1 5:0.333333 7:-1 8:-1 9:-1 10:0.0370981 
-1 1:-0.666667 2:-1 3:-0.608696 4:-1 5:0.333333 6:1 7:-1 8:-1 9:-1 10:0.0206101 
-1 1:-0.666667 2:-1 3:-0.608696 4:-1 5:1 6:-1 7:-1 8:-1 9:-1 10:0.0766694 
-1 1:-0.666667 2:-1 3:-0.608696 4:-1 5:1 7:-1 8:-1 9:-1 10:0.114592 
-1 1:-0.666667 2:-1 3:-0.608696 4:-1 5:1 6:1 7:-1 8:-1 9:-1 10:0.0568838 
1 1:-0.333333 2:-1 3:-0.2 4:-1 5:-1 6:-1 7:-1 8:-1 9:-1 10:-0.755977 
1 1:-0.333333 2:-1 3:-0.2 4:-1 5:-1 7:-1 8:-1 9:-1 10:-0.574608 
-1 1:-0.333333 2:-1 3:-0.2 4:-1 5:-1 6:1 7:-1 8:-1 9:-1 10:-0.399835 
-1 1:-0.333333 2:-1 3:-0.2 4:-1 5:-0.333333 6:-1 7:-1 8:-1 9:-1 10:-0.215169 
-1 1:-0.333333 2:-1 3:-0.2 4:-1 5:-0.333333 7:-1 8:-1 9:-1 10:-0.201979 
-1 1:-0.333333 2:-1 3:-0.2 4:-1 5:-0.333333 6:1 7:-1 8:-1 9:-1 10:0.0750206 
-1 1:-0.333333 2:-1 3:-0.626087 4:-1 5:0.333333 6:-1 7:-1 8:-1 9:-1 10:0.243199 
-1 1:-0.333333 2:-1 3:-0.626087 4:-1 5:0.333333 7:-1 8:-1 9:-1 10:0.355317 
-1 1:-0.333333 2:-1 3:-0.626087 4:-1 5:0.333333 6:1 7:-1 8:-1 9:-1 10:0.167354 
-1 1:-0.333333 2:-1 3:-0.626087 4:-1 5:1 6:-1 7:-1 8:-1 9:-1 10:0.193735 
-1 1:-0.333333 2:-1 3:-0.626087 4:-1 5:1 7:-1 8:-1 9:-1 10:0.244847 
-1 1:-0.333333 2:-1 3:-0.626087 4:-1 5:1 6:1 7:-1 8:-1 9:-1 10:0.0601814 
-1 2:-1 3:-0.730435 4:-1 5:-1 6:-1 7:-1 8:-1 9:-1 10:-0.907667 
-1 2:-1 3:-0.730435 4:-1 5:-1 7:-1 8:-1 9:-1 10:-0.851608 
-1 2:-1 3:-0.730435 4:-1 5:-1 6:1 7:-1 8:-1 9:-1 10:-0.62737 
-1 2:-1 3:-0.730435 4:-1 5:-0.333333 6:-1 7:-1 8:-1 9:-1 10:-0.604287 
-0.1324557184236673 2:-1 3:-0.730435 4:-1 5:-0.333333 7:-1 8:-1 9:-1 10:-0.396538 
1 2:-1 3:-0.730435 4:-1 5:-0.333333 6:1 7:-1 8:-1 9:-1 10:-0.330585 
-1 2:-1 3:-0.66087 4:-1 5:0.333333 6:-1 7:-1 8:-1 9:-1 10:-0.0766694 
-1 2:-1 3:-0.66087 4:-1 5:0.333333 7:-1 8:-1 9:-1 10:-0.0272053 
-1 2:-1 3:-0.66087 4:-1 5:0.333333 6:1 7:-1 8:-1 9:-1 10:-0.0783182 
-1 2:-1 3:-0.66087 4:-1 5:1 6:-1 7:-1 8:-1 9:-1 10:-0.0305029 
-1 2:-1 3:-0.66087 4:-1 5:1 7:-1 8:-1 9:-1 10:-0.0140148 
-1 2:-1 3:-0.66087 4:-1 5:1 6:1 7:-1 8:-1 9:-1 10:-0.079967 
-1 1:0.333333 2:-1 3:-0.66087 4:-1 5:-1 6:-1 7:-1 8:-1 9:-1 10:-0.897774 
1 1:0.333333 2:-1 3:-0.66087 4:-1 5:-1 7:-1 8:-1 9:-1 10:-0.795548 
-1 1:0.333333 2:-1 3:-0.66087 4:-1 5:-1 6:1 7:-1 8:-1 9:-1 10:-0.637263 
-1 1:0.333333 2:-1 3:-0.66087 4:-1 5:-0.333333 6:-1 7:-1 8:-1 9:-1 10:-0.574608 
-1 1:0.333333 2:-1 3:-0.66087 4:-1 5:-0.333333 7:-1 8:-1 9:-1 10:-0.449299 
-1 1:0.333333 2:-1 3:-0.66087 4:-1 5:-0.333333 6:1 7:-1 8:-1 9:-1 10:-0.46249 
-1 1:0.333333 2:-1 3:-0.643478 4:-1 5:0.333333 6:-1 7:-1 8:-1 9:-1 10:-0.11789 
-1 1:0.333333 2:-1 3:-0.643478 4:-1 5:0.333333 7:-1 8:-1 9:-1 10:0.00412201 
1 1:0.333333 2:-1 3:-0.643478 4:-1 5:0.333333 6:1 7:-1 8:-1 9:-1 10:0.055235 
-1 1:0.333333 2:-1 3:-0.643478 4:-1 5:1 6:-1 7:-1 8:-1 9:-1 10:0.0766694 
1 1:0.333333 2:-1 3:-0.643478 4:-1 5:1 7:-1 8:-1 9:-1 10:0.111294 
-1 1:0.333333 2:-1 3:-0.643478 4:-1 5:1 6:1 7:-1 8:-1 9:-1 10:0.00906843 
-1 1:0.666667 2:-1 3:-0.721739 4:-1 5:-1 6:-1 7:-1 8:-1 9:-1 10:-0.356966 
-1 1:0.666667 2:-1 3:-0.721739 4:-1 5:-1 7:-1 8:-1 9:-1 10:-0.136026 
1 1:0.666667 2:-1 3:-0.721739 4:-1 5:-1 6:1 7:-1 8:-1 9:-1 10:0.00247321 
-1 1:0.666667 2:-1 3:-0.721739 4:-1 5:-0.333333 6:-1 7:-1 8:-1 9:-1 10:0.0222589 
1 1:0.666667 2:-1 3:-0.721739 4:-1 5:-0.333333 7:-1 8:-1 9:-1 10:0.0585326 
1 1:0.666667 2:-1 3:-0.721739 4:-1 5:-0.333333 6:1 7:-1 8:-1 9:-1 10:-0.0239077 
1 1:0.666667 2:-1 3:-0.608696 4:-1 5:0.333333 6:-1 7:-1 8:-1 9:-1 10:-0.0370981 
1 1:0.666667 2:-1 3:-0.608696 4:-1 5:0.333333 7:-1 8:-1 9:-1 10:0.0173124 
-1 1:0.666667 2:-1 3:-0.608696 4:-1 5:0.333333 6:1 7:-1 8:-1 9:-1 10:0.012366 
-1 1:0.666667 2:-1 3:-0.608696 4:-1 5:1 6:-1 7:-1 8:-1 9:-1 10:0.142622 
-1 1:0.666667 2:-1 3:-0.608696 4:-1 5:1 7:-1 8:-1 9:-1 10:0.165705 
1 1:0.666667 2:-1 3:-0.608696 4:-1 5:1 6:1 7:-1 8:-1 9:-1 10:0.0239077 
-1 1:1 2:-1 3:-0.73913 4:-1 5:-1 6:-1 7:-1 8:-1 9:-1 10:-0.858203 
-1 1:1 2:-1 3:-0.73913 4:-1 5:-1 7:-1 8:-1 9:-1 10:-0.795548 
-1 1:1 2:-1 3:-0.73913 4:-1 5:-1 6:1 7:-1 8:-1 9:-1 10:-0.732894 
-1 1:1 2:-1 3:-0.73913 4:-1 5:-0.333333 6:-1 7:-1 8:-1 9:-1 10:-0.396538 
-1 1:1 2:-1 3:-0.73913 4:-1 5:-0.333333 7:-1 8:-1 9:-1 10:-0.360264 
-1 1:1 2:-1 3:-0.73913 4:-1 5:-0.333333 6:1 7:-1 8:-1 9:-1 10:-0.201979 
1 1:1 2:-1 3:-0.391304 4:-1 5:0.333333 6:-1 7:-1 8:-1 9:-1 10:-0.0486397 
-1 1:1 2:-1 3:-0.391304 4:-1 5:0.333333 7:-1 8:-1 9:-1 10:-0.000824402 
-1 1:1 2:-1 3:-0.391304 4:-1 5:0.333333 6:1 7:-1 8:-1 9:-1 10:0.0750206 
1 1:1 2:-1 3:-0.391304 4:-1 5:1 6:-1 7:-1 8:-1 9:-1 10:0.0700742 
-1 1:1 2:-1 3:-0.391304 4:-1 5:1 7:-1 8:-1 9:-1 10:0.0700742 
-1 1:1 2:-1 3:-0.391304 4:-1 5:1 6:1 7:-1 8:-1 9:-1 10:-0.0667766 
-1 1:-1 2:-1 3:-0.626087 4:-1 5:-1 6:-1 7:-1 8:-1 9:-1 10:-0.934707 
-1 1:-1 2:-1 3:-0.626087 4:-1 5:-1 7:-1 8:-1 9:-1 10:-0.786974 
-1 1:-1 2:-1 3:-0.626087 4:-1 5:-1 6:1 7:-1 8:-1 9:-1 10:-0.665622 
-1 1:-1 2:-1 3:-0.626087 4:-1 5:-0.333333 6:-1 7:-1 8:-1 9:-1 10:-0.480956 
-1 1:-1 2:-1 3:-0.626087 4:-1 5:-0.333333 7:-1 8:-1 9:-1 10:-0.451937 
-1 1:-1 2:-1 3:-0.626087 4:-1 5:-0.333333 6:1 7:-1 8:-1 9:-1 10:-0.298928 
-1 1:-1 2:-1 3:-0.626087 4:-1 5:0.333333 6:-1 7:-1 8:-1 9:-1 10:-0.185491 
-1 1:-1 2:-1 3:-0.626087 4:-1 5:0.333333 7:-1 8:-1 9:-1 10:-0.138005 
-1 1:-1 2:-1 3:-0.626087 4:-1 5:0.333333 6:1 7:-1 8:-1 9:-1 10:-0.153833 
-1 1:-1 2:-1 3:-0.626087 4:-1 5:1 6:-1 7:-1 8:-1 9:-1 10:-0.330585 
-1 1:-1 2:-1 3:-0.626087 4:-1 5:1 7:-1 8:-1 9:-1 10:-0.189448 
-1 1:-1 2:-1 3:-0.626087 4:-1 5:1 6:1 7:-1 8:-1 9:-1 10:-0.293652 
-1 1:-0.666667 2:-1 3:-0.669565 4:-1 5:-1 6:-1 7:-1 8:-1 9:-1 10:-0.904369 
-1 1:-0.666667 2:-1 3:-0.669565 4:-1 5:-1 7:-1 8:-1 9:-1 10:-0.739489 
0.9920471905424302 1:-0.666667 2:-1 3:-0.669565 4:-1 5:-1 6:1 7:-1 8:-1 9:-1 10:-0.607585 
-1 1:-0.666667 2:-1 3:-0.669565 4:-1 5:-0.333333 6:-1 7:-1 8:-1 9:-1 10:-0.403133 
1 1:-0.666667 2:-1 3:-0.669565 4:-1 5:-0.333333 7:-1 8:-1 9:-1 10:-0.347073 
-1 1:-0.666667 2:-1 3:-0.669565 4:-1 5:-0.333333 6:1 7:-1 8:-1 9:-1 10:-0.294312 
-1 1:-0.666667 2:-1 3:-0.608696 4:-1 5:0.333333 6:-1 7:-1 8:-1 9:0.2 10:-0.0107172 
1 1:-0.666667 2:-1 3:-0.608696 4:-1 5:0.333333 7:-1 8:-1 9:0.2 10:0.0370981 
-1 1:-0.666667 2:-1 3:-0.608696 4:-1 5:1 6:-1 7:-1 8:-1 9:0.2 10:0.0766694 
-1 1:-0.666667 2:-1 3:-0.608696 4:-1 5:1 7:-1 8:-1 9:0.2 10:0.114592 
-1 1:-0.666667 2:-1 3:-0.608696 4:-1 5:1 6:1 7:-1 8:-1 9:0.2 10:0.0568838 
1 1:-0.333333 2:-1 3:-0.121739 4:-1 5:-1 6:-1 7:-1 8:1 9:0.3 10:-0.755977 
1 1:-0.333333 2:-1 3:-0.121739 4:-1 5:-1 7:-1 8:1 9:0.3 10:-0.574608 
1 1:-0.333333 2:-1 3:-0.121739 4:-1 5:-1 6:1 7:-1 8:1 9:0.3 10:-0.399835 
1 1:-0.333333 2:-1 3:-0.121739 4:-1 5:-0.333333 6:-1 7:-1 8:1 9:0.3 10:-0.215169 
1 1:-0.333333 2:-1 3:-0.121739 4:-1 5:-0.333333 7:-1 8:1 9:0.3 10:-0.201979 
1 1:-0.333333 2:-1 3:-0.121739 4:-1 5:-0.333333 6:1 7:-1 8:1 9:0.3 10:0.0750206 
-1 1:-0.333333 2:-1 3:-0.634783 4:-1 5:0.333333 6:-1 7:-1 8:-0.345455 9:0.2 10:0.243199 
-1 1:-0.333333 2:-1 3:-0.634783 4:-1 5:0.333333 7:-1 8:-0.345455 9:0.2 10:0.355317 
-1 1:-0.333333 2:-1 3:-0.634783 4:-1 5:0.333333 6:1 7:-1 8:-0.345455 9:0.2 10:0.167354 
-1 1:-0.333333 2:-1 3:-0.634783 4:-1 5:1 6:-1 7:-1 8:-0.345455 9:0.2 10:0.193735 
-1 1:-0.333333 2:-1 3:-0.634783 4:-1 5:1 7:-1 8:-0.345455 9:0.2 10:0.244847 
-1 1:-0.333333 2:-1 3:-0.634783 4:-1 5:1 6:1 7:-1 8:-0.345455 9:0.2 10:0.0601814 
-1 2:-1 3:-0.765217 4:-1 5:-1 6:-1 7:-1 8:-0.963636 9:0.4 10:-0.907667 
-1 2:-1 3:-0.765217 4:-1 5:-1 7:-1 8:-0.963636 9:0.4 10:-0.851608 
-1 2:-1 3:-0.765217 4:-1 5:-1 6:1 7:-1 8:-0.963636 9:0.4 10:-0.62737 
-1 2:-1 3:-0.765217 4:-1 5:-0.333333 6:-1 7:-1 8:-0.963636 9:0.4 10:-0.604287 
-1 2:-1 3:-0.765217 4:-1 5:-0.333333 7:-1 8:-0.963636 9:0.4 10:-0.396538 
-1 2:-1 3:-0.765217 4:-1 5:-0.333333 6:1 7:-1 8:-0.963636 9:0.4 10:-0.330585 
-1 2:-1 3:-0.617391 4:-1 5:0.333333 6:-1 7:-1 8:-0.890909 9:-0.8 10:-0.0766694 
-1 2:-1 3:-0.617391 4:-1 5:0.333333 7:-1 8:-0.890909 9:-0.8 10:-0.0272053 
-1 2:-1 3:-0.617391 4:-1 5:0.333333 6:1 7:-1 8:-0.890909 9:-0.8 10:-0.0783182 
-1 2:-1 3:-0.617391 4:-1 5:1 6:-1 7:-1 8:-0.890909 9:-0.8 10:-0.0305029 
-1 2:-1 3:-0.617391 4:-1 5:1 7:-1 8:-0.890909 9:-0.8 10:-0.0140148 
-1 2:-1 3:-0.617391 4:-1 5:1 6:1 7:-1 8:-0.890909 9:-0.8 10:-0.079967 
-1 1:0.333333 2:-1 3:-0.643478 4:-1 5:-1 6:-1 7:-1 8:-1 9:-1 10:-0.897774 
-1 1:0.333333 2:-1 3:-0.643478 4:-1 5:-1 7:-1 8:-1 9:-1 10:-0.795548 
-1 1:0.333333 2:-1 3:-0.643478 4:-1 5:-1 6:1 7:-1 8:-1 9:-1 10:-0.637263 
1 1:0.333333 2:-1 3:-0.643478 4:-1 5:-0.333333 6:-1 7:-1 8:-1 9:-1 10:-0.574608 
1 1:0.333333 2:-1 3:-0.643478 4:-1 5:-0.333333 7:-1 8:-1 9:-1 10:-0.449299 
1 1:0.333333 2:-1 3:-0.643478 4:-1 5:-0.333333 6:1 7:-1 8:-1 9:-1 10:-0.46249 
1 1:0.333333 2:-1 3:-0.00869565 4:-1 5:0.333333 6:-1 7:-1 8:-1 9:-1 10:-0.11789 
1 1:0.333333 2:-1 3:-0.00869565 4:-1 5:0.333333 7:-1 8:-1 9:-1 10:0.00412201 
1 1:0.333333 2:-1 3:-0.00869565 4:-1 5:0.333333 6:1 7:-1 8:-1 9:-1 10:0.055235 
1 1:0.333333 2:-1 3:-0.00869565 4:-1 5:1 6:-1 7:-1 8:-1 9:-1 10:0.0766694 
1 1:0.333333 2:-1 3:-0.00869565 4:-1 5:1 7:-1 8:-1 9:-1 10:0.111294 
1 1:0.333333 2:-1 3:-0.00869565 4:-1 5:1 6:1 7:-1 8:-1 9:-1 10:0.00906843 
1 1:0.666667 2:-1 3:1 4:-1 5:-1 6:-1 7:1 8:-1 9:-1 10:-0.356966 
1 1:0.666667 2:-1 3:1 4:-1 5:-1 7:1 8:-1 9:-1 10:-0.136026 
1 1:0.666667 2:-1 3:1 4:-1 5:-1 6:1 7:1 8:-1 9:-1 10:0.00247321 
1 1:0.666667 2:-1 3:1 4:-1 5:-0.333333 6:-1 7:1 8:-1 9:-1 10:0.0222589 
1 1:0.666667 2:-1 3:1 4:-1 5:-0.333333 7:1 8:-1 9:-1 10:0.0585326 
1 1:0.666667 2:-1 3:1 4:-1 5:-0.333333 6:1 7:1 8:-1 9:-1 10:-0.0239077 
1 1:0.666667 2:-1 3:0.382609 4:-1 5:0.333333 6:-1 7:1 8:-1 9:-1 10:-0.0370981 
1 1:0.666667 2:-1 3:0.382609 4:-1 5:0.333333 7:1 8:-1 9:-1 10:0.0173124 
1 1:0.666667 2:-1 3:0.382609 4:-1 5:0.333333 6:1 7:1 8:-1 9:-1 10:0.012366 
1 1:0.666667 2:-1 3:0.382609 4:-1 5:1 6:-1 7:1 8:-1 9:-1 10:0.142622 
1 1:0.666667 2:-1 3:0.382609 4:-1 5:1 7:1 8:-1 9:-1 10:0.165705 
1 1:0.666667 2:-1 3:0.382609 4:-1 5:1 6:1 7:1 8:-1 9:-1 10:0.0239077 
1 1:1 2:-1 3:0.434783 4:-1 5:-1 6:-1 7:1 8:-1 9:-1 10:-0.858203 
1 1:1 2:-1 3:0.434783 4:-1 5:-1 7:1 8:-1 9:-1 10:-0.795548 
1 1:1 2:-1 3:0.434783 4:-1 5:-1 6:1 7:1 8:-1 9:-1 10:-0.732894 
1 1:1 2:-1 3:0.434783 4:-1 5:-0.333333 6:-1 7:1 8:-1 9:-1 10:-0.396538 
1 1:1 2:-1 3:0.434783 4:-1 5:-0.333333 7:1 8:-1 9:-1 10:-0.360264 
1 1:1 2:-1 3:0.434783 4:-1 5:-0.333333 6:1 7:1 8:-1 9:-1 10:-0.201979 
1 1:1 2:-1 3:0.0782609 4:-1 5:0.333333 6:-1 7:1 8:-1 9:-1 10:-0.0486397 
1 1:1 2:-1 3:0.0782609 4:-1 5:0.333333 7:1 8:-1 9:-1 10:-0.000824402 
1 1:1 2:-1 3:0.0782609 4:-1 5:0.333333 6:1 7:1 8:-1 9:-1 10:0.0750206 
1 1:1 2:-1 3:0.0782609 4:-1 5:1 6:-1 7:1 8:-1 9:-1 10:0.0700742 
1 1:1 2:-1 3:0.0782609 4:-1 5:1 7:1 8:-1 9:-1 10:0.0700742 
1 1:1 2:-1 3:0.0782609 4:-1 5:1 6:1 7:1 8:-1 9:-1 10:-0.0667766 
1 1:-1 2:-1 3:0.191304 4:-1 5:-1 6:-1 7:1 8:-1 9:-1 10:-0.934707 
1 1:-1 2:-1 3:0.191304 4:-1 5:-1 7:1 8:-1 9:-1 10:-0.786974 
1 1:-1 2:-1 3:0.191304 4:-1 5:-1 6:1 7:1 8:-1 9:-1 10:-0.665622 
1 1:-1 2:-1 3:0.191304 4:-1 5:-0.333333 6:-1 7:1 8:-1 9:-1 10:-0.480956 
1 1:-1 2:-1 3:0.191304 4:-1 5:-0.333333 7:1 8:-1 9:-1 10:-0.451937 
1 1:-1 2:-1 3:0.191304 4:-1 5:-0.333333 6:1 7:1 8:-1 9:-1 10:-0.298928 
1 1:-1 2:-1 3:-0.113043 4:-1 5:0.333333 6:-1 7:1 8:-1 9:-1 10:-0.185491 
1 1:-1 2:-1 3:-0.113043 4:-1 5:0.333333 7:1 8:-1 9:-1 10:-0.138005 
1 1:-1 2:-1 3:-0.113043 4:-1 5:0.333333 6:1 7:1 8:-1 9:-1 10:-0.153833 
1 1:-1 2:-1 3:-0.113043 4:-1 5:1 6:-1 7:1 8:-1 9:-1 10:-0.330585 
1 1:-1 2:-1 3:-0.113043 4:-1 5:1 7:1 8:-1 9:-1 10:-0.189448 
1 1:-1 2:-1 3:-0.113043 4:-1 5:1 6:1 7:1 8:-1 9:-1 10:-0.293652 
1 1:-0.666667 2:-1 3:0.147826 4:-1 5:-1 6:-1 7:1 8:-1 9:-1 10:-0.904369 
1 1:-0.666667 2:-1 3:0.147826 4:-1 5:-1 7:1 8:-1 9:-1 10:-0.739489 
1 1:-0.666667 2:-1 3:0.147826 4:-1 5:-1 6:1 7:1 8:-1 9:-1 10:-0.607585 
1 1:-0.666667 2:-1 3:0.147826 4:-1 5:-0.333333 6:-1 7:1 8:-1 9:-1 10:-0.403133 
1 1:-0.666667 2:-1 3:0.147826 4:-1 5:-0.333333 7:1 8:-1 9:-1 10:-0.347073 
1 1:-0.666667 2:-1 3:0.147826 4:-1 5:-0.333333 6:1 7:1 8:-1 9:-1 10:-0.294312 
1 1:-0.666667 2:-1 3:0.852174 4:-1 5:0.333333 6:-1 7:1 8:-1 9:-1 10:-0.0107172 
1 1:-0.666667 2:-1 3:0.852174 4:-1 5:0.333333 7:1 8:-1 9:-1 10:0.0370981 
1 1:-0.666667 2:-1 3:0.852174 4:-1 5:0.333333 6:1 7:1 8:-1 9:-1 10:0.0206101 
1 1:-0.666667 2:-1 3:0.852174 4:-1 5:1 6:-1 7:1 8:-1 9:-1 10:0.0766694 
1 1:-0.666667 2:-1 3:0.852174 4:-1 5:1 7:1 8:-1 9:-1 10:0.114592 
1 1:-0.666667 2:-1 3:0.852174 4:-1 5:1 6:1 7:1 8:-1 9:-1 10:0.0568838 
1 1:-0.333333 2:-1 3:0.104348 4:-1 5:-1 6:-1 7:1 8:-1 9:-1 10:-0.755977 
1 1:-0.333333 2:-1 3:0.104348 4:-1 5:-1 7:1 8:-1 9:-1 10:-0.574608 
1 1:-0.333333 2:-1 3:0.104348 4:-1 5:-1 6:1 7:1 8:-1 9:-1 10:-0.399835 
1 1:-0.333333 2:-1 3:0.104348 4:-1 5:-0.333333 6:-1 7:1 8:-1 9:-1 10:-0.215169 
1 1:-0.333333 2:-1 3:0.104348 4:-1 5:-0.333333 7:1 8:-1 9:-1 10:-0.201979 
1 1:-0.333333 2:-1 3:0.104348 4:-1 5:-0.333333 6:1 7:1 8:-1 9:-1 10:0.0750206 
1 1:-0.333333 2:-1 3:0.756522 4:-1 5:0.333333 6:-1 7:1 8:-1 9:-1 10:0.243199 
1 1:-0.333333 2:-1 3:0.756522 4:-1 5:0.333333 7:1 8:-1 9:-1 10:0.355317 
1 1:-0.333333 2:-1 3:0.756522 4:-1 5:0.333333 6:1 7:1 8:-1 9:-1 10:0.167354 
1 1:-0.333333 2:-1 3:0.756522 4:-1 5:1 6:-1 7:1 8:-1 9:-1 10:0.193735 
1 1:-0.333333 2:-1 3:0.756522 4:-1 5:1 7:1 8:-1 9:-1 10:0.244847 
1 1:-0.333333 2:-1 3:0.756522 4:-1 5:1 6:1 7:1 8:-1 9:-1 10:0.0601814 
1 2:-1 3:0.147826 4:-1 5:-1 6:-1 7:1 8:-0.709091 9:-1 10:-0.907667 
1 2:-1 3:0.147826 4:-1 5:-1 7:1 8:-0.709091 9:-1 10:-0.851608 
1 2:-1 3:0.147826 4:-1 5:-1 6:1 7:1 8:-0.709091 9:-1 10:-0.62737 
1 2:-1 3:0.147826 4:-1 5:-0.333333 6:-1 7:1 8:-0.709091 9:-1 10:-0.604287 
1 2:-1 3:0.147826 4:-1 5:-0.333333 7:1 8:-0.709091 9:-1 10:-0.396538 
1 2:-1 3:0.147826 4:-1 5:-0.333333 6:1 7:1 8:-0.709091 9:-1 10:-0.330585 
1 2:-1 3:0.452174 4:-1 5:0.333333 6:-1 7:1 8:-1 9:-1 10:-0.0766694 
1 2:-1 3:0.452174 4:-1 5:0.333333 7:1 8:-1 9:-1 10:-0.0272053 
1 2:-1 3:0.452174 4:-1 5:0.333333 6:1 7:1 8:-1 9:-1 10:-0.0783182 
1 2:-1 3:0.452174 4:-1 5:1 6:-1 7:1 8:-1 9:-1 10:-0.0305029 
1 2:-1 3:0.452174 4:-1 5:1 7:1 8:-1 9:-1 10:-0.0140148 
1 2:-1 3:0.452174 4:-1 5:1 6:1 7:1 8:-1 9:-1 10:-0.079967 
1 1:0.333333 2:-1 3:-0.226087 4:-1 5:-1 6:-1 7:-1 8:-1 9:-1 10:-0.897774 
1 1:0.333333 2:-1 3:-0.226087 4:-1 5:-1 7:-1 8:-1 9:-1 10:-0.795548 
1 1:0.333333 2:-1 3:-0.226087 4:-1 5:-1 6:1 7:-1 8:-1 9:-1 10:-0.637263 
1 1:0.333333 2:-1 3:-0.226087 4:-1 5:-0.333333 6:-1 7:-1 8:-1 9:-1 10:-0.574608 
1 1:0.333333 2:-1 3:-0.226087 4:-1 5:-0.333333 7:-1 8:-1 9:-1 10:-0.449299 
1 1:0.333333 2:-1 3:-0.226087 4:-1 5:-0.333333 6:1 7:-1 8:-1 9:-1 10:-0.46249 
1 1:0.333333 2:-1 3:0.530435 4:-1 5:0.333333 6:-1 7:-1 8:-0.0909091 9:1 10:-0.11789 
1 1:0.333333 2:-1 3:0.530435 4:-1 5:0.333333 7:-1 8:-0.0909091 9:1 10:0.00412201 
1 1:0.333333 2:-1 3:0.530435 4:-1 5:0.333333 6:1 7:-1 8:-0.0909091 9:1 10:0.055235 
1 1:0.333333 2:-1 3:0.530435 4:-1 5:1 6:-1 7:-1 8:-0.0909091 9:1 10:0.0766694 
1 1:0.333333 2:-1 3:0.530435 4:-1 5:1 7:-1 8:-0.0909091 9:1 10:0.111294 
-1 1:0.333333 2:-1 3:0.530435 4:-1 5:1 6:1 7:-1 8:-0.0909091 9:1 10:0.00906843 
-1 1:0.666667 2:-1 3:-0.791304 4:-1 5:-1 6:-1 7:-1 8:-1 9:-1 10:-0.356966 
-1 1:0.666667 2:-1 3:-0.791304 4:-1 5:-1 7:-1 8:-1 9:-1 10:-0.136026 
-1 1:0.666667 2:-1 3:-0.791304 4:-1 5:-1 6:1 7:-1 8:-1 9:-1 10:0.00247321 
-1 1:0.666667 2:-1 3:-0.791304 4:-1 5:-0.333333 6:-1 7:-1 8:-1 9:-1 10:0.0222589 
-1 1:0.666667 2:-1 3:-0.791304 4:-1 5:-0.333333 7:-1 8:-1 9:-1 10:0.0585326 
-1 1:0.666667 2:-1 3:-0.791304 4:-1 5:-0.333333 6:1 7:-1 8:-1 9:-1 10:-0.0239077 
-1 1:0.666667 2:-1 3:-0.713043 4:-1 5:0.333333 6:-1 7:-1 8:-1 9:-1 10:-0.0370981 
-1 1:0.666667 2:-1 3:-0.713043 4:-1 5:0.333333 7:-1 8:-1 9:-1 10:0.0173124 
-1 1:0.666667 2:-1 3:-0.713043 4:-1 5:0.333333 6:1 7:-1 8:-1 9:-1 10:0.012366 
-1 1:0.666667 2:-1 3:-0.713043 4:-1 5:1 6:-1 7:-1 8:-1 9:-1 10:0.142622 
-1 1:0.666667 2:-1 3:-0.713043 4:-1 5:1 7:-1 8:-1 9:-1 10:0.165705 
-1 1:0.666667 2:-1 3:-0.713043 4:-1 5:1 6:1 7:-1 8:-1 9:-1 10:0.0239077 
-1 1:1 2:-1 3:-0.73913 4:-1 5:-1 6:-1 7:-1 8:-1 9:-1 10:-0.858203 
-1 1:1 2:-1 3:-0.73913 4:-1 5:-1 7:-1 8:-1 9:-1 10:-0.795548 
-1 1:1 2:-1 3:-0.73913 4:-1 5:-1 6:1 7:-1 8:-1 9:-1 10:-0.732894 
-1 1:1 2:-1 3:-0.73913 4:-1 5:-0.333333 6:-1 7:-1 8:-1 9:-1 10:-0.396538 
-1 1:1 2:-1 3:-0.73913 4:-1 5:-0.333333 7:-1 8:-1 9:-1 10:-0.360264 
-1 1:1 2:-1 3:-0.73913 4:-1 5:-0.333333 6:1 7:-1 8:-1 9:-1 10:-0.201979 
-1 1:1 2:-1 3:-0.695652 4:-1 5:0.333333 6:-1 7:-1 8:-1 9:-1 10:-0.0486397 
-1 1:1 2:-1 3:-0.695652 4:-1 5:0.333333 7:-1 8:-1 9:-1 10:-0.000824402 
-1 1:1 2:-1 3:-0.695652 4:-1 5:0.333333 6:1 7:-1 8:-1 9:-1 10:0.0750206 
-1 1:1 2:-1 3:-0.695652 4:-1 5:1 6:-1 7:-1 8:-1 9:-1 10:0.0700742 
-1 1:1 2:-1 3:-0.695652 4:-1 5:1 7:-1 8:-1 9:-1 10:0.0700742 
-1 1:1 2:-1 3:-0.695652 4:-1 5:1 6:1 7:-1 8:-1 9:-1 10:-0.0667766 
-1 1:-1 2:-1 3:-0.704348 4:-1 5:-1 6:-1 7:-1 8:-1 9:-1 10:-0.934707 
-1 1:-1 2:-1 3:-0.704348 4:-1 5:-1 7:-1 8:-1 9:-1 10:-0.786974 
-1 1:-1 2:-1 3:-0.704348 4:-1 5:-1 6:1 7:-1 8:-1 9:-1 10:-0.665622 
-1 1:-1 2:-1 3:-0.704348 4:-1 5:-0.333333 6:-1 7:-1 8:-1 9:-1 10:-0.480956 
-1 1:-1 2:-1 3:-0.704348 4:-1 5:-0.333333 7:-1 8:-1 9:-1 10:-0.451937 
1 1:-1 2:-1 3:-0.704348 4:-1 5:-0.333333 6:1 7:-1 8:-1 9:-1 10:-0.298928 
-1 1:-1 2:-1 3:-0.782609 4:-1 5:0.333333 6:-1 7:-1 8:-1 9:-1 10:-0.185491 
-1 1:-1 2:-1 3:-0.782609 4:-1 5:0.333333 7:-1 8:-1 9:-1 10:-0.138005 
-1 1:-1 2:-1 3:-0.782609 4:-1 5:0.333333 6:1 7:-1 8:-1 9:-1 10:-0.153833 
-1 1:-1 2:-1 3:-0.782609 4:-1 5:1 6:-1 7:-1 8:-1 9:-1 10:-0.330585 
-1 1:-1 2:-1 3:-0.782609 4:-1 5:1 7:-1 8:-1 9:-1 10:-0.189448 
-1 1:-1 2:-1 3:-0.782609 4:-1 5:1 6:1 7:-1 8:-1 9:-1 10:-0.293652 
-1 1:-0.666667 2:-1 3:-0.573913 4:-1 5:-1 6:-1 7:-1 8:-1 9:-1 10:-0.904369 
-1 1:-0.666667 2:-1 3:-0.573913 4:-1 5:-1 7:-1 8:-1 9:-1 10:-0.739489 
-1 1:-0.666667 2:-1 3:-0.573913 4:-1 5:-1 6:1 7:-1 8:-1 9:-1 10:-0.607585 
-1 1:-0.666667 2:-1 3:-0.573913 4:-1 5:-0.333333 6:-1 7:-1 8:-1 9:-1 10:-0.403133 
-1 1:-0.666667 2:-1 3:-0.573913 4:-1 5:-0.333333 7:-1 8:-1 9:-1 10:-0.347073 
-1 1:-0.666667 2:-1 3:-0.573913 4:-1 5:-0.333333 6:1 7:-1 8:-1 9:-1 10:-0.294312 
-1 1:-0.666667 2:-1 3:-0.66087 4:-1 5:0.333333 6:-1 7:-1 8:-1 9:-1 10:-0.0107172 
-1 1:-0.666667 2:-1 3:-0.66087 4:-1 5:0.333333 7:-1 8:-1 9:-1 10:0.0370981 
-1 1:-0.666667 2:-1 3:-0.66087 4:-1 5:0.333333 6:1 7:-1 8:-1 9:-1 10:0.0206101 
-1 1:-0.666667 2:-1 3:-0.66087 4:-1 5:1 6:-1 7:-1 8:-1 9:-1 10:0.0766694 
-1 1:-0.666667 2:-1 3:-0.66087 4:-1 5:1 6:1 7:-1 8:-1 9:-1 10:0.0568838 
-1 1:-0.333333 2:-1 3:-0.66087 4:-1 5:-1 6:-1 7:-1 8:-1 9:-1 10:-0.755977 
-1 1:-0.333333 2:-1 3:-0.66087 4:-1 5:-1 7:-1 8:-1 9:-1 10:-0.574608 
-1 1:-0.333333 2:-1 3:-0.66087 4:-1 5:-1 6:1 7:-1 8:-1 9:-1 10:-0.399835 
-1 1:-0.333333 2:-1 3:-0.66087 4:-1 5:-0.333333 6:-1 7:-1 8:-1 9:-1 10:-0.215169 
-1 1:-0.333333 2:-1 3:-0.66087 4:-1 5:-0.333333 7:-1 8:-1 9:-1 10:-0.201979 
-1 1:-0.333333 2:-1 3:-0.66087 4:-1 5:-0.333333 6:1 7:-1 8:-1 9:-1 10:0.0750206 
-1 1:-0.333333 2:-1 3:-0.608696 4:-1 5:0.333333 6:-1 7:-1 8:-1 9:-1 10:0.243199 
-1 1:-0.333333 2:-1 3:-0.608696 4:-1 5:0.333333 7:-1 8:-1 9:-1 10:0.355317 
-1 1:-0.333333 2:-1 3:-0.608696 4:-1 5:0.333333 6:1 7:-1 8:-1 9:-1 10:0.167354 
-1 1:-0.333333 2:-1 3:-0.608696 4:-1 5:1 6:-1 7:-1 8:-1 9:-1 10:0.193735 
-1 1:-0.333333 2:-1 3:-0.608696 4:-1 5:1 7:-1 8:-1 9:-1 10:0.244847 
-1 1:-0.333333 2:-1 3:-0.608696 4:-1 5:1 6:1 7:-1 8:-1 9:-1 10:0.0601814 
-1 2:-1 3:-0.6 4:-1 5:-1 6:-1 7:-1 8:-1 9:-1 10:-0.907667 
-1 2:-1 3:-0.6 4:-1 5:-1 7:-1 8:-1 9:-1 10:-0.851608 
-1 2:-1 3:-0.6 4:-1 5:-1 6:1 7:-1 8:-1 9:-1 10:-0.62737 
1 2:-1 3:-0.6 4:-1 5:-0.333333 6:-1 7:-1 8:-1 9:-1 10:-0.604287 
-1 2:-1 3:-0.6 4:-1 5:-0.333333 7:-1 8:-1 9:-1 10:-0.396538 
1 2:-1 3:-0.6 4:-1 5:-0.333333 6:1 7:-1 8:-1 9:-1 10:-0.330585 
1 2:-1 3:-0.591304 4:-1 5:0.333333 6:-1 7:-1 8:-1 9:-1 10:-0.0766694 
-1 2:-1 3:-0.591304 4:-1 5:0.333333 6:1 7:-1 8:-1 9:-1 10:-0.0783182 
-1 2:-1 3:-0.591304 4:-1 5:1 6:-1 7:-1 8:-1 9:-1 10:-0.0305029 
-1 2:-1 3:-0.591304 4:-1 5:1 7:-1 8:-1 9:-1 10:-0.0140148 
-1 2:-1 3:-0.591304 4:-1 5:1 6:1 7:-1 8:-1 9:-1 10:-0.079967 
-1 1:0.333333 2:-1 3:-0.765217 4:-1 5:-1 6:-1 7:-1 8:-1 9:-1 10:-0.897774 
-1 1:0.333333 2:-1 3:-0.765217 4:-1 5:-1 7:-1 8:-1 9:-1 10:-0.795548 
-1 1:0.333333 2:-1 3:-0.765217 4:-1 5:-1 6:1 7:-1 8:-1 9:-1 10:-0.637263 
-1 1:0.333333 2:-1 3:-0.765217 4:-1 5:-0.333333 6:-1 7:-1 8:-1 9:-1 10:-0.574608 
-1 1:0.333333 2:-1 3:-0.765217 4:-1 5:-0.333333 7:-1 8:-1 9:-1 10:-0.449299 
-1 1:0.333333 2:-1 3:-0.765217 4:-1 5:-0.333333 6:1 7:-1 8:-1 9:-1 10:-0.46249 
-1 1:0.333333 2:-1 3:-0.486957 4:-1 5:0.333333 6:-1 7:-1 8:-1 9:-1 10:-0.11789 
-1 1:0.333333 2:-1 3:-0.486957 4:-1 5:0.333333 7:-1 8:-1 9:-1 10:0.00412201 
-1 1:0.333333 2:-1 3:-0.486957 4:-1 5:0.333333 6:1 7:-1 8:-1 9:-1 10:0.055235 
-1 1:0.333333 2:-1 3:-0.486957 4:-1 5:1 6:-1 7:-1 8:-1 9:-1 10:0.0766694 
-1 1:0.333333 2:-1 3:-0.486957 4:-1 5:1 7:-1 8:-1 9:-1 10:0.111294 
1 1:0.333333 2:-1 3:-0.486957 4:-1 5:1 6:1 7:-1 8:-1 9:-1 10:0.00906843 
-1 1:0.666667 2:-1 3:-0.626087 4:-1 5:-1 6:-1 7:-1 8:-0.963636 9:-1 10:-0.356966 
-1 1:0.666667 2:-1 3:-0.626087 4:-1 5:-1 7:-1 8:-0.963636 9:-1 10:-0.136026 
-1 1:0.666667 2:-1 3:-0.626087 4:-1 5:-1 6:1 7:-1 8:-0.963636 9:-1 10:0.00247321 
1 1:0.666667 2:-1 3:-0.626087 4:-1 5:-0.333333 6:-1 7:-1 8:-0.963636 9:-1 10:0.0222589 
1 1:0.666667 2:-1 3:-0.626087 4:-1 5:-0.333333 7:-1 8:-0.963636 9:-1 10:0.0585326 
-1 1:0.666667 2:-1 3:-0.626087 4:-1 5:-0.333333 6:1 7:-1 8:-0.963636 9:-1 10:-0.0239077 
1 1:0.666667 2:-1 3:-0.469565 4:-1 5:0.333333 6:-1 7:-1 8:-1 9:-1 10:-0.0370981 
1 1:0.666667 2:-1 3:-0.469565 4:-1 5:0.333333 7:-1 8:-1 9:-1 10:0.0173124 
-1 1:0.666667 2:-1 3:-0.469565 4:-1 5:0.333333 6:1 7:-1 8:-1 9:-1 10:0.012366 
-1 1:0.666667 2:-1 3:-0.469565 4:-1 5:1 6:-1 7:-1 8:-1 9:-1 10:0.142622 
-1 1:0.666667 2:-1 3:-0.469565 4:-1 5:1 7:-1 8:-1 9:-1 10:0.165705 
-1 1:0.666667 2:-1 3:-0.469565 4:-1 5:1 6:1 7:-1 8:-1 9:-1 10:0.0239077 
-1 1:1 2:-1 3:-0.565217 4:-1 5:-1 6:-1 7:-1 8:-1 9:-1 10:-0.858203 
-1 1:1 2:-1 3:-0.565217 4:-1 5:-1 7:-1 8:-1 9:-1 10:-0.795548 
-1 1:1 2:-1 3:-0.565217 4:-1 5:-1 6:1 7:-1 8:-1 9:-1 10:-0.732894 
-1 1:1 2:-1 3:-0.565217 4:-1 5:-0.333333 6:-1 7:-1 8:-1 9:-1 10:-0.396538 
-1 1:1 2:-1 3:-0.565217 4:-1 5:-0.333333 7:-1 8:-1 9:-1 10:-0.360264 
-1 1:1 2:-1 3:-0.565217 4:-1 5:-0.333333 6:1 7:-1 8:-1 9:-1 10:-0.201979 
1 1:1 2:-1 3:-0.426087 4:-1 5:0.333333 6:-1 7:-1 8:-1 9:-1 10:-0.0486397 
1 1:1 2:-1 3:-0.426087 4:-1 5:0.333333 7:-1 8:-1 9:-1 10:-0.000824402 
-1 1:1 2:-1 3:-0.426087 4:-1 5:0.333333 6:1 7:-1 8:-1 9:-1 10:0.0750206 
-1 1:1 2:-1 3:-0.426087 4:-1 5:1 6:-1 7:-1 8:-1 9:-1 10:0.0700742 
-1 1:1 2:-1 3:-0.426087 4:-1 5:1 7:-1 8:-1 9:-1 10:0.0700742 
-1 1:1 2:-1 3:-0.426087 4:-1 5:1 6:1 7:-1 8:-1 9:-1 10:-0.0667766 
-1 1:-1 2:-1 3:-0.53913 4:-1 5:-1 6:-1 7:-1 8:-1 9:-1 10:-0.934707 
-1 1:-1 2:-1 3:-0.53913 4:-1 5:-1 7:-1 8:-1 9:-1 10:-0.786974 
-1 1:-1 2:-1 3:-0.53913 4:-1 5:-1 6:1 7:-1 8:-1 9:-1 10:-0.665622 
-1 1:-1 2:-1 3:-0.53913 4:-1 5:-0.333333 6:-1 7:-1 8:-1 9:-1 10:-0.480956 
-1 1:-1 2:-1 3:-0.53913 4:-1 5:-0.333333 7:-1 8:-1 9:-1 10:-0.451937 
-1 1:-1 2:-1 3:-0.53913 4:-1 5:-0.333333 6:1 7:-1 8:-1 9:-1 10:-0.298928 
-1 1:-1 2:-1 3:-0.66087 4:-1 5:0.333333 6:-1 7:-1 8:-1 9:-1 10:-0.185491 
-1 1:-1 2:-1 3:-0.66087 4:-1 5:0.333333 7:-1 8:-1 9:-1 10:-0.138005 
-1 1:-1 2:-1 3:-0.66087 4:-1 5:0.333333 6:1 7:-1 8:-1 9:-1 10:-0.153833 
-1 1:-1 2:-1 3:-0.66087 4:-1 5:1 6:-1 7:-1 8:-1 9:-1 10:-0.330585 
-1 1:-1 2:-1 3:-0.66087 4:-1 5:1 7:-1 8:-1 9:-1 10:-0.189448 
-1 1:-1 2:-1 3:-0.66087 4:-1 5:1 6:1 7:-1 8:-1 9:-1 10:-0.293652 
1 1:-1 2:-1 4:1 5:-1 6:-1 7:-1 8:-1 9:-0.9 10:-0.718384 
1 1:-1 2:-1 4:1 5:-1 7:-1 8:-1 9:-0.9 10:-0.454575 
1 1:-1 2:-1 4:1 5:-1 6:1 7:-1 8:-1 9:-0.9 10:-0.380709 
1 1:-1 2:-1 4:1 5:-0.333333 6:-1 7:-1 8:-1 9:-0.9 10:-0.214509 
1 1:-1 2:-1 4:1 5:-0.333333 7:-1 8:-1 9:-0.9 10:0.0202803 
1 1:-1 2:-1 4:1 5:-0.333333 6:1 7:-1 8:-1 9:-0.9 10:0.228689 
1 1:-1 2:-1 3:-0.0173913 4:1 5:0.333333 6:-1 7:-1 8:-1 9:-1 10:0.0215993 
1 1:-1 2:-1 3:-0.0173913 4:1 5:0.333333 7:-1 8:-1 9:-1 10:0.0585326 
1 1:-1 2:-1 3:-0.0173913 4:1 5:0.333333 6:1 7:-1 8:-1 9:-1 10:-0.0153339 
-1 1:-1 2:-1 3:-0.0173913 4:1 5:1 6:-1 7:-1 8:-1 9:-1 10:0.156142 
1 1:-1 2:-1 3:-0.0173913 4:1 5:1 7:-1 8:-1 9:-1 10:0.136356 
-1 1:-1 2:-1 3:-0.0173913 4:1 5:1 6:1 7:-1 8:-1 9:-1 10:0.0651278 
1 1:-0.666667 2:-1 3:0.182609 4:1 5:-1 6:-1 7:-1 8:-1 9:-1 10:-0.68343 
1 1:-0.666667 2:-1 3:0.182609 4:1 5:-1 7:-1 8:-1 9:-1 10:-0.498763 
1 1:-0.666667 2:-1 3:0.182609 4:1 5:-1 6:1 7:-1 8:-1 9:-1 10:-0.386645 
1 1:-0.666667 2:-1 3:0.182609 4:1 5:-0.333333 6:-1 7:-1 8:-1 9:-1 10:-0.307502 
1 1:-0.666667 2:-1 3:0.182609 4:1 5:-0.333333 7:-1 8:-1 9:-1 10:-0.0206101 
1 1:-0.666667 2:-1 3:0.182609 4:1 5:-0.333333 6:1 7:-1 8:-1 9:-1 10:0.055235 
1 1:-0.666667 2:-1 3:-0.2 4:1 5:0.333333 6:-1 7:-1 8:-1 9:-1 10:0.0206101 
1 1:-0.666667 2:-1 3:-0.2 4:1 5:0.333333 7:-1 8:-1 9:-1 10:-0.0272053 
1 1:-0.666667 2:-1 3:-0.2 4:1 5:0.333333 6:1 7:-1 8:-1 9:-1 10:0.00577082 
1 1:-0.666667 2:-1 3:-0.2 4:1 5:1 6:-1 7:-1 8:-1 9:-1 10:0.0288541 
-1 1:-0.666667 2:-1 3:-0.2 4:1 5:1 7:-1 8:-1 9:-1 10:-0.0486397 
-1 1:-0.666667 2:-1 3:-0.2 4:1 5:1 6:1 7:-1 8:-1 9:-1 10:0.0519373 
-1 1:-0.333333 2:-1 3:-0.165217 4:1 5:-1 6:-1 7:-1 8:-1 9:-1 10:-0.729596 
-1 1:-0.333333 2:-1 3:-0.165217 4:1 5:-1 7:-1 8:-1 9:-1 10:-0.531739 
1 1:-0.333333 2:-1 3:-0.165217 4:1 5:-1 6:1 7:-1 8:-1 9:-1 10:-0.436109 
1 1:-0.333333 2:-1 3:-0.165217 4:1 5:-0.333333 6:-1 7:-1 8:-1 9:-1 10:-0.294312 
1 1:-0.333333 2:-1 3:-0.165217 4:1 5:-0.333333 7:-1 8:-1 9:-1 10:-0.274526 
1 1:-0.333333 2:-1 3:-0.165217 4:1 5:-0.333333 6:1 7:-1 8:-1 9:-1 10:-0.0535862 
1 1:-0.333333 2:-1 3:-0.173913 4:1 5:0.333333 6:-1 7:-1 8:-1 9:-1 10:-0.114592 
1 1:-0.333333 2:-1 3:-0.173913 4:1 5:0.333333 7:-1 8:-1 9:-1 10:-0.0667766 
1 1:-0.333333 2:-1 3:-0.173913 4:1 5:0.333333 6:1 7:-1 8:-1 9:-1 10:-0.0733718 
-1 1:-0.333333 2:-1 3:-0.173913 4:1 5:1 6:-1 7:-1 8:-1 9:-1 10:0.0107172 
1 1:-0.333333 2:-1 3:-0.173913 4:1 5:1 7:-1 8:-1 9:-1 10:-0.0469909 
1 1:-0.333333 2:-1 3:-0.173913 4:1 5:1 6:1 7:-1 8:-1 9:-1 10:-0.0535862 
1 2:-1 3:-0.156522 4:1 5:-1 6:-1 7:-1 8:-1 9:-1 10:-0.699918 
-1 2:-1 3:-0.156522 4:1 5:-1 7:-1 8:-1 9:-1 10:-0.604287 
1 2:-1 3:-0.156522 4:1 5:-1 6:1 7:-1 8:-1 9:-1 10:-0.409728 
1 2:-1 3:-0.156522 4:1 5:-0.333333 6:-1 7:-1 8:-1 9:-1 10:-0.416323 
1 2:-1 3:-0.156522 4:1 5:-0.333333 7:-1 8:-1 9:-1 10:-0.258038 
1 2:-1 3:-0.156522 4:1 5:-0.333333 6:1 7:-1 8:-1 9:-1 10:-0.139324 
1 2:-1 3:-0.0434783 4:1 5:0.333333 6:-1 7:-1 8:-1 9:-1 10:-0.152514 
1 2:-1 3:-0.0434783 4:1 5:0.333333 7:-1 8:-1 9:-1 10:-0.139324 
1 2:-1 3:-0.0434783 4:1 5:0.333333 6:1 7:-1 8:-1 9:-1 10:-0.0519373 
1 2:-1 3:-0.0434783 4:1 5:1 6:-1 7:-1 8:-1 9:-1 10:-0.0915087 
1 2:-1 3:-0.0434783 4:1 5:1 7:-1 8:-1 9:-1 10:-0.00906843 
1 2:-1 3:-0.0434783 4:1 5:1 6:1 7:-1 8:-1 9:-1 10:-0.0964551 
1 1:0.333333 2:-1 3:-0.217391 4:1 5:-1 6:-1 7:-1 8:-1 9:-1 10:-0.759275 
1 1:0.333333 2:-1 3:-0.217391 4:1 5:-1 7:-1 8:-1 9:-1 10:-0.541632 
1 1:0.333333 2:-1 3:-0.217391 4:1 5:-1 6:1 7:-1 8:-1 9:-1 10:-0.449299 
1 1:0.333333 2:-1 3:-0.217391 4:1 5:-0.333333 6:-1 7:-1 8:-1 9:-1 10:-0.320692 
1 1:0.333333 2:-1 3:-0.217391 4:1 5:-0.333333 7:-1 8:-1 9:-1 10:-0.15911 
1 1:0.333333 2:-1 3:-0.217391 4:1 5:-0.333333 6:1 7:-1 8:-1 9:-1 10:-0.0338005 
1 1:0.333333 2:-1 3:-0.0434783 4:1 5:0.333333 6:-1 7:-1 8:-1 9:-1 10:0.0370981 
1 1:0.333333 2:-1 3:-0.0434783 4:1 5:0.333333 7:-1 8:-1 9:-1 10:0.0222589 
1 1:0.333333 2:-1 3:-0.0434783 4:1 5:0.333333 6:1 7:-1 8:-1 9:-1 10:0.0370981 
1 1:0.333333 2:-1 3:-0.0434783 4:1 5:1 6:-1 7:-1 8:-1 9:-1 10:0.0140148 
1 1:0.333333 2:-1 3:-0.0434783 4:1 5:1 7:-1 8:-1 9:-1 10:0.079967 
1 1:0.333333 2:-1 3:-0.0434783 4:1 5:1 6:1 7:-1 8:-1 9:-1 10:0.0420445 
-1 1:0.666667 2:-1 3:-0.104348 4:1 5:-1 6:-1 7:-1 8:-1 9:-1 10:-0.76587 
-1 1:0.666667 2:-1 3:-0.104348 4:1 5:-1 7:-1 8:-1 9:-1 10:-0.624073 
1 1:0.666667 2:-1 3:-0.104348 4:1 5:-1 6:1 7:-1 8:-1 9:-1 10:-0.518549 
-1 1:0.666667 2:-1 3:-0.104348 4:1 5:-0.333333 6:-1 7:-1 8:-1 9:-1 10:-0.469085 
-1 1:0.666667 2:-1 3:-0.104348 4:1 5:-0.333333 7:-1 8:-1 9:-1 10:-0.340478 
-1 1:0.666667 2:-1 3:-0.104348 4:1 5:-0.333333 6:1 7:-1 8:-1 9:-1 10:-0.218467 
1 1:0.666667 2:-1 3:-0.243478 4:1 5:0.333333 6:-1 7:-1 8:-1 9:-1 10:-0.211871 
1 1:0.666667 2:-1 3:-0.243478 4:1 5:0.333333 7:-1 8:-1 9:-1 10:-0.106348 
1 1:0.666667 2:-1 3:-0.243478 4:1 5:0.333333 6:1 7:-1 8:-1 9:-1 10:-0.101401 
1 1:0.666667 2:-1 3:-0.243478 4:1 5:1 6:-1 7:-1 8:-1 9:-1 10:-0.134378 
1 1:0.666667 2:-1 3:-0.243478 4:1 5:1 7:-1 8:-1 9:-1 10:-0.243199 
-1 1:0.666667 2:-1 3:-0.243478 4:1 5:1 6:1 7:-1 8:-1 9:-1 10:-0.139324 
1 1:1 2:-1 3:-0.46087 4:1 5:-1 6:-1 7:-1 8:-1 9:-1 10:-0.749382 
1 1:1 2:-1 3:-0.46087 4:1 5:-1 7:-1 8:-1 9:-1 10:-0.653751 
1 1:1 2:-1 3:-0.46087 4:1 5:-1 6:1 7:-1 8:-1 9:-1 10:-0.528442 
1 1:1 2:-1 3:-0.46087 4:1 5:-0.333333 6:-1 7:-1 8:-1 9:-1 10:-0.538335 
1 1:1 2:-1 3:-0.46087 4:1 5:-0.333333 7:-1 8:-1 9:-1 10:-0.386645 
1 1:1 2:-1 3:-0.46087 4:1 5:-0.333333 6:1 7:-1 8:-1 9:-1 10:-0.429514 
1 1:1 2:-1 3:0.0173913 4:1 5:0.333333 6:-1 7:-1 8:-1 9:-1 10:-0.190437 
1 1:1 2:-1 3:0.0173913 4:1 5:0.333333 7:-1 8:-1 9:-1 10:-0.111294 
-1 1:1 2:-1 3:0.0173913 4:1 5:0.333333 6:1 7:-1 8:-1 9:-1 10:-0.129431 
-1 1:1 2:-1 3:0.0173913 4:1 5:1 6:-1 7:-1 8:-1 9:-1 10:-0.0568838 
-1 1:1 2:-1 3:0.0173913 4:1 5:1 7:-1 8:-1 9:-1 10:-0.0898599 
-1 1:1 2:-1 3:0.0173913 4:1 5:1 6:1 7:-1 8:-1 9:-1 10:-0.0964551 
1 1:-1 2:-1 3:-0.0173913 4:1 5:-1 6:-1 7:-1 8:-1 9:-1 10:-0.718384 
-1 1:-1 2:-1 3:-0.0173913 4:1 5:-1 7:-1 8:-1 9:-1 10:-0.454575 
1 1:-1 2:-1 3:-0.0173913 4:1 5:-1 6:1 7:-1 8:-1 9:-1 10:-0.380709 
1 1:-1 2:-1 3:-0.0173913 4:1 5:-0.333333 6:-1 7:-1 8:-1 9:-1 10:-0.214509 
1 1:-1 2:-1 3:-0.0173913 4:1 5:-0.333333 7:-1 8:-1 9:-1 10:0.0202803 
1 1:-1 2:-1 3:-0.0173913 4:1 5:-0.333333 6:1 7:-1 8:-1 9:-1 10:0.228689 
1 1:-1 2:-1 3:-0.130435 4:1 5:0.333333 6:-1 7:-1 8:-1 9:-1 10:0.0215993 
1 1:-1 2:-1 3:-0.130435 4:1 5:0.333333 7:-1 8:-1 9:-1 10:0.0585326 
1 1:-1 2:-1 3:-0.130435 4:1 5:0.333333 6:1 7:-1 8:-1 9:-1 10:-0.0153339 
-1 1:-1 2:-1 3:-0.130435 4:1 5:1 6:-1 7:-1 8:-1 9:-1 10:0.156142 
1 1:-1 2:-1 3:-0.130435 4:1 5:1 7:-1 8:-1 9:-1 10:0.136356 
-1 1:-1 2:-1 3:-0.130435 4:1 5:1 6:1 7:-1 8:-1 9:-1 10:0.0651278 
1 1:-0.666667 2:-1 3:-0.0434783 4:1 5:-1 6:-1 7:-1 8:-1 9:-1 10:-0.68343 
1 1:-0.666667 2:-1 3:-0.0434783 4:1 5:-1 7:-1 8:-1 9:-1 10:-0.498763 
1 1:-0.666667 2:-1 3:-0.0434783 4:1 5:-1 6:1 7:-1 8:-1 9:-1 10:-0.386645 
1 1:-0.666667 2:-1 3:-0.0434783 4:1 5:-0.333333 6:-1 7:-1 8:-1 9:-1 10:-0.307502 
-1 1:-0.666667 2:-1 3:-0.0434783 4:1 5:-0.333333 7:-1 8:-1 9:-1 10:-0.0206101 
-1 1:-0.666667 2:-1 3:-0.0434783 4:1 5:-0.333333 6:1 7:-1 8:-1 9:-1 10:0.055235 
1 1:-0.666667 2:-1 3:0.00869565 4:1 5:0.333333 6:-1 7:-1 8:-1 9:0.2 10:0.0206101 
1 1:-0.666667 2:-1 3:0.00869565 4:1 5:0.333333 7:-1 8:-1 9:0.2 10:-0.0272053 
1 1:-0.666667 2:-1 3:0.00869565 4:1 5:0.333333 6:1 7:-1 8:-1 9:0.2 10:0.00577082 
-1 1:-0.666667 2:-1 3:0.00869565 4:1 5:1 6:-1 7:-1 8:-1 9:0.2 10:0.0288541 
1 1:-0.666667 2:-1 3:0.00869565 4:1 5:1 7:-1 8:-1 9:0.2 10:-0.0486397 
-1 1:-0.666667 2:-1 3:0.00869565 4:1 5:1 6:1 7:-1 8:-1 9:0.2 10:0.0519373 
-1 1:-0.333333 2:-1 3:-0.0869565 4:1 5:-1 6:-1 7:-1 8:1 9:0.3 10:-0.729596 
1 1:-0.333333 2:-1 3:-0.0869565 4:1 5:-1 7:-1 8:1 9:0.3 10:-0.531739 
1 1:-0.333333 2:-1 3:-0.0869565 4:1 5:-1 6:1 7:-1 8:1 9:0.3 10:-0.436109 
1 1:-0.333333 2:-1 3:-0.0869565 4:1 5:-0.333333 6:-1 7:-1 8:1 9:0.3 10:-0.294312 
1 1:-0.333333 2:-1 3:-0.0869565 4:1 5:-0.333333 7:-1 8:1 9:0.3 10:-0.274526 
1 1:-0.333333 2:-1 3:-0.0869565 4:1 5:-0.333333 6:1 7:-1 8:1 9:0.3 10:-0.0535862 
1 1:-0.333333 2:-1 3:-0.347826 4:1 5:0.333333 6:-1 7:-1 8:-0.345455 9:0.2 10:-0.114592 
1 1:-0.333333 2:-1 3:-0.347826 4:1 5:0.333333 7:-1 8:-0.345455 9:0.2 10:-0.0667766 
1 1:-0.333333 2:-1 3:-0.347826 4:1 5:0.333333 6:1 7:-1 8:-0.345455 9:0.2 10:-0.0733718 
1 1:-0.333333 2:-1 3:-0.347826 4:1 5:1 6:-1 7:-1 8:-0.345455 9:0.2 10:0.0107172 
1 1:-0.333333 2:-1 3:-0.347826 4:1 5:1 7:-1 8:-0.345455 9:0.2 10:-0.0469909 
-1 1:-0.333333 2:-1 3:-0.347826 4:1 5:1 6:1 7:-1 8:-0.345455 9:0.2 10:-0.0535862 
0.01289219338961869 2:-1 3:-0.304348 4:1 5:-1 6:-1 7:-1 8:-0.963636 9:0.4 10:-0.699918 
1 2:-1 3:-0.304348 4:1 5:-1 7:-1 8:-0.963636 9:0.4 10:-0.604287 
1 2:-1 3:-0.304348 4:1 5:-1 6:1 7:-1 8:-0.963636 9:0.4 10:-0.409728 
1 2:-1 3:-0.304348 4:1 5:-0.333333 6:-1 7:-1 8:-0.963636 9:0.4 10:-0.416323 
1 2:-1 3:-0.304348 4:1 5:-0.333333 7:-1 8:-0.963636 9:0.4 10:-0.258038 
-1 2:-1 3:-0.304348 4:1 5:-0.333333 6:1 7:-1 8:-0.963636 9:0.4 10:-0.139324 
1 2:-1 3:-0.321739 4:1 5:0.333333 6:-1 7:-1 8:-0.890909 9:-0.8 10:-0.152514 
1 2:-1 3:-0.321739 4:1 5:0.333333 7:-1 8:-0.890909 9:-0.8 10:-0.139324 
1 2:-1 3:-0.321739 4:1 5:0.333333 6:1 7:-1 8:-0.890909 9:-0.8 10:-0.0519373 
1 2:-1 3:-0.321739 4:1 5:1 6:-1 7:-1 8:-0.890909 9:-0.8 10:-0.0915087 
1 2:-1 3:-0.321739 4:1 5:1 7:-1 8:-0.890909 9:-0.8 10:-0.00906843 
1 2:-1 3:-0.321739 4:1 5:1 6:1 7:-1 8:-0.890909 9:-0.8 10:-0.0964551 
1 1:0.333333 2:-1 3:-0.2 4:1 5:-1 6:-1 7:-1 8:-1 9:-1 10:-0.759275 
1 1:0.333333 2:-1 3:-0.2 4:1 5:-1 7:-1 8:-1 9:-1 10:-0.541632 
1 1:0.333333 2:-1 3:-0.2 4:1 5:-1 6:1 7:-1 8:-1 9:-1 10:-0.449299 
1 1:0.333333 2:-1 3:-0.2 4:1 5:-0.333333 6:-1 7:-1 8:-1 9:-1 10:-0.320692 
1 1:0.333333 2:-1 3:-0.2 4:1 5:-0.333333 7:-1 8:-1 9:-1 10:-0.15911 
1 1:0.333333 2:-1 3:-0.2 4:1 5:-0.333333 6:1 7:-1 8:-1 9:-1 10:-0.0338005 
-1 1:0.333333 2:-1 3:-0.13913 4:1 5:0.333333 6:-1 7:-1 8:-1 9:-1 10:0.0370981 
-1 1:0.333333 2:-1 3:-0.13913 4:1 5:0.333333 7:-1 8:-1 9:-1 10:0.0222589 
1 1:0.333333 2:-1 3:-0.13913 4:1 5:0.333333 6:1 7:-1 8:-1 9:-1 10:0.0370981 
-1 1:0.333333 2:-1 3:-0.13913 4:1 5:1 6:-1 7:-1 8:-1 9:-1 10:0.0140148 
-1 1:0.333333 2:-1 3:-0.13913 4:1 5:1 7:-1 8:-1 9:-1 10:0.079967 
-1 1:0.333333 2:-1 3:-0.13913 4:1 5:1 6:1 7:-1 8:-1 9:-1 10:0.0420445 
-1 1:0.666667 2:-1 3:-0.93913 4:1 5:-1 6:-1 7:1 8:-1 9:-1 10:-0.76587 
-1 1:0.666667 2:-1 3:-0.93913 4:1 5:-1 7:1 8:-1 9:-1 10:-0.624073 
-1 1:0.666667 2:-1 3:-0.93913 4:1 5:-1 6:1 7:1 8:-1 9:-1 10:-0.518549 
-1 1:0.666667 2:-1 3:-0.93913 4:1 5:-0.333333 6:-1 7:1 8:-1 9:-1 10:-0.469085 
-1 1:0.666667 2:-1 3:-0.93913 4:1 5:-0.333333 7:1 8:-1 9:-1 10:-0.340478 
-1 1:0.666667 2:-1 3:-0.93913 4:1 5:-0.333333 6:1 7:1 8:-1 9:-1 10:-0.218467 
-1 1:0.666667 2:-1 3:-0.947826 4:1 5:0.333333 6:-1 7:1 8:-1 9:-1 10:-0.211871 
-1 1:0.666667 2:-1 3:-0.947826 4:1 5:0.333333 7:1 8:-1 9:-1 10:-0.106348 
-1 1:0.666667 2:-1 3:-0.947826 4:1 5:0.333333 6:1 7:1 8:-1 9:-1 10:-0.101401 
-1 1:0.666667 2:-1 3:-0.947826 4:1 5:1 6:-1 7:1 8:-1 9:-1 10:-0.134378 
-1 1:0.666667 2:-1 3:-0.947826 4:1 5:1 7:1 8:-1 9:-1 10:-0.243199 
-1 1:0.666667 2:-1 3:-0.947826 4:1 5:1 6:1 7:1 8:-1 9:-1 10:-0.139324 
-1 1:1 2:-1 3:-0.843478 4:1 5:-1 6:-1 7:1 8:-1 9:-1 10:-0.749382 
-1 1:1 2:-1 3:-0.843478 4:1 5:-1 7:1 8:-1 9:-1 10:-0.653751 
-1 1:1 2:-1 3:-0.843478 4:1 5:-1 6:1 7:1 8:-1 9:-1 10:-0.528442 
-1 1:1 2:-1 3:-0.843478 4:1 5:-0.333333 6:-1 7:1 8:-1 9:-1 10:-0.538335 
-1 1:1 2:-1 3:-0.843478 4:1 5:-0.333333 7:1 8:-1 9:-1 10:-0.386645 
-1 1:1 2:-1 3:-0.843478 4:1 5:-0.333333 6:1 7:1 8:-1 9:-1 10:-0.429514 
-1 1:1 2:-1 3:-0.904348 4:1 5:0.333333 6:-1 7:1 8:-1 9:-1 10:-0.190437 
-1 1:1 2:-1 3:-0.904348 4:1 5:0.333333 7:1 8:-1 9:-1 10:-0.111294 
-1 1:1 2:-1 3:-0.904348 4:1 5:0.333333 6:1 7:1 8:-1 9:-1 10:-0.129431 
-1 1:1 2:-1 3:-0.904348 4:1 5:1 6:-1 7:1 8:-1 9:-1 10:-0.0568838 
-1 1:1 2:-1 3:-0.904348 4:1 5:1 7:1 8:-1 9:-1 10:-0.0898599 
-1 1:1 2:-1 3:-0.904348 4:1 5:1 6:1 7:1 8:-1 9:-1 10:-0.0964551 
-1 1:-1 2:-1 3:-0.921739 4:1 5:-1 6:-1 7:1 8:-1 9:-1 10:-0.718384 
-1 1:-1 2:-1 3:-0.921739 4:1 5:-1 7:1 8:-1 9:-1 10:-0.454575 
-1 1:-1 2:-1 3:-0.921739 4:1 5:-1 6:1 7:1 8:-1 9:-1 10:-0.380709 
-1 1:-1 2:-1 3:-0.921739 4:1 5:-0.333333 6:-1 7:1 8:-1 9:-1 10:-0.214509 
-1 1:-1 2:-1 3:-0.921739 4:1 5:-0.333333 7:1 8:-1 9:-1 10:0.0202803 
-1 1:-1 2:-1 3:-0.921739 4:1 5:-0.333333 6:1 7:1 8:-1 9:-1 10:0.228689 
-1 1:-1 2:-1 3:-0.913043 4:1 5:0.333333 6:-1 7:1 8:-1 9:-1 10:0.0215993 
-1 1:-1 2:-1 3:-0.913043 4:1 5:0.333333 7:1 8:-1 9:-1 10:0.0585326 
-1 1:-1 2:-1 3:-0.913043 4:1 5:0.333333 6:1 7:1 8:-1 9:-1 10:-0.0153339 
-1 1:-1 2:-1 3:-0.913043 4:1 5:1 6:-1 7:1 8:-1 9:-1 10:0.156142 
-1 1:-1 2:-1 3:-0.913043 4:1 5:1 7:1 8:-1 9:-1 10:0.136356 
-1 1:-1 2:-1 3:-0.913043 4:1 5:1 6:1 7:1 8:-1 9:-1 10:0.0651278 
-1 1:-0.666667 2:-1 3:-0.852174 4:1 5:-1 6:-1 7:1 8:-1 9:-1 10:-0.68343 
-1 1:-0.666667 2:-1 3:-0.852174 4:1 5:-1 7:1 8:-1 9:-1 10:-0.498763 
-1 1:-0.666667 2:-1 3:-0.852174 4:1 5:-1 6:1 7:1 8:-1 9:-1 10:-0.386645 
-1 1:-0.666667 2:-1 3:-0.852174 4:1 5:-0.333333 6:-1 7:1 8:-1 9:-1 10:-0.307502 
-1 1:-0.666667 2:-1 3:-0.852174 4:1 5:-0.333333 7:1 8:-1 9:-1 10:-0.0206101 
-1 1:-0.666667 2:-1 3:-0.852174 4:1 5:-0.333333 6:1 7:1 8:-1 9:-1 10:0.055235 
-1 1:-0.666667 2:-1 3:-0.86087 4:1 5:0.333333 6:-1 7:1 8:-1 9:-1 10:0.0206101 
-1 1:-0.666667 2:-1 3:-0.86087 4:1 5:0.333333 7:1 8:-1 9:-1 10:-0.0272053 
-1 1:-0.666667 2:-1 3:-0.86087 4:1 5:0.333333 6:1 7:1 8:-1 9:-1 10:0.00577082 
-1 1:-0.666667 2:-1 3:-0.86087 4:1 5:1 6:-1 7:1 8:-1 9:-1 10:0.0288541 
-1 1:-0.666667 2:-1 3:-0.86087 4:1 5:1 7:1 8:-1 9:-1 10:-0.0486397 
-1 1:-0.666667 2:-1 3:-0.86087 4:1 5:1 6:1 7:1 8:-1 9:-1 10:0.0519373 
-1 1:-0.333333 2:-1 3:-0.834783 4:1 5:-1 6:-1 7:1 8:-1 9:-1 10:-0.729596 
-1 1:-0.333333 2:-1 3:-0.834783 4:1 5:-1 7:1 8:-1 9:-1 10:-0.531739 
-1 1:-0.333333 2:-1 3:-0.834783 4:1 5:-1 6:1 7:1 8:-1 9:-1 10:-0.436109 
-1 1:-0.333333 2:-1 3:-0.834783 4:1 5:-0.333333 6:-1 7:1 8:-1 9:-1 10:-0.294312 
-1 1:-0.333333 2:-1 3:-0.834783 4:1 5:-0.333333 7:1 8:-1 9:-1 10:-0.274526 
-1 1:-0.333333 2:-1 3:-0.834783 4:1 5:-0.333333 6:1 7:1 8:-1 9:-1 10:-0.0535862 
-1 1:-0.333333 2:-1 3:-0.86087 4:1 5:0.333333 6:-1 7:1 8:-1 9:-1 10:-0.114592 
-1 1:-0.333333 2:-1 3:-0.86087 4:1 5:0.333333 7:1 8:-1 9:-1 10:-0.0667766 
-1 1:-0.333333 2:-1 3:-0.86087 4:1 5:0.333333 6:1 7:1 8:-1 9:-1 10:-0.0733718 
-1 1:-0.333333 2:-1 3:-0.86087 4:1 5:1 6:-1 7:1 8:-1 9:-1 10:0.0107172 
-1 1:-0.333333 2:-1 3:-0.86087 4:1 5:1 7:1 8:-1 9:-1 10:-0.0469909 
-1 1:-0.333333 2:-1 3:-0.86087 4:1 5:1 6:1 7:1 8:-1 9:-1 10:-0.0535862 
-1 2:-1 3:-0.869565 4:1 5:-1 6:-1 7:1 8:-0.709091 9:-1 10:-0.699918 
-1 2:-1 3:-0.869565 4:1 5:-1 7:1 8:-0.709091 9:-1 10:-0.604287 
-1 2:-1 3:-0.869565 4:1 5:-1 6:1 7:1 8:-0.709091 9:-1 10:-0.409728 
-1 2:-1 3:-0.869565 4:1 5:-0.333333 6:-1 7:1 8:-0.709091 9:-1 10:-0.416323 
-1 2:-1 3:-0.869565 4:1 5:-0.333333 7:1 8:-0.709091 9:-1 10:-0.258038 
-1 2:-1 3:-0.869565 4:1 5:-0.333333 6:1 7:1 8:-0.709091 9:-1 10:-0.139324 
-1 2:-1 3:-0.895652 4:1 5:0.333333 6:-1 7:1 8:-1 9:-1 10:-0.152514 
-1 2:-1 3:-0.895652 4:1 5:0.333333 7:1 8:-1 9:-1 10:-0.139324 
-1 2:-1 3:-0.895652 4:1 5:0.333333 6:1 7:1 8:-1 9:-1 10:-0.0519373 
-1 2:-1 3:-0.895652 4:1 5:1 6:-1 7:1 8:-1 9:-1 10:-0.0915087 
-1 2:-1 3:-0.895652 4:1 5:1 7:1 8:-1 9:-1 10:-0.00906843 
-1 2:-1 3:-0.895652 4:1 5:1 6:1 7:1 8:-1 9:-1 10:-0.0964551 
-1 1:0.333333 2:-1 3:-0.765217 4:1 5:-1 6:-1 7:-1 8:-1 9:-1 10:-0.759275 
-1 1:0.333333 2:-1 3:-0.765217 4:1 5:-1 7:-1 8:-1 9:-1 10:-0.541632 
-1 1:0.333333 2:-1 3:-0.765217 4:1 5:-1 6:1 7:-1 8:-1 9:-1 10:-0.449299 
-1 1:0.333333 2:-1 3:-0.765217 4:1 5:-0.333333 6:-1 7:-1 8:-1 9:-1 10:-0.320692 
-1 1:0.333333 2:-1 3:-0.765217 4:1 5:-0.333333 7:-1 8:-1 9:-1 10:-0.15911 
-1 1:0.333333 2:-1 3:-0.765217 4:1 5:-0.333333 6:1 7:-1 8:-1 9:-1 10:-0.0338005 
-1 1:0.333333 2:-1 3:-0.886957 4:1 5:0.333333 6:-1 7:-1 8:-0.0909091 9:1 10:0.0370981 
-1 1:0.333333 2:-1 3:-0.886957 4:1 5:0.333333 7:-1 8:-0.0909091 9:1 10:0.0222589 
-1 1:0.333333 2:-1 3:-0.886957 4:1 5:0.333333 6:1 7:-1 8:-0.0909091 9:1 10:0.0370981 
-1 1:0.333333 2:-1 3:-0.886957 4:1 5:1 6:-1 7:-1 8:-0.0909091 9:1 10:0.0140148 
-1 1:0.333333 2:-1 3:-0.886957 4:1 5:1 7:-1 8:-0.0909091 9:1 10:0.079967 
-1 1:0.333333 2:-1 3:-0.886957 4:1 5:1 6:1 7:-1 8:-0.0909091 9:1 10:0.0420445 
-1 1:0.666667 2:-1 3:-0.208696 4:1 5:-1 6:-1 7:-1 8:-1 9:-1 10:-0.76587 
1 1:0.666667 2:-1 3:-0.208696 4:1 5:-1 7:-1 8:-1 9:-1 10:-0.624073 
-1 1:0.666667 2:-1 3:-0.208696 4:1 5:-1 6:1 7:-1 8:-1 9:-1 10:-0.518549 
1 1:0.666667 2:-1 3:-0.208696 4:1 5:-0.333333 6:-1 7:-1 8:-1 9:-1 10:-0.469085 
-1 1:0.666667 2:-1 3:-0.208696 4:1 5:-0.333333 7:-1 8:-1 9:-1 10:-0.340478 
1 1:0.666667 2:-1 3:-0.208696 4:1 5:-0.333333 6:1 7:-1 8:-1 9:-1 10:-0.218467 
1 1:0.666667 2:-1 3:-0.313043 4:1 5:0.333333 6:-1 7:-1 8:-1 9:-1 10:-0.211871 
1 1:0.666667 2:-1 3:-0.313043 4:1 5:0.333333 7:-1 8:-1 9:-1 10:-0.106348 
1 1:0.666667 2:-1 3:-0.313043 4:1 5:0.333333 6:1 7:-1 8:-1 9:-1 10:-0.101401 
1 1:0.666667 2:-1 3:-0.313043 4:1 5:1 6:-1 7:-1 8:-1 9:-1 10:-0.134378 
1 1:0.666667 2:-1 3:-0.313043 4:1 5:1 7:-1 8:-1 9:-1 10:-0.243199 
-1 1:0.666667 2:-1 3:-0.313043 4:1 5:1 6:1 7:-1 8:-1 9:-1 10:-0.139324 
1 1:1 2:-1 3:-0.217391 4:1 5:-1 6:-1 7:-1 8:-1 9:-1 10:-0.749382 
1 1:1 2:-1 3:-0.217391 4:1 5:-1 7:-1 8:-1 9:-1 10:-0.653751 
1 1:1 2:-1 3:-0.217391 4:1 5:-1 6:1 7:-1 8:-1 9:-1 10:-0.528442 
1 1:1 2:-1 3:-0.217391 4:1 5:-0.333333 6:-1 7:-1 8:-1 9:-1 10:-0.538335 
0.7458766266885308 1:1 2:-1 3:-0.217391 4:1 5:-0.333333 7:-1 8:-1 9:-1 10:-0.386645 
-1 1:1 2:-1 3:-0.217391 4:1 5:-0.333333 6:1 7:-1 8:-1 9:-1 10:-0.429514 
1 1:1 2:-1 3:-0.0434783 4:1 5:0.333333 6:-1 7:-1 8:-1 9:-1 10:-0.190437 
1 1:1 2:-1 3:-0.0434783 4:1 5:0.333333 7:-1 8:-1 9:-1 10:-0.111294 
1 1:1 2:-1 3:-0.0434783 4:1 5:0.333333 6:1 7:-1 8:-1 9:-1 10:-0.129431 
-1 1:1 2:-1 3:-0.0434783 4:1 5:1 6:-1 7:-1 8:-1 9:-1 10:-0.0568838 
1 1:1 2:-1 3:-0.0434783 4:1 5:1 7:-1 8:-1 9:-1 10:-0.0898599 
-1 1:1 2:-1 3:-0.0434783 4:1 5:1 6:1 7:-1 8:-1 9:-1 10:-0.0964551 
-1 1:-1 2:-1 3:0.243478 4:1 5:-1 6:-1 7:-1 8:-1 9:-1 10:-0.718384 
-1 1:-1 2:-1 3:0.243478 4:1 5:-1 7:-1 8:-1 9:-1 10:-0.454575 
-1 1:-1 2:-1 3:0.243478 4:1 5:-1 6:1 7:-1 8:-1 9:-1 10:-0.380709 
1 1:-1 2:-1 3:0.243478 4:1 5:-0.333333 6:-1 7:-1 8:-1 9:-1 10:-0.214509 
1 1:-1 2:-1 3:0.243478 4:1 5:-0.333333 7:-1 8:-1 9:-1 10:0.0202803 
1 1:-1 2:-1 3:0.243478 4:1 5:-0.333333 6:1 7:-1 8:-1 9:-1 10:0.228689 
1 1:-1 2:-1 3:-0.130435 4:1 5:0.333333 6:-1 7:-1 8:-1 9:-1 10:0.0215993 
1 1:-1 2:-1 3:-0.130435 4:1 5:0.333333 7:-1 8:-1 9:-1 10:0.0585326 
1 1:-1 2:-1 3:-0.130435 4:1 5:0.333333 6:1 7:-1 8:-1 9:-1 10:-0.0153339 
-1 1:-1 2:-1 3:-0.130435 4:1 5:1 6:-1 7:-1 8:-1 9:-1 10:0.156142 
1 1:-1 2:-1 3:-0.130435 4:1 5:1 7:-1 8:-1 9:-1 10:0.136356 
1 1:-0.666667 2:-1 3:-0.217391 4:1 5:-1 6:-1 7:-1 8:-1 9:-1 10:-0.68343 
1 1:-0.666667 2:-1 3:-0.217391 4:1 5:-1 7:-1 8:-1 9:-1 10:-0.498763 
1 1:-0.666667 2:-1 3:-0.217391 4:1 5:-1 6:1 7:-1 8:-1 9:-1 10:-0.386645 
1 1:-0.666667 2:-1 3:-0.217391 4:1 5:-0.333333 6:-1 7:-1 8:-1 9:-1 10:-0.307502 
1 1:-0.666667 2:-1 3:-0.217391 4:1 5:-0.333333 7:-1 8:-1 9:-1 10:-0.0206101 
1 1:-0.666667 2:-1 3:-0.217391 4:1 5:-0.333333 6:1 7:-1 8:-1 9:-1 10:0.055235 
-1 1:-0.666667 2:-1 3:-0.130435 4:1 5:0.333333 6:-1 7:-1 8:-1 9:-1 10:0.0206101 
1 1:-0.666667 2:-1 3:-0.130435 4:1 5:0.333333 7:-1 8:-1 9:-1 10:-0.0272053 
1 1:-0.666667 2:-1 3:-0.130435 4:1 5:0.333333 6:1 7:-1 8:-1 9:-1 10:0.00577082 
-1 1:-0.666667 2:-1 3:-0.130435 4:1 5:1 6:-1 7:-1 8:-1 9:-1 10:0.0288541 
1 1:-0.666667 2:-1 3:-0.130435 4:1 5:1 7:-1 8:-1 9:-1 10:-0.0486397 
-1 1:-0.666667 2:-1 3:-0.130435 4:1 5:1 6:1 7:-1 8:-1 9:-1 10:0.0519373 
1 1:-0.333333 2:-1 3:-0.130435 4:1 5:-1 6:-1 7:-1 8:-1 9:-1 10:-0.729596 
1 1:-0.333333 2:-1 3:-0.130435 4:1 5:-1 7:-1 8:-1 9:-1 10:-0.531739 
1 1:-0.333333 2:-1 3:-0.130435 4:1 5:-1 6:1 7:-1 8:-1 9:-1 10:-0.436109 
1 1:-0.333333 2:-1 3:-0.130435 4:1 5:-0.333333 6:-1 7:-1 8:-1 9:-1 10:-0.294312 
1 1:-0.333333 2:-1 3:-0.130435 4:1 5:-0.333333 7:-1 8:-1 9:-1 10:-0.274526 
1 1:-0.333333 2:-1 3:-0.130435 4:1 5:-0.333333 6:1 7:-1 8:-1 9:-1 10:-0.0535862 
-1 1:-0.333333 2:-1 3:-0.026087 4:1 5:0.333333 6:-1 7:-1 8:-1 9:-1 10:-0.114592 
1 1:-0.333333 2:-1 3:-0.026087 4:1 5:0.333333 7:-1 8:-1 9:-1 10:-0.0667766 
1 1:-0.333333 2:-1 3:-0.026087 4:1 5:0.333333 6:1 7:-1 8:-1 9:-1 10:-0.0733718 
-1 1:-0.333333 2:-1 3:-0.026087 4:1 5:1 6:-1 7:-1 8:-1 9:-1 10:0.0107172 
1 1:-0.333333 2:-1 3:-0.026087 4:1 5:1 7:-1 8:-1 9:-1 10:-0.0469909 
-1 1:-0.333333 2:-1 3:-0.026087 4:1 5:1 6:1 7:-1 8:-1 9:-1 10:-0.0535862 
1 2:-1 3:-0.113043 4:1 5:-1 6:-1 7:-1 8:-1 9:-1 10:-0.699918 
1 2:-1 3:-0.113043 4:1 5:-1 7:-1 8:-1 9:-1 10:-0.604287 
1 2:-1 3:-0.113043 4:1 5:-1 6:1 7:-1 8:-1 9:-1 10:-0.409728 
1 2:-1 3:-0.113043 4:1 5:-0.333333 6:-1 7:-1 8:-1 9:-1 10:-0.416323 
-1 2:-1 3:-0.113043 4:1 5:-0.333333 7:-1 8:-1 9:-1 10:-0.258038 
1 2:-1 3:-0.113043 4:1 5:-0.333333 6:1 7:-1 8:-1 9:-1 10:-0.139324 
1 2:-1 3:-0.165217 4:1 5:0.333333 6:-1 7:-1 8:-1 9:-1 10:-0.152514 
1 2:-1 3:-0.165217 4:1 5:0.333333 7:-1 8:-1 9:-1 10:-0.139324 
1 2:-1 3:-0.165217 4:1 5:0.333333 6:1 7:-1 8:-1 9:-1 10:-0.0519373 
-1 2:-1 3:-0.165217 4:1 5:1 6:-1 7:-1 8:-1 9:-1 10:-0.0915087 
-1 2:-1 3:-0.165217 4:1 5:1 7:-1 8:-1 9:-1 10:-0.00906843 
1 2:-1 3:-0.165217 4:1 5:1 6:1 7:-1 8:-1 9:-1 10:-0.0964551 
-1 1:0.333333 2:-1 3:0.0173913 4:1 5:-1 6:-1 7:-1 8:-1 9:-1 10:-0.759275 
-1 1:0.333333 2:-1 3:0.0173913 4:1 5:-1 7:-1 8:-1 9:-1 10:-0.541632 
1 1:0.333333 2:-1 3:0.0173913 4:1 5:-1 6:1 7:-1 8:-1 9:-1 10:-0.449299 
1 1:0.333333 2:-1 3:0.0173913 4:1 5:-0.333333 6:-1 7:-1 8:-1 9:-1 10:-0.320692 
1 1:0.333333 2:-1 3:0.0173913 4:1 5:-0.333333 7:-1 8:-1 9:-1 10:-0.15911 
1 1:0.333333 2:-1 3:0.0173913 4:1 5:-0.333333 6:1 7:-1 8:-1 9:-1 10:-0.0338005 
1 1:0.333333 2:-1 3:-0.0347826 4:1 5:0.333333 6:-1 7:-1 8:-1 9:-1 10:0.0370981 
1 1:0.333333 2:-1 3:-0.0347826 4:1 5:0.333333 7:-1 8:-1 9:-1 10:0.0222589 
1 1:0.333333 2:-1 3:-0.0347826 4:1 5:0.333333 6:1 7:-1 8:-1 9:-1 10:0.0370981 
1 1:0.333333 2:-1 3:-0.0347826 4:1 5:1 6:-1 7:-1 8:-1 9:-1 10:0.0140148 
1 1:0.333333 2:-1 3:-0.0347826 4:1 5:1 7:-1 8:-1 9:-1 10:0.079967 
1 1:0.333333 2:-1 3:-0.0347826 4:1 5:1 6:1 7:-1 8:-1 9:-1 10:0.0420445 
-1 1:0.666667 2:-1 3:-0.4 4:1 5:-1 6:-1 7:-1 8:-0.963636 9:-1 10:-0.76587 
1 1:0.666667 2:-1 3:-0.4 4:1 5:-1 7:-1 8:-0.963636 9:-1 10:-0.624073 
1 1:0.666667 2:-1 3:-0.4 4:1 5:-1 6:1 7:-1 8:-0.963636 9:-1 10:-0.518549 
1 1:0.666667 2:-1 3:-0.4 4:1 5:-0.333333 6:-1 7:-1 8:-0.963636 9:-1 10:-0.469085 
1 1:0.666667 2:-1 3:-0.4 4:1 5:-0.333333 7:-1 8:-0.963636 9:-1 10:-0.340478 
1 1:0.666667 2:-1 3:-0.4 4:1 5:-0.333333 6:1 7:-1 8:-0.963636 9:-1 10:-0.218467 
1 1:0.666667 2:-1 3:-0.217391 4:1 5:0.333333 6:-1 7:-1 8:-1 9:-1 10:-0.211871 
1 1:0.666667 2:-1 3:-0.217391 4:1 5:0.333333 7:-1 8:-1 9:-1 10:-0.106348 
1 1:0.666667 2:-1 3:-0.217391 4:1 5:0.333333 6:1 7:-1 8:-1 9:-1 10:-0.101401 
-1 1:0.666667 2:-1 3:-0.217391 4:1 5:1 6:-1 7:-1 8:-1 9:-1 10:-0.134378 
-1 1:0.666667 2:-1 3:-0.217391 4:1 5:1 7:-1 8:-1 9:-1 10:-0.243199 
-1 1:0.666667 2:-1 3:-0.217391 4:1 5:1 6:1 7:-1 8:-1 9:-1 10:-0.139324 
-1 1:1 2:-1 3:-0.686957 4:1 5:-1 6:-1 7:-1 8:-1 9:-1 10:-0.749382 
-1 1:1 2:-1 3:-0.686957 4:1 5:-1 7:-1 8:-1 9:-1 10:-0.653751 
-1 1:1 2:-1 3:-0.686957 4:1 5:-1 6:1 7:-1 8:-1 9:-1 10:-0.528442 
1 1:1 2:-1 3:-0.686957 4:1 5:-0.333333 6:-1 7:-1 8:-1 9:-1 10:-0.538335 
1 1:1 2:-1 3:-0.686957 4:1 5:-0.333333 7:-1 8:-1 9:-1 10:-0.386645 
1 1:1 2:-1 3:-0.686957 4:1 5:-0.333333 6:1 7:-1 8:-1 9:-1 10:-0.429514 
1 1:1 2:-1 3:-0.113043 4:1 5:0.333333 6:-1 7:-1 8:-1 9:-1 10:-0.190437 
1 1:1 2:-1 3:-0.113043 4:1 5:0.333333 7:-1 8:-1 9:-1 10:-0.111294 
1 1:1 2:-1 3:-0.113043 4:1 5:0.333333 6:1 7:-1 8:-1 9:-1 10:-0.129431 
1 1:1 2:-1 3:-0.113043 4:1 5:1 7:-1 8:-1 9:-1 10:-0.0898599 
-1 1:1 2:-1 3:-0.113043 4:1 5:1 6:1 7:-1 8:-1 9:-1 10:-0.0964551 
1 1:-1 2:-1 3:0.104348 4:1 5:-1 6:-1 7:-1 8:-1 9:-1 10:-0.718384 
1 1:-1 2:-1 3:0.104348 4:1 5:-1 7:-1 8:-1 9:-1 10:-0.454575 
1 1:-1 2:-1 3:0.104348 4:1 5:-1 6:1 7:-1 8:-1 9:-1 10:-0.380709 
1 1:-1 2:-1 3:0.104348 4:1 5:-0.333333 6:-1 7:-1 8:-1 9:-1 10:-0.214509 
1 1:-1 2:-1 3:0.104348 4:1 5:-0.333333 7:-1 8:-1 9:-1 10:0.0202803 
1 1:-1 2:-1 3:0.104348 4:1 5:-0.333333 6:1 7:-1 8:-1 9:-1 10:0.228689 
1 1:-1 2:-1 3:-0.121739 4:1 5:0.333333 6:-1 7:-1 8:-1 9:-1 10:0.0215993 
1 1:-1 2:-1 3:-0.121739 4:1 5:0.333333 7:-1 8:-1 9:-1 10:0.0585326 
1 1:-1 2:-1 3:-0.121739 4:1 5:0.333333 6:1 7:-1 8:-1 9:-1 10:-0.0153339 
-1 1:-1 2:-1 3:-0.121739 4:1 5:1 6:-1 7:-1 8:-1 9:-1 10:0.156142 
1 1:-1 2:-1 3:-0.121739 4:1 5:1 7:-1 8:-1 9:-1 10:0.136356 
-1 1:-1 2:-1 3:-0.121739 4:1 5:1 6:1 7:-1 8:-1 9:-1 10:0.0651278 
1 1:-1 3:-0.182609 4:-1 5:-1 6:-1 7:-1 8:-1 9:-0.9 10:-0.788953 
1 1:-1 3:-0.182609 4:-1 5:-1 7:-1 8:-1 9:-0.9 10:-0.728937 
-1 1:-1 3:-0.182609 4:-1 5:-0.333333 6:-1 7:-1 8:-1 9:-0.9 10:-0.246167 
-1 1:-1 3:-0.182609 4:-1 5:-0.333333 7:-1 8:-1 9:-0.9 10:-0.000824402 
-1 1:-1 3:-0.182609 4:-1 5:-0.333333 6:1 7:-1 8:-1 9:-0.9 10:0.0756801 
1 1:-1 3:-0.165217 4:-1 5:0.333333 6:-1 7:-1 8:-1 9:-1 10:-0.106348 
-1 1:-1 3:-0.165217 4:-1 5:0.333333 7:-1 8:-1 9:-1 10:-0.0773289 
-1 1:-1 3:-0.165217 4:-1 5:0.333333 6:1 7:-1 8:-1 9:-1 10:-0.161748 
-1 1:-1 3:-0.165217 4:-1 5:1 6:-1 7:-1 8:-1 9:-1 10:-0.065311 
-1 1:-1 3:-0.165217 4:-1 5:1 7:-1 8:-1 9:-1 10:-0.100485 
-1 1:-1 3:-0.165217 4:-1 5:1 6:1 7:-1 8:-1 9:-1 10:-0.189887 
1 1:-0.666667 3:-0.217391 4:-1 5:-1 6:-1 7:-1 8:-1 9:-1 10:-0.770267 
1 1:-0.666667 3:-0.217391 4:-1 5:-1 7:-1 8:-1 9:-1 10:-0.83512 
1 1:-0.666667 3:-0.217391 4:-1 5:-1 6:1 7:-1 8:-1 9:-1 10:-0.650453 
1 1:-0.666667 3:-0.217391 4:-1 5:-0.333333 6:-1 7:-1 8:-1 9:-1 10:-0.389942 
1 1:-0.666667 3:-0.217391 4:-1 5:-0.333333 7:-1 8:-1 9:-1 10:-0.195383 
-1 1:-0.666667 3:-0.217391 4:-1 5:-0.333333 6:1 7:-1 8:-1 9:-1 10:-0.136026 
1 1:-0.666667 3:-0.469565 4:-1 5:0.333333 6:-1 7:-1 8:-1 9:-1 10:-0.173949 
1 1:-0.666667 3:-0.469565 4:-1 5:0.333333 7:-1 8:-1 9:-1 10:-0.169002 
1 1:-0.666667 3:-0.469565 4:-1 5:0.333333 6:1 7:-1 8:-1 9:-1 10:-0.149217 
1 1:-0.666667 3:-0.469565 4:-1 5:1 6:-1 7:-1 8:-1 9:-1 10:-0.21352 
1 1:-0.666667 3:-0.469565 4:-1 5:1 7:-1 8:-1 9:-1 10:-0.28277 
1 1:-0.666667 3:-0.469565 4:-1 5:1 6:1 7:-1 8:-1 9:-1 10:-0.330585 
-1 1:-0.333333 3:-0.643478 4:-1 5:-1 6:-1 7:-1 8:-1 9:-1 10:-1 
-1 1:-0.333333 3:-0.643478 4:-1 5:-1 7:-1 8:-1 9:-1 10:-0.980214 
-1 1:-0.333333 3:-0.643478 4:-1 5:-1 6:1 7:-1 8:-1 9:-1 10:-0.774663 
1 1:-0.333333 3:-0.643478 4:-1 5:-0.333333 6:-1 7:-1 8:-1 9:-1 10:-0.581204 
1 1:-0.333333 3:-0.643478 4:-1 5:-0.333333 7:-1 8:-1 9:-1 10:-0.551525 
1 1:-0.333333 3:-0.643478 4:-1 5:-0.333333 6:1 7:-1 8:-1 9:-1 10:-0.488871 
1 1:-0.333333 3:-0.165217 4:-1 5:0.333333 6:-1 7:-1 8:-1 9:-1 10:-0.554823 
-1 1:-0.333333 3:-0.165217 4:-1 5:0.333333 7:-1 8:-1 9:-1 10:-0.495466 
1 1:-0.333333 3:-0.165217 4:-1 5:0.333333 6:1 7:-1 8:-1 9:-1 10:-0.493817 
-1 1:-0.333333 3:-0.165217 4:-1 5:1 6:-1 7:-1 8:-1 9:-1 10:-0.437758 
1 1:-0.333333 3:-0.165217 4:-1 5:1 7:-1 8:-1 9:-1 10:-0.42127 
-1 1:-0.333333 3:-0.165217 4:-1 5:1 6:1 7:-1 8:-1 9:-1 10:-0.368508 
1 3:-0.156522 4:-1 5:-1 6:-1 7:-1 8:-1 9:-1 10:-0.920857 
1 3:-0.156522 4:-1 5:-1 7:-1 8:-1 9:-1 10:-0.818631 
1 3:-0.156522 4:-1 5:-1 6:1 7:-1 8:-1 9:-1 10:-0.693322 
-1 3:-0.156522 4:-1 5:-0.333333 6:-1 7:-1 8:-1 9:-1 10:-0.376752 
-1 3:-0.156522 4:-1 5:-0.333333 7:-1 8:-1 9:-1 10:-0.274526 
-1 3:-0.156522 4:-1 5:-0.333333 6:1 7:-1 8:-1 9:-1 10:-0.00741962 
-1 3:-0.191304 4:-1 5:0.333333 6:-1 7:-1 8:-1 9:-1 10:-0.170651 
-1 3:-0.191304 4:-1 5:0.333333 7:-1 8:-1 9:-1 10:-0.190437 
-1 3:-0.191304 4:-1 5:0.333333 6:1 7:-1 8:-1 9:-1 10:-0.170651 
1 3:-0.191304 4:-1 5:1 6:-1 7:-1 8:-1 9:-1 10:-0.197032 
0.2329026626516348 3:-0.191304 4:-1 5:1 7:-1 8:-1 9:-1 10:-0.211871 
-1 3:-0.191304 4:-1 5:1 6:1 7:-1 8:-1 9:-1 10:-0.319044 
1 1:0.333333 3:-0.130435 4:-1 5:-1 6:-1 7:-1 8:-1 9:-1 10:-0.8615 
1 1:0.333333 3:-0.130435 4:-1 5:-1 6:1 7:-1 8:-1 9:-1 10:-0.637263 
-1 1:0.333333 3:-0.130435 4:-1 5:-0.333333 6:-1 7:-1 8:-1 9:-1 10:-0.330585 
-1 1:0.333333 3:-0.130435 4:-1 5:-0.333333 7:-1 8:-1 9:-1 10:-0.221764 
-1 1:0.333333 3:-0.130435 4:-1 5:-0.333333 6:1 7:-1 8:-1 9:-1 10:-0.079967 
1 1:0.333333 3:-0.0695652 4:-1 5:0.333333 6:-1 7:-1 8:-1 9:-1 10:-0.0338005 
1 1:0.333333 3:-0.0695652 4:-1 5:0.333333 7:-1 8:-1 9:-1 10:0.012366 
1 1:0.333333 3:-0.0695652 4:-1 5:0.333333 6:1 7:-1 8:-1 9:-1 10:0.00906843 
1 1:0.333333 3:-0.0695652 4:-1 5:1 6:-1 7:-1 8:-1 9:-1 10:-0.127782 
1 1:0.333333 3:-0.0695652 4:-1 5:1 7:-1 8:-1 9:-1 10:-0.0651278 
1 1:0.333333 3:-0.0695652 4:-1 5:1 6:1 7:-1 8:-1 9:-1 10:-0.173949 
-1 1:0.666667 3:-0.313043 4:-1 5:-1 6:-1 7:-1 8:-1 9:-1 10:-0.845012 
-1 1:0.666667 3:-0.313043 4:-1 5:-1 7:-1 8:-1 9:-1 10:-0.881286 
-1 1:0.666667 3:-0.313043 4:-1 5:-1 6:1 7:-1 8:-1 9:-1 10:-0.730695 
1 1:0.666667 3:-0.313043 4:-1 5:-0.333333 6:-1 7:-1 8:-1 9:-1 10:-0.546029 
1 1:0.666667 3:-0.313043 4:-1 5:-0.333333 7:-1 8:-1 9:-1 10:-0.47568 
1 1:0.666667 3:-0.313043 4:-1 5:-0.333333 6:1 7:-1 8:-1 9:-1 10:-0.225062 
-1 1:0.666667 3:-0.252174 4:-1 5:0.333333 6:-1 7:-1 8:-1 9:-1 10:-0.289365 
1 1:0.666667 3:-0.252174 4:-1 5:0.333333 7:-1 8:-1 9:-1 10:-0.226711 
1 1:0.666667 3:-0.252174 4:-1 5:0.333333 6:1 7:-1 8:-1 9:-1 10:-0.248145 
-1 1:0.666667 3:-0.252174 4:-1 5:1 6:-1 7:-1 8:-1 9:-1 10:-0.258038 
-1 1:0.666667 3:-0.252174 4:-1 5:1 6:1 7:-1 8:-1 9:-1 10:-0.259687 
-1 1:1 3:-0.486957 4:-1 5:-1 6:-1 7:-1 8:-1 9:-1 10:-0.871393 
-1 1:1 3:-0.486957 4:-1 5:-1 7:-1 8:-1 9:-1 10:-0.761473 
1 1:1 3:-0.486957 4:-1 5:-1 6:1 7:-1 8:-1 9:-1 10:-0.673537 
-1 1:1 3:-0.486957 4:-1 5:-0.333333 6:-1 7:-1 8:-1 9:-1 10:-0.57241 
1 1:1 3:-0.486957 4:-1 5:-0.333333 7:-1 8:-1 9:-1 10:-0.211871 
1 1:1 3:-0.486957 4:-1 5:-0.333333 6:1 7:-1 8:-1 9:-1 10:-0.181094 
1 1:1 3:-0.382609 4:-1 5:0.333333 6:-1 7:-1 8:-1 9:-1 10:-0.149688 
1 1:1 3:-0.382609 4:-1 5:0.333333 7:-1 8:-1 9:-1 10:-0.238252 
-1 1:1 3:-0.382609 4:-1 5:0.333333 6:1 7:-1 8:-1 9:-1 10:-0.249794 
1 1:1 3:-0.382609 4:-1 5:1 6:-1 7:-1 8:-1 9:-1 10:-0.272877 
1 1:1 3:-0.382609 4:-1 5:1 7:-1 8:-1 9:-1 10:-0.197032 
-1 1:1 3:-0.382609 4:-1 5:1 6:1 7:-1 8:-1 9:-1 10:-0.335532 
1 1:-1 3:0.0695652 4:-1 5:-1 6:-1 7:-1 8:-1 9:-1 10:-0.788953 
1 1:-1 3:0.0695652 4:-1 5:-1 7:-1 8:-1 9:-1 10:-0.728937 
1 1:-1 3:0.0695652 4:-1 5:-1 6:1 7:-1 8:-1 9:-1 10:-0.58648 
1 1:-1 3:0.0695652 4:-1 5:-0.333333 6:-1 7:-1 8:-1 9:-1 10:-0.246167 
1 1:-1 3:0.0695652 4:-1 5:-0.333333 7:-1 8:-1 9:-1 10:-0.000824402 
-1 1:-1 3:0.0695652 4:-1 5:-0.333333 6:1 7:-1 8:-1 9:-1 10:0.0756801 
-1 1:-1 3:-0.391304 4:-1 5:0.333333 6:-1 7:-1 8:-1 9:-1 10:-0.106348 
-1 1:-1 3:-0.391304 4:-1 5:0.333333 7:-1 8:-1 9:-1 10:-0.0773289 
-1 1:-1 3:-0.391304 4:-1 5:0.333333 6:1 7:-1 8:-1 9:-1 10:-0.161748 
-1 1:-1 3:-0.391304 4:-1 5:1 7:-1 8:-1 9:-1 10:-0.100485 
-1 1:-1 3:-0.391304 4:-1 5:1 6:1 7:-1 8:-1 9:-1 10:-0.189887 
1 1:-0.666667 3:-0.121739 4:-1 5:-1 6:-1 7:-1 8:-1 9:-1 10:-0.770267 
1 1:-0.666667 3:-0.121739 4:-1 5:-1 7:-1 8:-1 9:-1 10:-0.83512 
1 1:-0.666667 3:-0.121739 4:-1 5:-1 6:1 7:-1 8:-1 9:-1 10:-0.650453 
1 1:-0.666667 3:-0.121739 4:-1 5:-0.333333 6:-1 7:-1 8:-1 9:-1 10:-0.389942 
-1 1:-0.666667 3:-0.121739 4:-1 5:-0.333333 7:-1 8:-1 9:-1 10:-0.195383 
1 1:-0.666667 3:-0.121739 4:-1 5:-0.333333 6:1 7:-1 8:-1 9:-1 10:-0.136026 
1 1:-0.666667 3:-0.304348 4:-1 5:0.333333 6:-1 7:-1 8:-1 9:0.2 10:-0.173949 
-1 1:-0.666667 3:-0.304348 4:-1 5:0.333333 7:-1 8:-1 9:0.2 10:-0.169002 
-1 1:-0.666667 3:-0.304348 4:-1 5:0.333333 6:1 7:-1 8:-1 9:0.2 10:-0.149217 
-1 1:-0.666667 3:-0.304348 4:-1 5:1 6:-1 7:-1 8:-1 9:0.2 10:-0.21352 
1 1:-0.666667 3:-0.304348 4:-1 5:1 7:-1 8:-1 9:0.2 10:-0.28277 
1 1:-0.666667 3:-0.304348 4:-1 5:1 6:1 7:-1 8:-1 9:0.2 10:-0.330585 
-1 1:-0.333333 3:-0.730435 4:-1 5:-1 6:-1 7:-1 8:1 9:0.3 10:-1 
-1 1:-0.333333 3:-0.730435 4:-1 5:-1 7:-1 8:1 9:0.3 10:-0.980214 
-1 1:-0.333333 3:-0.730435 4:-1 5:-1 6:1 7:-1 8:1 9:0.3 10:-0.774663 
-1 1:-0.333333 3:-0.730435 4:-1 5:-0.333333 6:-1 7:-1 8:1 9:0.3 10:-0.581204 
-1 1:-0.333333 3:-0.730435 4:-1 5:-0.333333 7:-1 8:1 9:0.3 10:-0.551525 
-1 1:-0.333333 3:-0.730435 4:-1 5:-0.333333 6:1 7:-1 8:1 9:0.3 10:-0.488871 
-1 1:-0.333333 3:-0.365217 4:-1 5:0.333333 6:-1 7:-1 8:-0.345455 9:0.2 10:-0.554823 
1 1:-0.333333 3:-0.365217 4:-1 5:0.333333 7:-1 8:-0.345455 9:0.2 10:-0.495466 
1 1:-0.333333 3:-0.365217 4:-1 5:0.333333 6:1 7:-1 8:-0.345455 9:0.2 10:-0.493817 
-1 1:-0.333333 3:-0.365217 4:-1 5:1 6:-1 7:-1 8:-0.345455 9:0.2 10:-0.437758 
-1 1:-0.333333 3:-0.365217 4:-1 5:1 7:-1 8:-0.345455 9:0.2 10:-0.42127 
-1 1:-0.333333 3:-0.365217 4:-1 5:1 6:1 7:-1 8:-0.345455 9:0.2 10:-0.368508 
1 3:-0.26087 4:-1 5:-1 6:-1 7:-1 8:-0.963636 9:0.4 10:-0.920857 
1 3:-0.26087 4:-1 5:-1 7:-1 8:-0.963636 9:0.4 10:-0.818631 
1 3:-0.26087 4:-1 5:-1 6:1 7:-1 8:-0.963636 9:0.4 10:-0.693322 
1 3:-0.26087 4:-1 5:-0.333333 6:-1 7:-1 8:-0.963636 9:0.4 10:-0.376752 
1 3:-0.26087 4:-1 5:-0.333333 7:-1 8:-0.963636 9:0.4 10:-0.274526 
-1 3:-0.26087 4:-1 5:-0.333333 6:1 7:-1 8:-0.963636 9:0.4 10:-0.00741962 
-1 3:-0.278261 4:-1 5:0.333333 6:-1 7:-1 8:-0.890909 9:-0.8 10:-0.170651 
-1 3:-0.278261 4:-1 5:0.333333 7:-1 8:-0.890909 9:-0.8 10:-0.190437 
1 3:-0.278261 4:-1 5:0.333333 6:1 7:-1 8:-0.890909 9:-0.8 10:-0.170651 
1 3:-0.278261 4:-1 5:1 6:-1 7:-1 8:-0.890909 9:-0.8 10:-0.197032 
1 3:-0.278261 4:-1 5:1 7:-1 8:-0.890909 9:-0.8 10:-0.211871 
1 3:-0.278261 4:-1 5:1 6:1 7:-1 8:-0.890909 9:-0.8 10:-0.319044 
1 1:0.333333 3:-0.121739 4:-1 5:-1 6:-1 7:-1 8:-1 9:-1 10:-0.8615 
-1 1:0.333333 3:-0.121739 4:-1 5:-1 7:-1 8:-1 9:-1 10:-0.76587 
1 1:0.333333 3:-0.121739 4:-1 5:-1 6:1 7:-1 8:-1 9:-1 10:-0.637263 
-1 1:0.333333 3:-0.121739 4:-1 5:-0.333333 6:-1 7:-1 8:-1 9:-1 10:-0.330585 
-1 1:0.333333 3:-0.121739 4:-1 5:-0.333333 7:-1 8:-1 9:-1 10:-0.221764 
-1 1:0.333333 3:-0.121739 4:-1 5:-0.333333 6:1 7:-1 8:-1 9:-1 10:-0.079967 
1 1:0.333333 3:0.217391 4:-1 5:0.333333 6:-1 7:-1 8:-1 9:-1 10:-0.0338005 
1 1:0.333333 3:0.217391 4:-1 5:0.333333 7:-1 8:-1 9:-1 10:0.012366 
-1 1:0.333333 3:0.217391 4:-1 5:0.333333 6:1 7:-1 8:-1 9:-1 10:0.00906843 
-1 1:0.333333 3:0.217391 4:-1 5:1 6:-1 7:-1 8:-1 9:-1 10:-0.127782 
-1 1:0.333333 3:0.217391 4:-1 5:1 7:-1 8:-1 9:-1 10:-0.0651278 
-1 1:0.333333 3:0.217391 4:-1 5:1 6:1 7:-1 8:-1 9:-1 10:-0.173949 
-1 1:0.666667 3:-0.852174 4:-1 5:-1 6:-1 7:1 8:-1 9:-1 10:-0.845012 
-1 1:0.666667 3:-0.852174 4:-1 5:-1 7:1 8:-1 9:-1 10:-0.881286 
-1 1:0.666667 3:-0.852174 4:-1 5:-1 6:1 7:1 8:-1 9:-1 10:-0.730695 
-1 1:0.666667 3:-0.852174 4:-1 5:-0.333333 6:-1 7:1 8:-1 9:-1 10:-0.546029 
-1 1:0.666667 3:-0.852174 4:-1 5:-0.333333 7:1 8:-1 9:-1 10:-0.47568 
-1 1:0.666667 3:-0.852174 4:-1 5:-0.333333 6:1 7:1 8:-1 9:-1 10:-0.225062 
-1 1:0.666667 3:-0.913043 4:-1 5:0.333333 6:-1 7:1 8:-1 9:-1 10:-0.289365 
-1 1:0.666667 3:-0.913043 4:-1 5:0.333333 7:1 8:-1 9:-1 10:-0.226711 
-1 1:0.666667 3:-0.913043 4:-1 5:0.333333 6:1 7:1 8:-1 9:-1 10:-0.248145 
-1 1:0.666667 3:-0.913043 4:-1 5:1 6:-1 7:1 8:-1 9:-1 10:-0.258038 
-1 1:0.666667 3:-0.913043 4:-1 5:1 7:1 8:-1 9:-1 10:-0.210223 
-1 1:0.666667 3:-0.913043 4:-1 5:1 6:1 7:1 8:-1 9:-1 10:-0.259687 
-1 1:1 3:-0.36118 4:-1 5:-1 7:1 8:-1 9:-1 10:-0.761473 
-1 1:1 3:-0.36118 4:-1 5:-1 6:1 7:1 8:-1 9:-1 10:-0.673537 
-1 1:1 3:-0.36118 4:-1 5:-0.333333 6:-1 7:1 8:-1 9:-1 10:-0.57241 
-1 1:1 3:-0.36118 4:-1 5:-0.333333 7:1 8:-1 9:-1 10:-0.211871 
-1 1:1 3:-0.36118 4:-1 5:-0.333333 6:1 7:1 8:-1 9:-1 10:-0.181094 
-1 1:1 3:-0.956522 4:-1 5:0.333333 6:-1 7:1 8:-1 9:-1 10:-0.149688 
-1 1:1 3:-0.956522 4:-1 5:0.333333 7:1 8:-1 9:-1 10:-0.238252 
-1 1:1 3:-0.956522 4:-1 5:0.333333 6:1 7:1 8:-1 9:-1 10:-0.249794 
-1 1:1 3:-0.956522 4:-1 5:1 6:-1 7:1 8:-1 9:-1 10:-0.272877 
-1 1:1 3:-0.956522 4:-1 5:1 7:1 8:-1 9:-1 10:-0.197032 
-1 1:1 3:-0.956522 4:-1 5:1 6:1 7:1 8:-1 9:-1 10:-0.335532 
-1 1:-1 3:-0.965217 4:-1 5:-1 6:-1 7:1 8:-1 9:-1 10:-0.788953 
-1 1:-1 3:-0.965217 4:-1 5:-1 7:1 8:-1 9:-1 10:-0.728937 
-1 1:-1 3:-0.965217 4:-1 5:-1 6:1 7:1 8:-1 9:-1 10:-0.58648 
-1 1:-1 3:-0.956522 4:-1 5:0.333333 6:-1 7:1 8:-1 9:-1 10:-0.106348 
-1 1:-1 3:-0.956522 4:-1 5:0.333333 7:1 8:-1 9:-1 10:-0.0773289 
-1 1:-1 3:-0.956522 4:-1 5:0.333333 6:1 7:1 8:-1 9:-1 10:-0.161748 
-1 1:-1 3:-0.956522 4:-1 5:1 6:-1 7:1 8:-1 9:-1 10:-0.065311 
-1 1:-1 3:-0.956522 4:-1 5:1 7:1 8:-1 9:-1 10:-0.100485 
-1 1:-1 3:-0.956522 4:-1 5:1 6:1 7:1 8:-1 9:-1 10:-0.189887 
-1 1:-0.666667 3:-0.965217 4:-1 5:-1 6:-1 7:1 8:-1 9:-1 10:-0.770267 
-1 1:-0.666667 3:-0.965217 4:-1 5:-1 7:1 8:-1 9:-1 10:-0.83512 
-1 1:-0.666667 3:-0.965217 4:-1 5:-1 6:1 7:1 8:-1 9:-1 10:-0.650453 
-1 1:-0.666667 3:-0.965217 4:-1 5:-0.333333 6:-1 7:1 8:-1 9:-1 10:-0.389942 
-1 1:-0.666667 3:-0.965217 4:-1 5:-0.333333 7:1 8:-1 9:-1 10:-0.195383 
-1 1:-0.666667 3:-0.965217 4:-1 5:-0.333333 6:1 7:1 8:-1 9:-1 10:-0.136026 
-1 1:-0.666667 3:-0.921739 4:-1 5:0.333333 6:-1 7:1 8:-1 9:-1 10:-0.173949 
-1 1:-0.666667 3:-0.921739 4:-1 5:0.333333 7:1 8:-1 9:-1 10:-0.169002 
-1 1:-0.666667 3:-0.921739 4:-1 5:0.333333 6:1 7:1 8:-1 9:-1 10:-0.149217 
-1 1:-0.666667 3:-0.921739 4:-1 5:1 6:-1 7:1 8:-1 9:-1 10:-0.21352 
-1 1:-0.666667 3:-0.921739 4:-1 5:1 7:1 8:-1 9:-1 10:-0.28277 
-1 1:-0.666667 3:-0.921739 4:-1 5:1 6:1 7:1 8:-1 9:-1 10:-0.330585 
-1 1:-0.333333 3:-1 4:-1 5:-1 6:-1 7:1 8:-1 9:-1 10:-1 
-1 1:-0.333333 3:-1 4:-1 5:-1 7:1 8:-1 9:-1 10:-0.980214 
-1 1:-0.333333 3:-1 4:-1 5:-1 6:1 7:1 8:-1 9:-1 10:-0.774663 
-1 1:-0.333333 3:-1 4:-1 5:-0.333333 6:-1 7:1 8:-1 9:-1 10:-0.581204 
-1 1:-0.333333 3:-1 4:-1 5:-0.333333 7:1 8:-1 9:-1 10:-0.551525 
-1 1:-0.333333 3:-1 4:-1 5:-0.333333 6:1 7:1 8:-1 9:-1 10:-0.488871 
-1 1:-0.333333 3:-0.86087 4:-1 5:0.333333 6:-1 7:1 8:-1 9:-1 10:-0.554823 
-1 1:-0.333333 3:-0.86087 4:-1 5:0.333333 7:1 8:-1 9:-1 10:-0.495466 
-1 1:-0.333333 3:-0.86087 4:-1 5:0.333333 6:1 7:1 8:-1 9:-1 10:-0.493817 
-1 1:-0.333333 3:-0.86087 4:-1 5:1 6:-1 7:1 8:-1 9:-1 10:-0.437758 
-1 1:-0.333333 3:-0.86087 4:-1 5:1 7:1 8:-1 9:-1 10:-0.42127 
-1 1:-0.333333 3:-0.86087 4:-1 5:1 6:1 7:1 8:-1 9:-1 10:-0.368508 
-1 3:-0.913043 4:-1 5:-1 6:-1 7:1 8:-0.709091 9:-1 10:-0.920857 
-1 3:-0.913043 4:-1 5:-1 7:1 8:-0.709091 9:-1 10:-0.818631 
-1 3:-0.913043 4:-1 5:-1 6:1 7:1 8:-0.709091 9:-1 10:-0.693322 
-1 3:-0.913043 4:-1 5:-0.333333 6:-1 7:1 8:-0.709091 9:-1 10:-0.376752 
-1 3:-0.913043 4:-1 5:-0.333333 7:1 8:-0.709091 9:-1 10:-0.274526 
-1 3:-0.913043 4:-1 5:-0.333333 6:1 7:1 8:-0.709091 9:-1 10:-0.00741962 
-1 3:-0.930435 4:-1 5:0.333333 6:-1 7:1 8:-1 9:-1 10:-0.170651 
-1 3:-0.930435 4:-1 5:0.333333 7:1 8:-1 9:-1 10:-0.190437 
-1 3:-0.930435 4:-1 5:0.333333 6:1 7:1 8:-1 9:-1 10:-0.170651 
-1 3:-0.930435 4:-1 5:1 6:-1 7:1 8:-1 9:-1 10:-0.197032 
-1 3:-0.930435 4:-1 5:1 7:1 8:-1 9:-1 10:-0.211871 
-1 3:-0.930435 4:-1 5:1 6:1 7:1 8:-1 9:-1 10:-0.319044 
-1 1:0.333333 3:-0.947826 4:-1 5:-1 6:-1 7:-1 8:-1 9:-1 10:-0.8615 
-1 1:0.333333 3:-0.947826 4:-1 5:-1 7:-1 8:-1 9:-1 10:-0.76587 
-1 1:0.333333 3:-0.947826 4:-1 5:-1 6:1 7:-1 8:-1 9:-1 10:-0.637263 
-1 1:0.333333 3:-0.947826 4:-1 5:-0.333333 6:-1 7:-1 8:-1 9:-1 10:-0.330585 
-1 1:0.333333 3:-0.947826 4:-1 5:-0.333333 7:-1 8:-1 9:-1 10:-0.221764 
-1 1:0.333333 3:-0.947826 4:-1 5:-0.333333 6:1 7:-1 8:-1 9:-1 10:-0.079967 
-1 1:0.333333 3:-0.913043 4:-1 5:0.333333 6:-1 7:-1 8:-0.0909091 9:1 10:-0.0338005 
-1 1:0.333333 3:-0.913043 4:-1 5:0.333333 7:-1 8:-0.0909091 9:1 10:0.012366 
-1 1:0.333333 3:-0.913043 4:-1 5:0.333333 6:1 7:-1 8:-0.0909091 9:1 10:0.00906843 
-1 1:0.333333 3:-0.913043 4:-1 5:1 6:-1 7:-1 8:-0.0909091 9:1 10:-0.127782 
-1 1:0.333333 3:-0.913043 4:-1 5:1 7:-1 8:-0.0909091 9:1 10:-0.0651278 
-1 1:0.333333 3:-0.913043 4:-1 5:1 6:1 7:-1 8:-0.0909091 9:1 10:-0.173949 
1 1:0.666667 3:-0.182609 4:-1 5:-1 6:-1 7:-1 8:-1 9:-1 10:-0.845012 
-1 1:0.666667 3:-0.182609 4:-1 5:-1 7:-1 8:-1 9:-1 10:-0.881286 
-1 1:0.666667 3:-0.182609 4:-1 5:-1 6:1 7:-1 8:-1 9:-1 10:-0.730695 
-1 1:0.666667 3:-0.182609 4:-1 5:-0.333333 6:-1 7:-1 8:-1 9:-1 10:-0.546029 
1 1:0.666667 3:-0.182609 4:-1 5:-0.333333 7:-1 8:-1 9:-1 10:-0.47568 
-1 1:0.666667 3:-0.182609 4:-1 5:-0.333333 6:1 7:-1 8:-1 9:-1 10:-0.225062 
-1 1:0.666667 3:-0.53913 4:-1 5:0.333333 6:-1 7:-1 8:-1 9:-1 10:-0.289365 
-1 1:0.666667 3:-0.53913 4:-1 5:0.333333 7:-1 8:-1 9:-1 10:-0.226711 
-1 1:0.666667 3:-0.53913 4:-1 5:0.333333 6:1 7:-1 8:-1 9:-1 10:-0.248145 
-1 1:0.666667 3:-0.53913 4:-1 5:1 6:-1 7:-1 8:-1 9:-1 10:-0.258038 
1 1:0.666667 3:-0.53913 4:-1 5:1 7:-1 8:-1 9:-1 10:-0.210223 
-1 1:0.666667 3:-0.53913 4:-1 5:1 6:1 7:-1 8:-1 9:-1 10:-0.259687 
1 1:1 3:-0.156522 4:-1 5:-1 6:-1 7:-1 8:-1 9:-1 10:-0.871393 
1 1:1 3:-0.156522 4:-1 5:-1 7:-1 8:-1 9:-1 10:-0.761473 
1 1:1 3:-0.156522 4:-1 5:-1 6:1 7:-1 8:-1 9:-1 10:-0.673537 
1 1:1 3:-0.156522 4:-1 5:-0.333333 6:-1 7:-1 8:-1 9:-1 10:-0.57241 
1 1:1 3:-0.156522 4:-1 5:-0.333333 7:-1 8:-1 9:-1 10:-0.211871 
-1 1:1 3:-0.156522 4:-1 5:-0.333333 6:1 7:-1 8:-1 9:-1 10:-0.181094 
-1 1:1 3:-0.4 4:-1 5:0.333333 6:-1 7:-1 8:-1 9:-1 10:-0.149688 
1 1:1 3:-0.4 4:-1 5:0.333333 7:-1 8:-1 9:-1 10:-0.238252 
1 1:1 3:-0.4 4:-1 5:0.333333 6:1 7:-1 8:-1 9:-1 10:-0.249794 
1 1:1 3:-0.4 4:-1 5:1 6:-1 7:-1 8:-1 9:-1 10:-0.272877 
-1 1:1 3:-0.4 4:-1 5:1 7:-1 8:-1 9:-1 10:-0.197032 
1 1:-1 3:-0.026087 4:-1 5:-1 6:-1 7:-1 8:-1 9:-1 10:-0.788953 
1 1:-1 3:-0.026087 4:-1 5:-1 7:-1 8:-1 9:-1 10:-0.728937 
1 1:-1 3:-0.026087 4:-1 5:-1 6:1 7:-1 8:-1 9:-1 10:-0.58648 
1 1:-1 3:-0.026087 4:-1 5:-0.333333 6:-1 7:-1 8:-1 9:-1 10:-0.246167 
-1 1:-1 3:-0.026087 4:-1 5:-0.333333 7:-1 8:-1 9:-1 10:-0.000824402 
-1 1:-1 3:-0.026087 4:-1 5:-0.333333 6:1 7:-1 8:-1 9:-1 10:0.0756801 
1 1:-1 3:-0.321739 4:-1 5:0.333333 6:-1 7:-1 8:-1 9:-1 10:-0.106348 
-1 1:-1 3:-0.321739 4:-1 5:0.333333 7:-1 8:-1 9:-1 10:-0.0773289 
-1 1:-1 3:-0.321739 4:-1 5:0.333333 6:1 7:-1 8:-1 9:-1 10:-0.161748 
-1 1:-1 3:-0.321739 4:-1 5:1 6:-1 7:-1 8:-1 9:-1 10:-0.065311 
-1 1:-1 3:-0.321739 4:-1 5:1 7:-1 8:-1 9:-1 10:-0.100485 
-1 1:-1 3:-0.321739 4:-1 5:1 6:1 7:-1 8:-1 9:-1 10:-0.189887 
1 1:-0.666667 3:-0.130435 4:-1 5:-1 6:-1 7:-1 8:-1 9:-1 10:-0.770267 
-1 1:-0.666667 3:-0.130435 4:-1 5:-1 7:-1 8:-1 9:-1 10:-0.83512 
1 1:-0.666667 3:-0.130435 4:-1 5:-1 6:1 7:-1 8:-1 9:-1 10:-0.650453 
1 1:-0.666667 3:-0.130435 4:-1 5:-0.333333 6:-1 7:-1 8:-1 9:-1 10:-0.389942 
-1 1:-0.666667 3:-0.130435 4:-1 5:-0.333333 7:-1 8:-1 9:-1 10:-0.195383 
-1 1:-0.666667 3:-0.130435 4:-1 5:-0.333333 6:1 7:-1 8:-1 9:-1 10:-0.136026 
1 1:-0.666667 3:-0.382609 4:-1 5:0.333333 6:-1 7:-1 8:-1 9:-1 10:-0.173949 
-1 1:-0.666667 3:-0.382609 4:-1 5:0.333333 7:-1 8:-1 9:-1 10:-0.169002 
1 1:-0.666667 3:-0.382609 4:-1 5:0.333333 6:1 7:-1 8:-1 9:-1 10:-0.149217 
-1 1:-0.666667 3:-0.382609 4:-1 5:1 6:-1 7:-1 8:-1 9:-1 10:-0.21352 
-1 1:-0.666667 3:-0.382609 4:-1 5:1 6:1 7:-1 8:-1 9:-1 10:-0.330585 
1 1:-0.333333 3:0.00869565 4:-1 5:-1 6:-1 7:-1 8:-1 9:-1 10:-1 
1 1:-0.333333 3:0.00869565 4:-1 5:-1 7:-1 8:-1 9:-1 10:-0.980214 
1 1:-0.333333 3:0.00869565 4:-1 5:-1 6:1 7:-1 8:-1 9:-1 10:-0.774663 
1 1:-0.333333 3:0.00869565 4:-1 5:-0.333333 6:-1 7:-1 8:-1 9:-1 10:-0.581204 
1 1:-0.333333 3:0.00869565 4:-1 5:-0.333333 7:-1 8:-1 9:-1 10:-0.551525 
-1 1:-0.333333 3:0.00869565 4:-1 5:-0.333333 6:1 7:-1 8:-1 9:-1 10:-0.488871 
1 1:-0.333333 3:-0.313043 4:-1 5:0.333333 6:-1 7:-1 8:-1 9:-1 10:-0.554823 
1 1:-0.333333 3:-0.313043 4:-1 5:0.333333 7:-1 8:-1 9:-1 10:-0.495466 
1 1:-0.333333 3:-0.313043 4:-1 5:0.333333 6:1 7:-1 8:-1 9:-1 10:-0.493817 
1 1:-0.333333 3:-0.313043 4:-1 5:1 6:-1 7:-1 8:-1 9:-1 10:-0.437758 
1 1:-0.333333 3:-0.313043 4:-1 5:1 7:-1 8:-1 9:-1 10:-0.42127 
1 1:-0.333333 3:-0.313043 4:-1 5:1 6:1 7:-1 8:-1 9:-1 10:-0.368508 
-1 3:0.234783 4:-1 5:-1 6:-1 7:-1 8:-1 9:-1 10:-0.920857 
1 3:0.234783 4:-1 5:-1 7:-1 8:-1 9:-1 10:-0.818631 
1 3:0.234783 4:-1 5:-1 6:1 7:-1 8:-1 9:-1 10:-0.693322 
1 3:0.234783 4:-1 5:-0.333333 6:-1 7:-1 8:-1 9:-1 10:-0.376752 
-1 3:0.234783 4:-1 5:-0.333333 7:-1 8:-1 9:-1 10:-0.274526 
-1 3:0.234783 4:-1 5:-0.333333 6:1 7:-1 8:-1 9:-1 10:-0.00741962 
-1 3:-0.382609 4:-1 5:0.333333 6:-1 7:-1 8:-1 9:-1 10:-0.170651 
1 3:-0.382609 4:-1 5:0.333333 7:-1 8:-1 9:-1 10:-0.190437 
1 3:-0.382609 4:-1 5:0.333333 6:1 7:-1 8:-1 9:-1 10:-0.170651 
1 3:-0.382609 4:-1 5:1 6:-1 7:-1 8:-1 9:-1 10:-0.197032 
1 3:-0.382609 4:-1 5:1 7:-1 8:-1 9:-1 10:-0.211871 
-0.8643939001925415 3:-0.382609 4:-1 5:1 6:1 7:-1 8:-1 9:-1 10:-0.319044 
1 1:0.333333 3:-0.0869565 4:-1 5:-1 6:-1 7:-1 8:-1 9:-1 10:-0.8615 
1 1:0.333333 3:-0.0869565 4:-1 5:-1 7:-1 8:-1 9:-1 10:-0.76587 
1 1:0.333333 3:-0.0869565 4:-1 5:-1 6:1 7:-1 8:-1 9:-1 10:-0.637263 
1 1:0.333333 3:-0.0869565 4:-1 5:-0.333333 6:-1 7:-1 8:-1 9:-1 10:-0.330585 
1 1:0.333333 3:-0.0869565 4:-1 5:-0.333333 7:-1 8:-1 9:-1 10:-0.221764 
-1 1:0.333333 3:-0.0869565 4:-1 5:-0.333333 6:1 7:-1 8:-1 9:-1 10:-0.079967 
1 1:0.333333 3:-0.269565 4:-1 5:0.333333 6:-1 7:-1 8:-1 9:-1 10:-0.0338005 
1 1:0.333333 3:-0.269565 4:-1 5:0.333333 7:-1 8:-1 9:-1 10:0.012366 
1 1:0.333333 3:-0.269565 4:-1 5:0.333333 6:1 7:-1 8:-1 9:-1 10:0.00906843 
1 1:0.333333 3:-0.269565 4:-1 5:1 6:-1 7:-1 8:-1 9:-1 10:-0.127782 
1 1:0.333333 3:-0.269565 4:-1 5:1 7:-1 8:-1 9:-1 10:-0.0651278 
1 1:0.333333 3:-0.269565 4:-1 5:1 6:1 7:-1 8:-1 9:-1 10:-0.173949 
1 1:0.666667 3:-0.321739 4:-1 5:-1 6:-1 7:-1 8:-0.963636 9:-1 10:-0.845012 
1 1:0.666667 3:-0.321739 4:-1 5:-1 7:-1 8:-0.963636 9:-1 10:-0.881286 
1 1:0.666667 3:-0.321739 4:-1 5:-1 6:1 7:-1 8:-0.963636 9:-1 10:-0.730695 
1 1:0.666667 3:-0.321739 4:-1 5:-0.333333 6:-1 7:-1 8:-0.963636 9:-1 10:-0.546029 
1 1:0.666667 3:-0.321739 4:-1 5:-0.333333 7:-1 8:-0.963636 9:-1 10:-0.47568 
1 1:0.666667 3:-0.321739 4:-1 5:-0.333333 6:1 7:-1 8:-0.963636 9:-1 10:-0.225062 
-1 1:0.666667 3:-0.234783 4:-1 5:0.333333 6:-1 7:-1 8:-1 9:-1 10:-0.289365 
1 1:0.666667 3:-0.234783 4:-1 5:0.333333 7:-1 8:-1 9:-1 10:-0.226711 
-1 1:0.666667 3:-0.234783 4:-1 5:0.333333 6:1 7:-1 8:-1 9:-1 10:-0.248145 
-1 1:0.666667 3:-0.234783 4:-1 5:1 6:-1 7:-1 8:-1 9:-1 10:-0.258038 
-1 1:0.666667 3:-0.234783 4:-1 5:1 7:-1 8:-1 9:-1 10:-0.210223 
-1 1:0.666667 3:-0.234783 4:-1 5:1 6:1 7:-1 8:-1 9:-1 10:-0.259687 
-1 1:1 3:-0.521739 4:-1 5:-1 6:-1 7:-1 8:-1 9:-1 10:-0.871393 
1 1:1 3:-0.521739 4:-1 5:-1 7:-1 8:-1 9:-1 10:-0.761473 
1 1:1 3:-0.521739 4:-1 5:-1 6:1 7:-1 8:-1 9:-1 10:-0.673537 
1 1:1 3:-0.521739 4:-1 5:-0.333333 6:-1 7:-1 8:-1 9:-1 10:-0.57241 
1 1:1 3:-0.521739 4:-1 5:-0.333333 7:-1 8:-1 9:-1 10:-0.211871 
1 1:1 3:-0.521739 4:-1 5:-0.333333 6:1 7:-1 8:-1 9:-1 10:-0.181094 
1 1:1 3:-0.408696 4:-1 5:0.333333 6:-1 7:-1 8:-1 9:-1 10:-0.149688 
-1 1:1 3:-0.408696 4:-1 5:0.333333 7:-1 8:-1 9:-1 10:-0.238252 
1 1:1 3:-0.408696 4:-1 5:0.333333 6:1 7:-1 8:-1 9:-1 10:-0.249794 
-1 1:1 3:-0.408696 4:-1 5:1 6:-1 7:-1 8:-1 9:-1 10:-0.272877 
-1 1:1 3:-0.408696 4:-1 5:1 7:-1 8:-1 9:-1 10:-0.197032 
-1 1:1 3:-0.408696 4:-1 5:1 6:1 7:-1 8:-1 9:-1 10:-0.335532 
1 1:-1 3:0.00869565 4:-1 5:-1 6:-1 7:-1 8:-1 9:-1 10:-0.788953 
1 1:-1 3:0.00869565 4:-1 5:-1 7:-1 8:-1 9:-1 10:-0.728937 
1 1:-1 3:0.00869565 4:-1 5:-1 6:1 7:-1 8:-1 9:-1 10:-0.58648 
1 1:-1 3:0.00869565 4:-1 5:-0.333333 6:-1 7:-1 8:-1 9:-1 10:-0.246167 
1 1:-1 3:0.00869565 4:-1 5:-0.333333 7:-1 8:-1 9:-1 10:-0.000824402 
-1 1:-1 3:0.00869565 4:-1 5:-0.333333 6:1 7:-1 8:-1 9:-1 10:0.0756801 
1 1:-1 3:-0.4 4:-1 5:0.333333 6:-1 7:-1 8:-1 9:-1 10:-0.106348 
1 1:-1 3:-0.4 4:-1 5:0.333333 7:-1 8:-1 9:-1 10:-0.0773289 
-1 1:-1 3:-0.4 4:-1 5:0.333333 6:1 7:-1 8:-1 9:-1 10:-0.161748 
-1 1:-1 3:-0.4 4:-1 5:1 6:-1 7:-1 8:-1 9:-1 10:-0.065311 
-1 1:-1 3:-0.4 4:-1 5:1 7:-1 8:-1 9:-1 10:-0.100485 
1 1:-1 3:-0.4 4:-1 5:1 6:1 7:-1 8:-1 9:-1 10:-0.189887 
1 1:-1 2:1 3:0.304348 4:-1 5:-1 6:-1 7:-1 8:-1 9:-0.9 10:-0.668261 
1 1:-1 2:1 3:0.304348 4:-1 5:-1 7:-1 8:-1 9:-0.9 10:-0.349052 
1 1:-1 2:1 3:0.304348 4:-1 5:-1 6:1 7:-1 8:-1 9:-0.9 10:-0.132729 
1 1:-1 2:1 3:0.304348 4:-1 5:-0.333333 6:-1 7:-1 8:-1 9:-0.9 10:0.513603 
1 1:-1 2:1 3:0.304348 4:-1 5:-0.333333 7:-1 8:-1 9:-0.9 10:0.666612 
1 1:-1 2:1 3:0.304348 4:-1 5:-0.333333 6:1 7:-1 8:-1 9:-0.9 10:0.764221 
1 1:-1 2:1 3:-0.0173913 4:-1 5:0.333333 6:-1 7:-1 8:-1 9:-1 10:0.632317 
1 1:-1 2:1 3:-0.0173913 4:-1 5:0.333333 7:-1 8:-1 9:-1 10:0.625721 
-1 1:-1 2:1 3:-0.0173913 4:-1 5:0.333333 6:1 7:-1 8:-1 9:-1 10:0.559769 
1 1:-1 2:1 3:-0.0173913 4:-1 5:1 6:-1 7:-1 8:-1 9:-1 10:0.649464 
-1 1:-1 2:1 3:-0.0173913 4:-1 5:1 7:-1 8:-1 9:-1 10:0.563726 
-1 1:-1 2:1 3:-0.0173913 4:-1 5:1 6:1 7:-1 8:-1 9:-1 10:0.493817 
1 1:-0.666667 2:1 3:0.156522 4:-1 5:-1 6:-1 7:-1 8:-1 9:-1 10:-0.732894 
1 1:-0.666667 2:1 3:0.156522 4:-1 5:-1 7:-1 8:-1 9:-1 10:-0.591096 
1 1:-0.666667 2:1 3:0.156522 4:-1 5:-1 6:1 7:-1 8:-1 9:-1 10:-0.0502885 
1 1:-0.666667 2:1 3:0.156522 4:-1 5:-0.333333 6:-1 7:-1 8:-1 9:-1 10:0.256389 
1 1:-0.666667 2:1 3:0.156522 4:-1 5:-0.333333 7:-1 8:-1 9:-1 10:0.500412 
1 1:-0.666667 2:1 3:0.156522 4:-1 5:-0.333333 6:1 7:-1 8:-1 9:-1 10:0.619126 
1 1:-0.666667 2:1 3:0.0347826 4:-1 5:0.333333 6:-1 7:-1 8:-1 9:-1 10:0.693322 
1 1:-0.666667 2:1 3:0.0347826 4:-1 5:0.333333 7:-1 8:-1 9:-1 10:0.635614 
-1 1:-0.666667 2:1 3:0.0347826 4:-1 5:0.333333 6:1 7:-1 8:-1 9:-1 10:0.774114 
-1 1:-0.666667 2:1 3:0.0347826 4:-1 5:1 6:-1 7:-1 8:-1 9:-1 10:0.642209 
1 1:-0.666667 2:1 3:0.0347826 4:-1 5:1 7:-1 8:-1 9:-1 10:0.497115 
-1 1:-0.666667 2:1 3:0.0347826 4:-1 5:1 6:1 7:-1 8:-1 9:-1 10:0.604287 
-1 1:-0.333333 2:1 3:0.286957 4:-1 5:-1 6:-1 7:-1 8:-1 9:-1 10:-0.70981 
1 1:-0.333333 2:1 3:0.286957 4:-1 5:-1 7:-1 8:-1 9:-1 10:-0.482275 
-1 1:-0.333333 2:1 3:0.286957 4:-1 5:-1 6:1 7:-1 8:-1 9:-1 10:-0.0370981 
1 1:-0.333333 2:1 3:0.286957 4:-1 5:-0.333333 6:-1 7:-1 8:-1 9:-1 10:0.302556 
-1 1:-0.333333 2:1 3:0.286957 4:-1 5:-0.333333 7:-1 8:-1 9:-1 10:0.450948 
1 1:-0.333333 2:1 3:0.286957 4:-1 5:-0.333333 6:1 7:-1 8:-1 9:-1 10:0.698269 
1 1:-0.333333 2:1 3:0.0521739 4:-1 5:0.333333 6:-1 7:-1 8:-1 9:-1 10:0.581204 
1 1:-0.333333 2:1 3:0.0521739 4:-1 5:0.333333 7:-1 8:-1 9:-1 10:0.70981 
1 1:-0.333333 2:1 3:0.0521739 4:-1 5:0.333333 6:1 7:-1 8:-1 9:-1 10:0.612531 
-1 1:-0.333333 2:1 3:0.0521739 4:-1 5:1 6:-1 7:-1 8:-1 9:-1 10:0.660346 
-1 1:-0.333333 2:1 3:0.0521739 4:-1 5:1 7:-1 8:-1 9:-1 10:0.498763 
-1 1:-0.333333 2:1 3:0.0521739 4:-1 5:1 6:1 7:-1 8:-1 9:-1 10:0.536686 
1 2:1 3:0.13913 4:-1 5:-1 6:-1 7:-1 8:-1 9:-1 10:-0.755977 
1 2:1 3:0.13913 4:-1 5:-1 7:-1 8:-1 9:-1 10:-0.591096 
1 2:1 3:0.13913 4:-1 5:-1 6:1 7:-1 8:-1 9:-1 10:-0.0931575 
1 2:1 3:0.13913 4:-1 5:-0.333333 6:-1 7:-1 8:-1 9:-1 10:0.305853 
1 2:1 3:0.13913 4:-1 5:-0.333333 7:-1 8:-1 9:-1 10:0.477329 
-1 2:1 3:0.13913 4:-1 5:-0.333333 6:1 7:-1 8:-1 9:-1 10:0.589448 
1 2:1 3:0.243478 4:-1 5:0.333333 6:-1 7:-1 8:-1 9:-1 10:0.535037 
1 2:1 3:0.243478 4:-1 5:0.333333 7:-1 8:-1 9:-1 10:0.548228 
1 2:1 3:0.243478 4:-1 5:0.333333 6:1 7:-1 8:-1 9:-1 10:0.650453 
-1 2:1 3:0.243478 4:-1 5:1 6:-1 7:-1 8:-1 9:-1 10:0.492168 
-1 2:1 3:0.243478 4:-1 5:1 7:-1 8:-1 9:-1 10:0.563067 
-1 2:1 3:0.243478 4:-1 5:1 6:1 7:-1 8:-1 9:-1 10:0.518549 
1 1:0.333333 2:1 3:0.295652 4:-1 5:-1 6:-1 7:-1 8:-1 9:-1 10:-0.759275 
-1 1:0.333333 2:1 3:0.295652 4:-1 5:-1 7:-1 8:-1 9:-1 10:-0.399835 
1 1:0.333333 2:1 3:0.295652 4:-1 5:-1 6:1 7:-1 8:-1 9:-1 10:-0.155812 
1 1:0.333333 2:1 3:0.295652 4:-1 5:-0.333333 6:-1 7:-1 8:-1 9:-1 10:0.276175 
1 1:0.333333 2:1 3:0.295652 4:-1 5:-0.333333 7:-1 8:-1 9:-1 10:0.467436 
1 1:0.333333 2:1 3:0.295652 4:-1 5:-0.333333 6:1 7:-1 8:-1 9:-1 10:0.688376 
1 1:0.333333 2:1 3:0.243478 4:-1 5:0.333333 6:-1 7:-1 8:-1 9:-1 10:0.833471 
-1 1:0.333333 2:1 3:0.243478 4:-1 5:0.333333 7:-1 8:-1 9:-1 10:0.863149 
1 1:0.333333 2:1 3:0.243478 4:-1 5:0.333333 6:1 7:-1 8:-1 9:-1 10:0.912613 
0.01334641804674862 1:0.333333 2:1 3:0.243478 4:-1 5:1 6:-1 7:-1 8:-1 9:-1 10:1 
1 1:0.333333 2:1 3:0.243478 4:-1 5:1 7:-1 8:-1 9:-1 10:0.812036 
-1 1:0.333333 2:1 3:0.243478 4:-1 5:1 6:1 7:-1 8:-1 9:-1 10:0.73784 
-1 1:0.666667 2:1 3:-0.121739 4:-1 5:-1 6:-1 7:-1 8:-1 9:-1 10:-0.699918 
-1 1:0.666667 2:1 3:-0.121739 4:-1 5:-1 7:-1 8:-1 9:-1 10:-0.337181 
1 1:0.666667 2:1 3:-0.121739 4:-1 5:-1 6:1 7:-1 8:-1 9:-1 10:-0.136026 
-0.479494094552133 1:0.666667 2:1 3:-0.121739 4:-1 5:-0.333333 6:-1 7:-1 8:-1 9:-1 10:0.170651 
-1 1:0.666667 2:1 3:-0.121739 4:-1 5:-0.333333 7:-1 8:-1 9:-1 10:0.239901 
1 1:0.666667 2:1 3:-0.121739 4:-1 5:-0.333333 6:1 7:-1 8:-1 9:-1 10:0.431162 
1 1:0.666667 2:1 3:0.295652 4:-1 5:0.333333 6:-1 7:-1 8:-1 9:-1 10:0.455894 
1 1:0.666667 2:1 3:0.295652 4:-1 5:0.333333 7:-1 8:-1 9:-1 10:0.548228 
-1 1:0.666667 2:1 3:0.295652 4:-1 5:0.333333 6:1 7:-1 8:-1 9:-1 10:0.470734 
1 1:0.666667 2:1 3:0.295652 4:-1 5:1 6:-1 7:-1 8:-1 9:-1 10:0.584501 
1 1:0.666667 2:1 3:0.295652 4:-1 5:1 7:-1 8:-1 9:-1 10:0.513603 
1 1:0.666667 2:1 3:0.295652 4:-1 5:1 6:1 7:-1 8:-1 9:-1 10:0.478978 
1 1:1 2:1 3:-0.26087 4:-1 5:-1 6:-1 7:-1 8:-1 9:-1 10:-0.749382 
-1 1:1 2:1 3:-0.26087 4:-1 5:-1 7:-1 8:-1 9:-1 10:-0.571311 
-1 1:1 2:1 3:-0.26087 4:-1 5:-0.333333 6:-1 7:-1 8:-1 9:-1 10:-0.10305 
1 1:1 2:1 3:-0.26087 4:-1 5:-0.333333 7:-1 8:-1 9:-1 10:0.0453421 
1 1:1 2:1 3:-0.26087 4:-1 5:-0.333333 6:1 7:-1 8:-1 9:-1 10:0.0618302 
1 1:1 2:1 3:0.191304 4:-1 5:0.333333 6:-1 7:-1 8:-1 9:-1 10:0.467436 
1 1:1 2:1 3:0.191304 4:-1 5:0.333333 7:-1 8:-1 9:-1 10:0.520198 
1 1:1 2:1 3:0.191304 4:-1 5:0.333333 6:1 7:-1 8:-1 9:-1 10:0.429514 
-1 1:1 2:1 3:0.191304 4:-1 5:1 6:-1 7:-1 8:-1 9:-1 10:0.47568 
-1 1:1 2:1 3:0.191304 4:-1 5:1 7:-1 8:-1 9:-1 10:0.44765 
-1 1:1 2:1 3:0.191304 4:-1 5:1 6:1 7:-1 8:-1 9:-1 10:0.376752 
1 1:-1 2:1 3:0.286957 4:-1 5:-1 6:-1 7:-1 8:-1 9:-1 10:-0.668261 
1 1:-1 2:1 3:0.286957 4:-1 5:-1 7:-1 8:-1 9:-1 10:-0.349052 
1 1:-1 2:1 3:0.286957 4:-1 5:-1 6:1 7:-1 8:-1 9:-1 10:-0.132729 
1 1:-1 2:1 3:0.286957 4:-1 5:-0.333333 6:-1 7:-1 8:-1 9:-1 10:0.513603 
1 1:-1 2:1 3:0.286957 4:-1 5:-0.333333 7:-1 8:-1 9:-1 10:0.666612 
1 1:-1 2:1 3:0.286957 4:-1 5:-0.333333 6:1 7:-1 8:-1 9:-1 10:0.764221 
1 1:-1 2:1 3:0.156522 4:-1 5:0.333333 6:-1 7:-1 8:-1 9:-1 10:0.632317 
-1 1:-1 2:1 3:0.156522 4:-1 5:0.333333 7:-1 8:-1 9:-1 10:0.625721 
1 1:-1 2:1 3:0.156522 4:-1 5:0.333333 6:1 7:-1 8:-1 9:-1 10:0.559769 
1 1:-1 2:1 3:0.156522 4:-1 5:1 6:-1 7:-1 8:-1 9:-1 10:0.649464 
-1 1:-1 2:1 3:0.156522 4:-1 5:1 7:-1 8:-1 9:-1 10:0.563726 
-1 1:-1 2:1 3:0.156522 4:-1 5:1 6:1 7:-1 8:-1 9:-1 10:0.493817 
1 1:-0.666667 2:1 3:0.208696 4:-1 5:-1 6:-1 7:-1 8:-1 9:-1 10:-0.732894 
1 1:-0.666667 2:1 3:0.208696 4:-1 5:-1 7:-1 8:-1 9:-1 10:-0.591096 
1 1:-0.666667 2:1 3:0.208696 4:-1 5:-1 6:1 7:-1 8:-1 9:-1 10:-0.0502885 
1 1:-0.666667 2:1 3:0.208696 4:-1 5:-0.333333 6:-1 7:-1 8:-1 9:-1 10:0.256389 
-1 1:-0.666667 2:1 3:0.208696 4:-1 5:-0.333333 7:-1 8:-1 9:-1 10:0.500412 
1 1:-0.666667 2:1 3:0.208696 4:-1 5:-0.333333 6:1 7:-1 8:-1 9:-1 10:0.619126 
1 1:-0.666667 2:1 3:0.304348 4:-1 5:0.333333 6:-1 7:-1 8:-1 9:0.2 10:0.693322 
1 1:-0.666667 2:1 3:0.304348 4:-1 5:0.333333 7:-1 8:-1 9:0.2 10:0.635614 
1 1:-0.666667 2:1 3:0.304348 4:-1 5:0.333333 6:1 7:-1 8:-1 9:0.2 10:0.774114 
-1 1:-0.666667 2:1 3:0.304348 4:-1 5:1 6:-1 7:-1 8:-1 9:0.2 10:0.642209 
-1 1:-0.666667 2:1 3:0.304348 4:-1 5:1 7:-1 8:-1 9:0.2 10:0.497115 
-1 1:-0.666667 2:1 3:0.304348 4:-1 5:1 6:1 7:-1 8:-1 9:0.2 10:0.604287 
1 1:-0.333333 2:1 3:0.147826 4:-1 5:-1 6:-1 7:-1 8:1 9:0.3 10:-0.70981 
1 1:-0.333333 2:1 3:0.147826 4:-1 5:-1 7:-1 8:1 9:0.3 10:-0.482275 
1 1:-0.333333 2:1 3:0.147826 4:-1 5:-1 6:1 7:-1 8:1 9:0.3 10:-0.0370981 
1 1:-0.333333 2:1 3:0.147826 4:-1 5:-0.333333 6:-1 7:-1 8:1 9:0.3 10:0.302556 
1 1:-0.333333 2:1 3:0.147826 4:-1 5:-0.333333 7:-1 8:1 9:0.3 10:0.450948 
1 1:-0.333333 2:1 3:0.147826 4:-1 5:-0.333333 6:1 7:-1 8:1 9:0.3 10:0.698269 
1 1:-0.333333 2:1 3:0.0956522 4:-1 5:0.333333 6:-1 7:-1 8:-0.345455 9:0.2 10:0.581204 
1 1:-0.333333 2:1 3:0.0956522 4:-1 5:0.333333 7:-1 8:-0.345455 9:0.2 10:0.70981 
1 1:-0.333333 2:1 3:0.0956522 4:-1 5:0.333333 6:1 7:-1 8:-0.345455 9:0.2 10:0.612531 
-1 1:-0.333333 2:1 3:0.0956522 4:-1 5:1 6:-1 7:-1 8:-0.345455 9:0.2 10:0.660346 
-1 1:-0.333333 2:1 3:0.0956522 4:-1 5:1 7:-1 8:-0.345455 9:0.2 10:0.498763 
-1 1:-0.333333 2:1 3:0.0956522 4:-1 5:1 6:1 7:-1 8:-0.345455 9:0.2 10:0.536686 
1 2:1 3:0.026087 4:-1 5:-1 6:-1 7:-1 8:-0.963636 9:0.4 10:-0.755977 
1 2:1 3:0.026087 4:-1 5:-1 7:-1 8:-0.963636 9:0.4 10:-0.591096 
1 2:1 3:0.026087 4:-1 5:-1 6:1 7:-1 8:-0.963636 9:0.4 10:-0.0931575 
1 2:1 3:0.026087 4:-1 5:-0.333333 6:-1 7:-1 8:-0.963636 9:0.4 10:0.305853 
-1 2:1 3:0.026087 4:-1 5:-0.333333 7:-1 8:-0.963636 9:0.4 10:0.477329 
-1 2:1 3:0.026087 4:-1 5:-0.333333 6:1 7:-1 8:-0.963636 9:0.4 10:0.589448 
-1 2:1 3:0.0347826 4:-1 5:0.333333 6:-1 7:-1 8:-0.890909 9:-0.8 10:0.535037 
1 2:1 3:0.0347826 4:-1 5:0.333333 7:-1 8:-0.890909 9:-0.8 10:0.548228 
-1 2:1 3:0.0347826 4:-1 5:0.333333 6:1 7:-1 8:-0.890909 9:-0.8 10:0.650453 
-1 2:1 3:0.0347826 4:-1 5:1 6:-1 7:-1 8:-0.890909 9:-0.8 10:0.492168 
-1 2:1 3:0.0347826 4:-1 5:1 7:-1 8:-0.890909 9:-0.8 10:0.563067 
-1 2:1 3:0.0347826 4:-1 5:1 6:1 7:-1 8:-0.890909 9:-0.8 10:0.518549 
1 1:0.333333 2:1 3:0.13913 4:-1 5:-1 6:-1 7:-1 8:-1 9:-1 10:-0.759275 
1 1:0.333333 2:1 3:0.13913 4:-1 5:-1 7:-1 8:-1 9:-1 10:-0.399835 
-1 1:0.333333 2:1 3:0.13913 4:-1 5:-1 6:1 7:-1 8:-1 9:-1 10:-0.155812 
1 1:0.333333 2:1 3:0.13913 4:-1 5:-0.333333 6:-1 7:-1 8:-1 9:-1 10:0.276175 
1 1:0.333333 2:1 3:0.13913 4:-1 5:-0.333333 7:-1 8:-1 9:-1 10:0.467436 
-1 1:0.333333 2:1 3:0.13913 4:-1 5:-0.333333 6:1 7:-1 8:-1 9:-1 10:0.688376 
1 1:0.333333 2:1 3:0.756522 4:-1 5:0.333333 6:-1 7:-1 8:-1 9:-1 10:0.833471 
1 1:0.333333 2:1 3:0.756522 4:-1 5:0.333333 7:-1 8:-1 9:-1 10:0.863149 
1 1:0.333333 2:1 3:0.756522 4:-1 5:0.333333 6:1 7:-1 8:-1 9:-1 10:0.912613 
1 1:0.333333 2:1 3:0.756522 4:-1 5:1 6:-1 7:-1 8:-1 9:-1 10:1 
1 1:0.333333 2:1 3:0.756522 4:-1 5:1 7:-1 8:-1 9:-1 10:0.812036 
1 1:0.333333 2:1 3:0.756522 4:-1 5:1 6:1 7:-1 8:-1 9:-1 10:0.73784 
1 1:0.666667 2:1 3:0.13913 4:-1 5:-1 6:-1 7:1 8:-1 9:-1 10:-0.699918 
1 1:0.666667 2:1 3:0.13913 4:-1 5:-1 7:1 8:-1 9:-1 10:-0.337181 
1 1:0.666667 2:1 3:0.13913 4:-1 5:-1 6:1 7:1 8:-1 9:-1 10:-0.136026 
1 1:0.666667 2:1 3:0.13913 4:-1 5:-0.333333 6:-1 7:1 8:-1 9:-1 10:0.170651 
1 1:0.666667 2:1 3:0.13913 4:-1 5:-0.333333 7:1 8:-1 9:-1 10:0.239901 
1 1:0.666667 2:1 3:0.13913 4:-1 5:-0.333333 6:1 7:1 8:-1 9:-1 10:0.431162 
-1 1:0.666667 2:1 3:-0.130435 4:-1 5:0.333333 6:-1 7:1 8:-1 9:-1 10:0.455894 
1 1:0.666667 2:1 3:-0.130435 4:-1 5:0.333333 7:1 8:-1 9:-1 10:0.548228 
1 1:0.666667 2:1 3:-0.130435 4:-1 5:0.333333 6:1 7:1 8:-1 9:-1 10:0.470734 
1 1:0.666667 2:1 3:-0.130435 4:-1 5:1 6:-1 7:1 8:-1 9:-1 10:0.584501 
-1 1:0.666667 2:1 3:-0.130435 4:-1 5:1 7:1 8:-1 9:-1 10:0.513603 
1 1:0.666667 2:1 3:-0.130435 4:-1 5:1 6:1 7:1 8:-1 9:-1 10:0.478978 
1 1:1 2:1 3:-0.2 4:-1 5:-1 6:-1 7:1 8:-1 9:-1 10:-0.749382 
1 1:1 2:1 3:-0.2 4:-1 5:-1 7:1 8:-1 9:-1 10:-0.571311 
1 1:1 2:1 3:-0.2 4:-1 5:-1 6:1 7:1 8:-1 9:-1 10:-0.267931 
1 1:1 2:1 3:-0.2 4:-1 5:-0.333333 6:-1 7:1 8:-1 9:-1 10:-0.10305 
1 1:1 2:1 3:-0.2 4:-1 5:-0.333333 7:1 8:-1 9:-1 10:0.0453421 
1 1:1 2:1 3:-0.2 4:-1 5:-0.333333 6:1 7:1 8:-1 9:-1 10:0.0618302 
1 1:1 2:1 3:-0.208696 4:-1 5:0.333333 6:-1 7:1 8:-1 9:-1 10:0.467436 
1 1:1 2:1 3:-0.208696 4:-1 5:0.333333 7:1 8:-1 9:-1 10:0.520198 
1 1:1 2:1 3:-0.208696 4:-1 5:0.333333 6:1 7:1 8:-1 9:-1 10:0.429514 
1 1:1 2:1 3:-0.208696 4:-1 5:1 6:-1 7:1 8:-1 9:-1 10:0.47568 
-1 1:1 2:1 3:-0.208696 4:-1 5:1 7:1 8:-1 9:-1 10:0.44765 
1 1:1 2:1 3:-0.208696 4:-1 5:1 6:1 7:1 8:-1 9:-1 10:0.376752 
1 1:-1 2:1 3:-0.113043 4:-1 5:-1 6:-1 7:1 8:-1 9:-1 10:-0.668261 
1 1:-1 2:1 3:-0.113043 4:-1 5:-1 7:1 8:-1 9:-1 10:-0.349052 
1 1:-1 2:1 3:-0.113043 4:-1 5:-1 6:1 7:1 8:-1 9:-1 10:-0.132729 
1 1:-1 2:1 3:-0.113043 4:-1 5:-0.333333 6:-1 7:1 8:-1 9:-1 10:0.513603 
1 1:-1 2:1 3:-0.113043 4:-1 5:-0.333333 7:1 8:-1 9:-1 10:0.666612 
1 1:-1 2:1 3:-0.113043 4:-1 5:-0.333333 6:1 7:1 8:-1 9:-1 10:0.764221 
1 1:-1 2:1 3:-0.243478 4:-1 5:0.333333 6:-1 7:1 8:-1 9:-1 10:0.632317 
1 1:-1 2:1 3:-0.243478 4:-1 5:0.333333 7:1 8:-1 9:-1 10:0.625721 
1 1:-1 2:1 3:-0.243478 4:-1 5:0.333333 6:1 7:1 8:-1 9:-1 10:0.559769 
1 1:-1 2:1 3:-0.243478 4:-1 5:1 6:-1 7:1 8:-1 9:-1 10:0.649464 
1 1:-1 2:1 3:-0.243478 4:-1 5:1 7:1 8:-1 9:-1 10:0.563726 
1 1:-1 2:1 3:-0.243478 4:-1 5:1 6:1 7:1 8:-1 9:-1 10:0.493817 
1 1:-0.666667 2:1 3:-0.0608696 4:-1 5:-1 6:-1 7:1 8:-1 9:-1 10:-0.732894 
1 1:-0.666667 2:1 3:-0.0608696 4:-1 5:-1 7:1 8:-1 9:-1 10:-0.591096 
1 1:-0.666667 2:1 3:-0.0608696 4:-1 5:-1 6:1 7:1 8:-1 9:-1 10:-0.0502885 
1 1:-0.666667 2:1 3:-0.0608696 4:-1 5:-0.333333 6:-1 7:1 8:-1 9:-1 10:0.256389 
1 1:-0.666667 2:1 3:-0.0608696 4:-1 5:-0.333333 7:1 8:-1 9:-1 10:0.500412 
1 1:-0.666667 2:1 3:-0.0608696 4:-1 5:-0.333333 6:1 7:1 8:-1 9:-1 10:0.619126 
1 1:-0.666667 2:1 3:0.452174 4:-1 5:0.333333 6:-1 7:1 8:-1 9:-1 10:0.693322 
-1 1:-0.666667 2:1 3:0.452174 4:-1 5:0.333333 7:1 8:-1 9:-1 10:0.635614 
1 1:-0.666667 2:1 3:0.452174 4:-1 5:0.333333 6:1 7:1 8:-1 9:-1 10:0.774114 
1 1:-0.666667 2:1 3:0.452174 4:-1 5:1 6:-1 7:1 8:-1 9:-1 10:0.642209 
-1 1:-0.666667 2:1 3:0.452174 4:-1 5:1 7:1 8:-1 9:-1 10:0.497115 
1 1:-0.666667 2:1 3:0.452174 4:-1 5:1 6:1 7:1 8:-1 9:-1 10:0.604287 
1 1:-0.333333 2:1 3:0.026087 4:-1 5:-1 6:-1 7:1 8:-1 9:-1 10:-0.70981 
1 1:-0.333333 2:1 3:0.026087 4:-1 5:-1 7:1 8:-1 9:-1 10:-0.482275 
1 1:-0.333333 2:1 3:0.026087 4:-1 5:-1 6:1 7:1 8:-1 9:-1 10:-0.0370981 
1 1:-0.333333 2:1 3:0.026087 4:-1 5:-0.333333 6:-1 7:1 8:-1 9:-1 10:0.302556 
1 1:-0.333333 2:1 3:0.026087 4:-1 5:-0.333333 7:1 8:-1 9:-1 10:0.450948 
1 1:-0.333333 2:1 3:0.026087 4:-1 5:-0.333333 6:1 7:1 8:-1 9:-1 10:0.698269 
1 1:-0.333333 2:1 3:0.504348 4:-1 5:0.333333 6:-1 7:1 8:-1 9:-1 10:0.581204 
1 1:-0.333333 2:1 3:0.504348 4:-1 5:0.333333 7:1 8:-1 9:-1 10:0.70981 
1 1:-0.333333 2:1 3:0.504348 4:-1 5:0.333333 6:1 7:1 8:-1 9:-1 10:0.612531 
1 1:-0.333333 2:1 3:0.504348 4:-1 5:1 6:-1 7:1 8:-1 9:-1 10:0.660346 
1 1:-0.333333 2:1 3:0.504348 4:-1 5:1 7:1 8:-1 9:-1 10:0.498763 
1 1:-0.333333 2:1 3:0.504348 4:-1 5:1 6:1 7:1 8:-1 9:-1 10:0.536686 
1 2:1 3:0.0782609 4:-1 5:-1 6:-1 7:1 8:-0.709091 9:-1 10:-0.755977 
1 2:1 3:0.0782609 4:-1 5:-1 7:1 8:-0.709091 9:-1 10:-0.591096 
1 2:1 3:0.0782609 4:-1 5:-1 6:1 7:1 8:-0.709091 9:-1 10:-0.0931575 
1 2:1 3:0.0782609 4:-1 5:-0.333333 6:-1 7:1 8:-0.709091 9:-1 10:0.305853 
1 2:1 3:0.0782609 4:-1 5:-0.333333 7:1 8:-0.709091 9:-1 10:0.477329 
1 2:1 3:0.0782609 4:-1 5:-0.333333 6:1 7:1 8:-0.709091 9:-1 10:0.589448 
1 2:1 3:-0.2 4:-1 5:0.333333 6:-1 7:1 8:-1 9:-1 10:0.535037 
1 2:1 3:-0.2 4:-1 5:0.333333 7:1 8:-1 9:-1 10:0.548228 
1 2:1 3:-0.2 4:-1 5:0.333333 6:1 7:1 8:-1 9:-1 10:0.650453 
1 2:1 3:-0.2 4:-1 5:1 6:-1 7:1 8:-1 9:-1 10:0.492168 
1 2:1 3:-0.2 4:-1 5:1 7:1 8:-1 9:-1 10:0.563067 
-1 2:1 3:-0.2 4:-1 5:1 6:1 7:1 8:-1 9:-1 10:0.518549 
1 1:0.333333 2:1 3:0.00869565 4:-1 5:-1 6:-1 7:-1 8:-1 9:-1 10:-0.759275 
1 1:0.333333 2:1 3:0.00869565 4:-1 5:-1 7:-1 8:-1 9:-1 10:-0.399835 
1 1:0.333333 2:1 3:0.00869565 4:-1 5:-1 6:1 7:-1 8:-1 9:-1 10:-0.155812 
1 1:0.333333 2:1 3:0.00869565 4:-1 5:-0.333333 6:-1 7:-1 8:-1 9:-1 10:0.276175 
1 1:0.333333 2:1 3:0.00869565 4:-1 5:-0.333333 7:-1 8:-1 9:-1 10:0.467436 
1 1:0.333333 2:1 3:0.00869565 4:-1 5:-0.333333 6:1 7:-1 8:-1 9:-1 10:0.688376 
1 1:0.333333 2:1 3:0.13913 4:-1 5:0.333333 6:-1 7:-1 8:-0.0909091 9:1 10:0.833471 
1 1:0.333333 2:1 3:0.13913 4:-1 5:0.333333 7:-1 8:-0.0909091 9:1 10:0.863149 
1 1:0.333333 2:1 3:0.13913 4:-1 5:0.333333 6:1 7:-1 8:-0.0909091 9:1 10:0.912613 
1 1:0.333333 2:1 3:0.13913 4:-1 5:1 6:-1 7:-1 8:-0.0909091 9:1 10:1 
1 1:0.333333 2:1 3:0.13913 4:-1 5:1 7:-1 8:-0.0909091 9:1 10:0.812036 
1 1:0.333333 2:1 3:0.13913 4:-1 5:1 6:1 7:-1 8:-0.0909091 9:1 10:0.73784 
1 1:0.666667 2:1 3:0.269565 4:-1 5:-1 6:-1 7:-1 8:-1 9:-1 10:-0.699918 
1 1:0.666667 2:1 3:0.269565 4:-1 5:-1 7:-1 8:-1 9:-1 10:-0.337181 
1 1:0.666667 2:1 3:0.269565 4:-1 5:-1 6:1 7:-1 8:-1 9:-1 10:-0.136026 
1 1:0.666667 2:1 3:0.269565 4:-1 5:-0.333333 6:-1 7:-1 8:-1 9:-1 10:0.170651 
1 1:0.666667 2:1 3:0.269565 4:-1 5:-0.333333 7:-1 8:-1 9:-1 10:0.239901 
1 1:0.666667 2:1 3:0.269565 4:-1 5:-0.333333 6:1 7:-1 8:-1 9:-1 10:0.431162 
-1 1:0.666667 2:1 3:-0.0608696 4:-1 5:0.333333 6:-1 7:-1 8:-1 9:-1 10:0.455894 
1 1:0.666667 2:1 3:-0.0608696 4:-1 5:0.333333 7:-1 8:-1 9:-1 10:0.548228 
1 1:0.666667 2:1 3:-0.0608696 4:-1 5:0.333333 6:1 7:-1 8:-1 9:-1 10:0.470734 
-1 1:0.666667 2:1 3:-0.0608696 4:-1 5:1 6:-1 7:-1 8:-1 9:-1 10:0.584501 
-1 1:0.666667 2:1 3:-0.0608696 4:-1 5:1 7:-1 8:-1 9:-1 10:0.513603 
-1 1:0.666667 2:1 3:-0.0608696 4:-1 5:1 6:1 7:-1 8:-1 9:-1 10:0.478978 
1 1:1 2:1 3:-0.0695652 4:-1 5:-1 6:-1 7:-1 8:-1 9:-1 10:-0.749382 
1 1:1 2:1 3:-0.0695652 4:-1 5:-1 7:-1 8:-1 9:-1 10:-0.571311 
1 1:1 2:1 3:-0.0695652 4:-1 5:-1 6:1 7:-1 8:-1 9:-1 10:-0.267931 
1 1:1 2:1 3:-0.0695652 4:-1 5:-0.333333 6:-1 7:-1 8:-1 9:-1 10:-0.10305 
1 1:1 2:1 3:-0.0695652 4:-1 5:-0.333333 7:-1 8:-1 9:-1 10:0.0453421 
-1 1:1 2:1 3:-0.0695652 4:-1 5:-0.333333 6:1 7:-1 8:-1 9:-1 10:0.0618302 
1 1:1 2:1 3:0.121739 4:-1 5:0.333333 6:-1 7:-1 8:-1 9:-1 10:0.467436 
-1 1:1 2:1 3:0.121739 4:-1 5:0.333333 7:-1 8:-1 9:-1 10:0.520198 
-1 1:1 2:1 3:0.121739 4:-1 5:0.333333 6:1 7:-1 8:-1 9:-1 10:0.429514 
-1 1:1 2:1 3:0.121739 4:-1 5:1 6:-1 7:-1 8:-1 9:-1 10:0.47568 
-1 1:1 2:1 3:0.121739 4:-1 5:1 7:-1 8:-1 9:-1 10:0.44765 
-1 1:1 2:1 3:0.121739 4:-1 5:1 6:1 7:-1 8:-1 9:-1 10:0.376752 
1 1:-1 2:1 3:0.286957 4:-1 5:-1 6:-1 7:-1 8:-1 9:-1 10:-0.668261 
1 1:-1 2:1 3:0.286957 4:-1 5:-1 7:-1 8:-1 9:-1 10:-0.349052 
1 1:-1 2:1 3:0.286957 4:-1 5:-1 6:1 7:-1 8:-1 9:-1 10:-0.132729 
1 1:-1 2:1 3:0.286957 4:-1 5:-0.333333 6:-1 7:-1 8:-1 9:-1 10:0.513603 
1 1:-1 2:1 3:0.286957 4:-1 5:-0.333333 7:-1 8:-1 9:-1 10:0.666612 
-1 1:-1 2:1 3:0.286957 4:-1 5:-0.333333 6:1 7:-1 8:-1 9:-1 10:0.764221 
1 1:-1 2:1 3:-0.13913 4:-1 5:0.333333 6:-1 7:-1 8:-1 9:-1 10:0.632317 
1 1:-1 2:1 3:-0.13913 4:-1 5:0.333333 7:-1 8:-1 9:-1 10:0.625721 
-1 1:-1 2:1 3:-0.13913 4:-1 5:0.333333 6:1 7:-1 8:-1 9:-1 10:0.559769 
-1 1:-1 2:1 3:-0.13913 4:-1 5:1 6:-1 7:-1 8:-1 9:-1 10:0.649464 
-1 1:-1 2:1 3:-0.13913 4:-1 5:1 7:-1 8:-1 9:-1 10:0.563726 
-1 1:-1 2:1 3:-0.13913 4:-1 5:1 6:1 7:-1 8:-1 9:-1 10:0.493817 
1 1:-0.666667 2:1 3:0.252174 4:-1 5:-1 6:-1 7:-1 8:-1 9:-1 10:-0.732894 
-1 1:-0.666667 2:1 3:0.252174 4:-1 5:-1 7:-1 8:-1 9:-1 10:-0.591096 
1 1:-0.666667 2:1 3:0.252174 4:-1 5:-1 6:1 7:-1 8:-1 9:-1 10:-0.0502885 
1 1:-0.666667 2:1 3:0.252174 4:-1 5:-0.333333 6:-1 7:-1 8:-1 9:-1 10:0.256389 
-1 1:-0.666667 2:1 3:0.252174 4:-1 5:-0.333333 7:-1 8:-1 9:-1 10:0.500412 
1 1:-0.666667 2:1 3:0.252174 4:-1 5:-0.333333 6:1 7:-1 8:-1 9:-1 10:0.619126 
1 1:-0.666667 2:1 3:0.026087 4:-1 5:0.333333 6:-1 7:-1 8:-1 9:-1 10:0.693322 
1 1:-0.666667 2:1 3:0.026087 4:-1 5:0.333333 7:-1 8:-1 9:-1 10:0.635614 
1 1:-0.666667 2:1 3:0.026087 4:-1 5:0.333333 6:1 7:-1 8:-1 9:-1 10:0.774114 
1 1:-0.666667 2:1 3:0.026087 4:-1 5:1 6:-1 7:-1 8:-1 9:-1 10:0.642209 
-1 1:-0.666667 2:1 3:0.026087 4:-1 5:1 7:-1 8:-1 9:-1 10:0.497115 
-1 1:-0.666667 2:1 3:0.026087 4:-1 5:1 6:1 7:-1 8:-1 9:-1 10:0.604287 
1 1:-0.333333 2:1 3:0.304348 4:-1 5:-1 6:-1 7:-1 8:-1 9:-1 10:-0.70981 
1 1:-0.333333 2:1 3:0.304348 4:-1 5:-1 7:-1 8:-1 9:-1 10:-0.482275 
1 1:-0.333333 2:1 3:0.304348 4:-1 5:-1 6:1 7:-1 8:-1 9:-1 10:-0.0370981 
1 1:-0.333333 2:1 3:0.304348 4:-1 5:-0.333333 6:-1 7:-1 8:-1 9:-1 10:0.302556 
-1 1:-0.333333 2:1 3:0.304348 4:-1 5:-0.333333 7:-1 8:-1 9:-1 10:0.450948 
-1 1:-0.333333 2:1 3:0.304348 4:-1 5:-0.333333 6:1 7:-1 8:-1 9:-1 10:0.698269 
1 1:-0.333333 2:1 3:-0.0347826 4:-1 5:0.333333 6:-1 7:-1 8:-1 9:-1 10:0.581204 
1 1:-0.333333 2:1 3:-0.0347826 4:-1 5:0.333333 7:-1 8:-1 9:-1 10:0.70981 
1 1:-0.333333 2:1 3:-0.0347826 4:-1 5:0.333333 6:1 7:-1 8:-1 9:-1 10:0.612531 
-1 1:-0.333333 2:1 3:-0.0347826 4:-1 5:1 6:-1 7:-1 8:-1 9:-1 10:0.660346 
1 1:-0.333333 2:1 3:-0.0347826 4:-1 5:1 7:-1 8:-1 9:-1 10:0.498763 
-1 1:-0.333333 2:1 3:-0.0347826 4:-1 5:1 6:1 7:-1 8:-1 9:-1 10:0.536686 
1 2:1 3:0.234783 4:-1 5:-1 6:-1 7:-1 8:-1 9:-1 10:-0.755977 
1 2:1 3:0.234783 4:-1 5:-1 7:-1 8:-1 9:-1 10:-0.591096 
1 2:1 3:0.234783 4:-1 5:-1 6:1 7:-1 8:-1 9:-1 10:-0.0931575 
1 2:1 3:0.234783 4:-1 5:-0.333333 6:-1 7:-1 8:-1 9:-1 10:0.305853 
1 2:1 3:0.234783 4:-1 5:-0.333333 7:-1 8:-1 9:-1 10:0.477329 
1 2:1 3:0.234783 4:-1 5:-0.333333 6:1 7:-1 8:-1 9:-1 10:0.589448 
-1 2:1 3:0.269565 4:-1 5:0.333333 6:-1 7:-1 8:-1 9:-1 10:0.535037 
1 2:1 3:0.269565 4:-1 5:0.333333 7:-1 8:-1 9:-1 10:0.548228 
1 2:1 3:0.269565 4:-1 5:0.333333 6:1 7:-1 8:-1 9:-1 10:0.650453 
-1 2:1 3:0.269565 4:-1 5:1 6:-1 7:-1 8:-1 9:-1 10:0.492168 
-1 2:1 3:0.269565 4:-1 5:1 7:-1 8:-1 9:-1 10:0.563067 
-1 2:1 3:0.269565 4:-1 5:1 6:1 7:-1 8:-1 9:-1 10:0.518549 
1 1:0.333333 2:1 3:0.295652 4:-1 5:-1 6:-1 7:-1 8:-1 9:-1 10:-0.759275 
1 1:0.333333 2:1 3:0.295652 4:-1 5:-1 7:-1 8:-1 9:-1 10:-0.399835 
1 1:0.333333 2:1 3:0.295652 4:-1 5:-1 6:1 7:-1 8:-1 9:-1 10:-0.155812 
1 1:0.333333 2:1 3:0.295652 4:-1 5:-0.333333 6:-1 7:-1 8:-1 9:-1 10:0.276175 
1 1:0.333333 2:1 3:0.295652 4:-1 5:-0.333333 7:-1 8:-1 9:-1 10:0.467436 
1 1:0.333333 2:1 3:0.295652 4:-1 5:-0.333333 6:1 7:-1 8:-1 9:-1 10:0.688376 
1 1:0.333333 2:1 3:0.26087 4:-1 5:0.333333 6:-1 7:-1 8:-1 9:-1 10:0.833471 
1 1:0.333333 2:1 3:0.26087 4:-1 5:0.333333 7:-1 8:-1 9:-1 10:0.863149 
1 1:0.333333 2:1 3:0.26087 4:-1 5:0.333333 6:1 7:-1 8:-1 9:-1 10:0.912613 
-1 1:0.333333 2:1 3:0.26087 4:-1 5:1 6:-1 7:-1 8:-1 9:-1 10:1 
-1 1:0.333333 2:1 3:0.26087 4:-1 5:1 7:-1 8:-1 9:-1 10:0.812036 
-1 1:0.333333 2:1 3:0.26087 4:-1 5:1 6:1 7:-1 8:-1 9:-1 10:0.73784 
-1 1:0.666667 2:1 3:-0.226087 4:-1 5:-1 6:-1 7:-1 8:-0.963636 9:-1 10:-0.699918 
-1 1:0.666667 2:1 3:-0.226087 4:-1 5:-1 7:-1 8:-0.963636 9:-1 10:-0.337181 
1 1:0.666667 2:1 3:-0.226087 4:-1 5:-1 6:1 7:-1 8:-0.963636 9:-1 10:-0.136026 
1 1:0.666667 2:1 3:-0.226087 4:-1 5:-0.333333 6:-1 7:-1 8:-0.963636 9:-1 10:0.170651 
1 1:0.666667 2:1 3:-0.226087 4:-1 5:-0.333333 7:-1 8:-0.963636 9:-1 10:0.239901 
1 1:0.666667 2:1 3:-0.226087 4:-1 5:-0.333333 6:1 7:-1 8:-0.963636 9:-1 10:0.431162 
-1 1:0.666667 2:1 3:0.0521739 4:-1 5:0.333333 6:-1 7:-1 8:-1 9:-1 10:0.455894 
1 1:0.666667 2:1 3:0.0521739 4:-1 5:0.333333 7:-1 8:-1 9:-1 10:0.548228 
1 1:0.666667 2:1 3:0.0521739 4:-1 5:0.333333 6:1 7:-1 8:-1 9:-1 10:0.470734 
-1 1:0.666667 2:1 3:0.0521739 4:-1 5:1 6:-1 7:-1 8:-1 9:-1 10:0.584501 
-1 1:0.666667 2:1 3:0.0521739 4:-1 5:1 7:-1 8:-1 9:-1 10:0.513603 
-1 1:0.666667 2:1 3:0.0521739 4:-1 5:1 6:1 7:-1 8:-1 9:-1 10:0.478978 
-1 1:1 2:1 3:-0.382609 4:-1 5:-1 6:-1 7:-1 8:-1 9:-1 10:-0.749382 
1 1:1 2:1 3:-0.382609 4:-1 5:-1 7:-1 8:-1 9:-1 10:-0.571311 
-1 1:1 2:1 3:-0.382609 4:-1 5:-1 6:1 7:-1 8:-1 9:-1 10:-0.267931 
-1 1:1 2:1 3:-0.382609 4:-1 5:-0.333333 6:-1 7:-1 8:-1 9:-1 10:-0.10305 
-1 1:1 2:1 3:-0.382609 4:-1 5:-0.333333 7:-1 8:-1 9:-1 10:0.0453421 
-1 1:1 2:1 3:-0.382609 4:-1 5:-0.333333 6:1 7:-1 8:-1 9:-1 10:0.0618302 
1 1:1 2:1 3:0.130435 4:-1 5:0.333333 6:-1 7:-1 8:-1 9:-1 10:0.467436 
1 1:1 2:1 3:0.130435 4:-1 5:0.333333 7:-1 8:-1 9:-1 10:0.520198 
1 1:1 2:1 3:0.130435 4:-1 5:0.333333 6:1 7:-1 8:-1 9:-1 10:0.429514 
1 1:1 2:1 3:0.130435 4:-1 5:1 6:-1 7:-1 8:-1 9:-1 10:0.47568 
1 1:1 2:1 3:0.130435 4:-1 5:1 7:-1 8:-1 9:-1 10:0.44765 
-1 1:1 2:1 3:0.130435 4:-1 5:1 6:1 7:-1 8:-1 9:-1 10:0.376752 
1 1:-1 2:1 3:0.408696 4:-1 5:-1 6:-1 7:-1 8:-1 9:-1 10:-0.668261 
1 1:-1 2:1 3:0.408696 4:-1 5:-1 7:-1 8:-1 9:-1 10:-0.349052 
1 1:-1 2:1 3:0.408696 4:-1 5:-1 6:1 7:-1 8:-1 9:-1 10:-0.132729 
1 1:-1 2:1 3:0.408696 4:-1 5:-0.333333 6:-1 7:-1 8:-1 9:-1 10:0.513603 
1 1:-1 2:1 3:0.408696 4:-1 5:-0.333333 7:-1 8:-1 9:-1 10:0.666612 
-1 1:-1 2:1 3:0.408696 4:-1 5:-0.333333 6:1 7:-1 8:-1 9:-1 10:0.764221 
1 1:-1 2:1 3:-0.191304 4:-1 5:0.333333 6:-1 7:-1 8:-1 9:-1 10:0.632317 
1 1:-1 2:1 3:-0.191304 4:-1 5:0.333333 7:-1 8:-1 9:-1 10:0.625721 
1 1:-1 2:1 3:-0.191304 4:-1 5:0.333333 6:1 7:-1 8:-1 9:-1 10:0.559769 
1 1:-1 2:1 3:-0.191304 4:-1 5:1 6:-1 7:-1 8:-1 9:-1 10:0.649464 
1 1:-1 2:1 3:-0.191304 4:-1 5:1 7:-1 8:-1 9:-1 10:0.563726 
-1 1:-1 2:1 3:-0.191304 4:-1 5:1 6:1 7:-1 8:-1 9:-1 10:0.493817 
1 1:-1 2:1 3:-0.130435 4:1 5:-1 6:-1 7:-1 8:-1 9:-0.9 10:-0.868755 
1 1:-1 2:1 3:-0.130435 4:1 5:-1 7:-1 8:-1 9:-0.9 10:-0.665622 
1 1:-1 2:1 3:-0.130435 4:1 5:-1 6:1 7:-1 8:-1 9:-0.9 10:-0.515251 
1 1:-1 2:1 3:-0.130435 4:1 5:-0.333333 6:-1 7:-1 8:-1 9:-0.9 10:-0.333223 
1 1:-1 2:1 3:-0.130435 4:1 5:-0.333333 7:-1 8:-1 9:-0.9 10:-0.182852 
1 1:-1 2:1 3:-0.130435 4:1 5:-0.333333 6:1 7:-1 8:-1 9:-0.9 10:0.012366 
-1 1:-1 2:1 3:-0.026087 4:1 5:0.333333 6:-1 7:-1 8:-1 9:-1 10:0.0519373 
-1 1:-1 2:1 3:-0.026087 4:1 5:0.333333 7:-1 8:-1 9:-1 10:0.182523 
-1 1:-1 2:1 3:-0.026087 4:1 5:0.333333 6:1 7:-1 8:-1 9:-1 10:0.148228 
-1 1:-1 2:1 3:-0.026087 4:1 5:1 6:-1 7:-1 8:-1 9:-1 10:0.100742 
-1 1:-1 2:1 3:-0.026087 4:1 5:1 7:-1 8:-1 9:-1 10:0.0189613 
-1 1:-1 2:1 3:-0.026087 4:1 5:1 6:1 7:-1 8:-1 9:-1 10:-0.0469909 
1 1:-0.666667 2:1 3:0.0347826 4:1 5:-1 6:-1 7:-1 8:-1 9:-1 10:-0.910965 
1 1:-0.666667 2:1 3:0.0347826 4:1 5:-1 7:-1 8:-1 9:-1 10:-0.680132 
1 1:-0.666667 2:1 3:0.0347826 4:1 5:-1 6:1 7:-1 8:-1 9:-1 10:-0.54493 
1 1:-0.666667 2:1 3:0.0347826 4:1 5:-0.333333 6:-1 7:-1 8:-1 9:-1 10:-0.442704 
1 1:-0.666667 2:1 3:0.0347826 4:1 5:-0.333333 7:-1 8:-1 9:-1 10:-0.277824 
1 1:-0.666667 2:1 3:0.0347826 4:1 5:-0.333333 6:1 7:-1 8:-1 9:-1 10:-0.0865622 
-1 1:-0.666667 2:1 3:-0.191304 4:1 5:0.333333 6:-1 7:-1 8:-1 9:-1 10:-0.101401 
-1 1:-0.666667 2:1 3:-0.191304 4:1 5:0.333333 7:-1 8:-1 9:-1 10:0.0486397 
1 1:-0.666667 2:1 3:-0.191304 4:1 5:0.333333 6:1 7:-1 8:-1 9:-1 10:0.155812 
1 1:-0.666667 2:1 3:-0.191304 4:1 5:1 6:-1 7:-1 8:-1 9:-1 10:0.0239077 
1 1:-0.666667 2:1 3:-0.191304 4:1 5:1 7:-1 8:-1 9:-1 10:0.116241 
1 1:-0.666667 2:1 3:-0.191304 4:1 5:1 6:1 7:-1 8:-1 9:-1 10:-0.0436933 
1 1:-0.333333 2:1 3:-0.252174 4:1 5:-1 6:-1 7:-1 8:-1 9:-1 10:-0.894477 
1 1:-0.333333 2:1 3:-0.252174 4:1 5:-1 7:-1 8:-1 9:-1 10:-0.70981 
1 1:-0.333333 2:1 3:-0.252174 4:1 5:-1 6:1 7:-1 8:-1 9:-1 10:-0.719703 
1 1:-0.333333 2:1 3:-0.252174 4:1 5:-0.333333 6:-1 7:-1 8:-1 9:-1 10:-0.40643 
-1 1:-0.333333 2:1 3:-0.252174 4:1 5:-0.333333 7:-1 8:-1 9:-1 10:-0.300907 
-1 1:-0.333333 2:1 3:-0.252174 4:1 5:-0.333333 6:1 7:-1 8:-1 9:-1 10:-0.231657 
-1 1:-0.333333 2:1 3:-0.156522 4:1 5:0.333333 6:-1 7:-1 8:-1 9:-1 10:-0.071723 
-1 1:-0.333333 2:1 3:-0.156522 4:1 5:0.333333 7:-1 8:-1 9:-1 10:0.00247321 
1 1:-0.333333 2:1 3:-0.156522 4:1 5:0.333333 6:1 7:-1 8:-1 9:-1 10:0.0502885 
-1 1:-0.333333 2:1 3:-0.156522 4:1 5:1 6:-1 7:-1 8:-1 9:-1 10:0.00577082 
-1 1:-0.333333 2:1 3:-0.156522 4:1 5:1 7:-1 8:-1 9:-1 10:-0.063479 
-1 1:-0.333333 2:1 3:-0.156522 4:1 5:1 6:1 7:-1 8:-1 9:-1 10:-0.211871 
1 2:1 3:-0.217391 4:1 5:-1 6:-1 7:-1 8:-1 9:-1 10:-0.84831 
1 2:1 3:-0.217391 4:1 5:-1 7:-1 8:-1 9:-1 10:-0.808739 
1 2:1 3:-0.217391 4:1 5:-1 6:1 7:-1 8:-1 9:-1 10:-0.630668 
